~o
<STREAMINFO> 1 39
<VECSIZE> 39<NULLD><MFCC_E_D_A><DIAGC>
~v "varFloor1"
<VARIANCE> 39
 4.190245e-001 6.354608e-001 4.795330e-001 5.590154e-001 7.068614e-001 5.950015e-001 5.662321e-001 5.084983e-001 5.262808e-001 7.805529e-001 8.882795e-001 8.991018e-001 1.922716e+016 2.339819e-002 2.400887e-002 2.881850e-002 3.208649e-002 4.935402e-002 4.004438e-002 4.627905e-002 4.130781e-002 3.992209e-002 4.722444e-002 5.628124e-002 5.204509e-002 2.924025e+014 3.726997e-003 3.880112e-003 4.843220e-003 5.845683e-003 8.849648e-003 7.403206e-003 8.477162e-003 7.933611e-003 7.530275e-003 8.439600e-003 9.529849e-003 8.545722e-003 4.888277e+013
~s "silst"
<NUMMIXES> 2
<MIXTURE> 1 6.309221e-001
<MEAN> 39
 -1.422438e+001 -5.178892e+000 -6.897151e+000 -3.778941e+000 -4.319173e+000 -5.194136e+000 -2.520238e+000 -1.217456e+000 -1.489573e+000 2.875843e-001 -1.385428e+000 -8.475535e-001 1.635114e+001 -2.047245e-001 -1.089037e-004 -3.188047e-001 -1.936986e-002 7.395430e-001 5.265770e-003 4.767220e-001 7.999618e-001 5.648026e-001 6.680906e-001 5.481563e-001 1.016431e+000 8.079961e-002 4.180405e-001 8.341683e-002 -2.695228e-001 -6.393325e-001 -4.984410e-001 -3.641727e-001 -5.278695e-001 -4.789630e-001 -1.058066e-002 1.636469e-001 2.108423e-001 2.661861e-001 2.974053e-001
<VARIANCE> 39
 2.093750e+001 5.277071e+001 3.105049e+001 4.174110e+001 4.888634e+001 2.937002e+001 3.283710e+001 3.718717e+001 3.728756e+001 5.498539e+001 6.224301e+001 4.425585e+001 1.922716e+016 3.353223e+000 2.857245e+000 3.305674e+000 3.910473e+000 5.838684e+000 5.590687e+000 6.639018e+000 5.643671e+000 4.350968e+000 5.213715e+000 5.651197e+000 5.124390e+000 2.924025e+014 4.184799e-001 4.546804e-001 5.063247e-001 6.757417e-001 1.126448e+000 9.209810e-001 9.813155e-001 1.128773e+000 9.553313e-001 1.316275e+000 1.698181e+000 8.985072e-001 4.888277e+013
<GCONST> 2.345749e+002
<MIXTURE> 2 3.690766e-001
<MEAN> 39
 -9.623956e+000 -4.958802e+000 -1.005390e+001 -1.057216e+001 -6.751808e+000 -1.022303e+001 -8.302461e+000 -5.592369e+000 -4.585187e+000 6.380984e-001 1.384149e-001 4.344688e+000 2.020395e+001 1.824538e+000 5.738212e-001 -1.351798e+000 -2.024370e+000 -1.648705e+000 -1.643137e+000 -1.344396e+000 -1.828779e+000 -3.437804e-001 -3.498807e-001 1.028915e-001 5.788630e-001 9.273070e-001 -1.651058e-001 -3.116216e-002 -1.234749e-001 8.360878e-002 4.079571e-002 -5.920754e-002 1.367841e-001 -3.082078e-003 -2.882568e-002 -3.050619e-001 -3.808632e-001 -4.152787e-001 -1.441684e-002
<VARIANCE> 39
 3.148988e+001 6.476410e+001 6.243942e+001 9.161736e+001 6.400391e+001 4.851669e+001 4.660402e+001 4.932047e+001 4.134304e+001 7.023173e+001 6.411700e+001 8.530255e+001 1.922716e+016 3.415973e+000 3.543477e+000 4.197101e+000 3.945128e+000 8.359859e+000 5.577582e+000 4.462534e+000 3.171013e+000 3.655745e+000 5.103202e+000 7.855459e+000 6.563458e+000 2.924025e+014 6.331427e-001 6.498887e-001 9.490572e-001 7.977095e-001 2.089797e+000 9.913297e-001 1.291843e+000 1.106456e+000 1.027929e+000 9.031933e-001 1.470781e+000 1.108608e+000 4.888277e+013
<GCONST> 2.416308e+002
~h "a"
<BEGINHMM>
<NUMSTATES> 8
<STATE> 2
<NUMMIXES> 2
<MIXTURE> 1 5.324019e-001
<MEAN> 39
 -1.562306e+001 -3.419862e+000 -4.438426e+000 -4.488743e+000 -3.632127e+000 -5.765916e+000 -3.672168e+000 -2.670697e+000 -3.018466e+000 -1.091747e+000 -7.680708e-001 -2.736727e+000 1.579123e+001 2.066868e-001 6.454327e-001 7.895367e-001 8.752531e-001 5.923371e-001 7.028477e-001 -1.978077e-001 -1.042439e-001 -5.538034e-002 9.450117e-001 3.497646e-001 -2.672567e-001 -1.997351e-002 1.182955e-001 6.133144e-002 -1.323649e-001 -2.519881e-001 1.146747e-001 1.814980e-001 2.782708e-001 1.150505e-001 8.418858e-002 -2.130600e-001 -4.253074e-001 -1.176261e-001 5.675334e-002
<VARIANCE> 39
 3.501263e+000 9.308177e+000 8.731450e+000 1.818425e+001 1.401504e+001 1.425177e+001 5.754307e+000 1.692199e+001 2.125861e+001 1.140442e+001 9.422925e+000 1.377275e+001 1.922716e+016 1.560276e-001 4.517837e-001 6.885519e-001 2.463621e+000 1.601851e+000 1.233515e+000 1.121734e+000 1.018139e+000 2.146538e+000 1.475484e+000 1.516851e+000 2.836655e+000 2.924025e+014 4.188303e-002 2.175433e-001 2.230878e-001 3.503525e-001 3.315477e-001 1.944965e-001 1.178608e-001 3.676133e-001 4.332057e-001 4.056768e-001 3.890932e-001 5.302579e-001 4.888277e+013
<GCONST> 1.876432e+002
<MIXTURE> 2 4.675989e-001
<MEAN> 39
 -1.442945e+001 -3.181214e+000 -5.294114e+000 -8.265263e+000 -3.647850e+000 -3.772869e+000 -2.421611e-001 -1.333763e+000 1.084093e+000 -1.260889e+000 -4.430482e+000 -6.290759e+000 1.590064e+001 -2.735909e-001 -1.173881e-001 -6.439118e-001 -6.409242e-001 7.540931e-001 -3.484524e-001 -3.704771e-002 -4.200470e-001 -7.987530e-001 -1.025844e+000 -7.522354e-001 5.796102e-001 1.252946e-001 1.881621e-001 -1.343679e-001 -4.925533e-001 1.248146e-001 -3.140022e-001 -3.767978e-001 -2.400406e-001 -2.383222e-001 -6.573049e-001 -3.071285e-001 2.279051e-001 4.548992e-001 2.083977e-001
<VARIANCE> 39
 3.652811e+000 3.411371e+000 5.825448e+000 1.741741e+001 1.505776e+001 1.536364e+001 8.609551e+000 8.825809e+000 1.120327e+001 1.643952e+001 8.738669e+000 1.375550e+001 1.922716e+016 1.260029e-001 3.910876e-001 3.443949e+000 1.662083e+000 8.765971e-001 2.175247e+000 1.827120e+000 2.688244e+000 2.004699e+000 1.567180e+000 2.425299e+000 1.837972e+000 2.924025e+014 8.231096e-002 6.244878e-002 6.664982e-001 4.560554e-001 2.735186e-001 5.124854e-001 1.306451e-001 4.284298e-001 2.054046e-001 5.509579e-001 2.853402e-001 6.141187e-001 4.888277e+013
<GCONST> 1.893048e+002
<STATE> 3
<NUMMIXES> 2
<MIXTURE> 1 5.924953e-001
<MEAN> 39
 -1.121548e+001 -1.504088e+000 -1.570984e+001 -7.907253e+000 -4.337219e+000 -6.605554e+000 -2.522642e+000 -4.545886e+000 -7.923591e+000 -6.208726e+000 -3.836988e+000 2.609291e+000 1.989998e+001 1.888466e+000 -3.402424e-001 -1.822544e+000 -2.880608e+000 -1.840318e+000 -1.143302e+000 2.407778e-001 -1.161833e-001 8.034873e-001 -2.260820e-001 1.575763e+000 3.170792e+000 1.045990e+000 1.472864e-001 -7.501240e-002 -1.496674e-001 -7.025285e-001 -1.236512e-001 -1.611683e-001 -1.938327e-001 -6.921216e-001 3.893386e-001 5.020575e-001 8.007039e-001 8.182066e-001 1.336312e-001
<VARIANCE> 39
 6.319048e+000 1.151047e+000 1.255581e+002 3.480981e+001 4.199051e+001 4.259309e+000 1.311439e+001 4.878563e+001 1.485971e+001 8.380290e+000 3.133150e+001 1.286721e+001 1.922716e+016 1.133971e+000 8.848522e-001 3.200596e+000 8.526421e+000 2.022074e-001 1.541847e+000 6.075007e-001 2.598787e+000 7.276563e-001 7.954384e-001 1.262746e+000 6.369601e-001 2.924025e+014 1.932721e-001 6.355405e-002 3.926062e-001 1.111629e+000 1.436208e-001 2.950513e-001 9.490549e-002 5.584285e-001 1.018373e-001 1.646643e-001 4.518647e-001 9.754503e-002 4.888277e+013
<GCONST> 1.901395e+002
<MIXTURE> 2 4.075046e-001
<MEAN> 39
 -1.334731e+001 -2.094940e+000 -2.270520e+001 -7.618136e+000 -2.353406e+000 -5.065456e+000 -4.591602e+000 -1.233770e+001 -8.886909e+000 -6.782610e+000 -3.733685e+000 8.749110e-001 2.161864e+001 8.304681e-001 1.660627e-001 -3.808913e+000 -9.884632e-001 -1.739274e+000 -1.139938e+000 -5.125740e-001 -2.082569e+000 -1.489608e+000 -8.929963e-001 8.635654e-001 1.455776e+000 1.031398e+000 1.133373e-001 1.991653e-002 1.103743e+000 9.121190e-002 -5.483088e-001 1.381988e-001 3.230615e-002 7.726812e-001 5.542850e-001 5.186945e-001 2.966346e-001 -8.335458e-002 -2.455259e-001
<VARIANCE> 39
 4.818553e+000 2.616508e+000 6.452568e+001 1.714606e+001 1.724327e+001 6.088268e+000 9.218831e+000 2.196176e+001 7.749641e+000 7.332971e+000 1.427282e+001 4.965783e+000 1.922716e+016 1.993214e-001 2.050081e-001 8.311091e+000 3.973950e-001 1.596431e+000 3.745314e-001 6.317320e-001 5.693113e+000 1.639177e+000 2.477252e+000 5.999944e-001 1.223179e+000 2.924025e+014 9.677242e-002 5.718703e-002 1.064728e+000 6.897439e-001 2.212604e-001 2.549583e-001 1.475587e-001 1.108808e+000 2.560248e-001 2.349671e-001 3.353289e-001 5.408096e-001 4.888277e+013
<GCONST> 1.869562e+002
<STATE> 4
<NUMMIXES> 2
<MIXTURE> 1 5.325845e-001
<MEAN> 39
 -7.503692e+000 -2.880708e+000 -1.952539e+001 -1.494362e+001 -1.477450e+001 -1.135690e+001 -9.792835e+000 -1.224828e+001 -4.251764e+000 2.825709e+000 1.206373e+001 2.079568e+001 2.289246e+001 -2.334414e-001 7.759056e-001 1.150878e+000 8.120173e-001 -9.888383e-001 -1.195007e+000 -2.288733e+000 -7.583284e-002 1.360258e+000 1.684970e+000 3.044521e+000 2.217204e+000 -1.468300e-002 -1.726663e-002 1.091091e-001 3.566631e-001 -1.592322e-001 2.313600e-001 -1.249777e-001 4.013602e-001 5.584099e-001 3.685289e-001 6.616832e-002 -5.020551e-001 -5.128575e-001 -3.069704e-003
<VARIANCE> 39
 3.723157e+000 1.637114e+001 2.907219e+001 1.544239e+001 8.779416e+000 1.182226e+001 2.044145e+001 1.307571e+001 7.299871e+000 1.803948e+001 2.590718e+001 1.839387e+001 1.922716e+016 7.405259e-002 1.393851e-001 6.178083e-001 8.965548e-001 8.579007e-001 8.176389e-001 1.071239e+000 1.840022e+000 1.436334e+000 1.579892e+000 2.477699e+000 1.362864e+000 2.924025e+014 2.057162e-002 5.004112e-002 7.875889e-002 3.085134e-001 1.276590e-001 1.507041e-001 4.847301e-001 1.751955e-001 9.124018e-002 2.320182e-001 6.478083e-001 3.889467e-001 4.888277e+013
<GCONST> 1.804460e+002
<MIXTURE> 2 4.674155e-001
<MEAN> 39
 -5.147251e+000 -5.821950e+000 -1.772781e+001 -2.131069e+001 -8.480466e+000 -1.006288e+001 5.190744e-001 -6.764418e+000 -3.794366e+000 -1.394684e+000 1.102888e+000 1.333126e+001 2.289192e+001 4.142562e-001 -5.106117e-001 -9.576673e-001 -1.142482e+000 -1.829373e+000 -4.797927e-001 -1.276874e+000 -1.464086e+000 -7.509770e-002 1.500485e+000 2.312550e+000 3.365590e+000 5.250700e-001 -5.345334e-001 3.595526e-001 7.339286e-001 1.271042e+000 4.269690e-002 1.459664e-001 -7.863747e-001 8.948848e-002 -9.679155e-002 4.151427e-001 4.096488e-001 -4.965791e-001 -3.358544e-001
<VARIANCE> 39
 2.665948e+000 8.487864e+000 1.367227e+001 2.252283e+001 1.750388e+001 6.718515e+000 2.622276e+001 6.967324e+000 6.622250e+000 2.894872e+001 2.904442e+001 4.550077e+001 1.922716e+016 9.966945e-001 1.161741e+000 2.165038e+000 8.779312e+000 5.508190e-001 1.166917e+000 4.476855e+000 9.627043e-001 9.851674e-001 1.811554e+000 3.240955e+000 3.900387e+000 2.924025e+014 1.207323e-001 8.079465e-002 1.137921e-001 8.933142e-001 9.652269e-002 4.873019e-001 4.270398e-001 1.426264e-001 1.478868e-001 3.623245e-001 4.241215e-001 3.878751e-001 4.888277e+013
<GCONST> 1.949924e+002
<STATE> 5
<NUMMIXES> 2
<MIXTURE> 1 6.040639e-001
<MEAN> 39
 -7.937753e+000 -1.743581e-002 -1.319279e+001 -1.451967e+001 -1.779292e+001 -1.523878e+001 -1.313940e+001 -8.684042e+000 1.800753e+000 1.026188e+001 1.815540e+001 2.344164e+001 2.291669e+001 -2.052194e-001 7.848641e-001 1.588701e+000 -3.398656e-001 -1.113053e+000 -9.589674e-001 1.834487e-001 9.134904e-001 1.190526e+000 1.971825e+000 3.367810e-001 -1.208845e+000 -6.587766e-002 -2.029994e-002 -1.463435e-001 -6.666217e-002 -1.715556e-001 -2.928686e-002 1.743165e-001 3.297824e-001 1.544222e-001 -2.984832e-001 -4.741755e-001 -7.650752e-001 -9.589551e-001 -9.688707e-002
<VARIANCE> 39
 1.827345e+000 9.374439e+000 1.577377e+001 1.013942e+001 1.197208e+001 9.335259e+000 1.074227e+001 1.124982e+001 2.261486e+001 1.761644e+001 8.911017e+000 9.755645e+000 1.922716e+016 7.284267e-002 1.944159e-001 4.840401e-001 2.870280e-001 1.952258e-001 4.721062e-001 4.226484e-001 1.733517e+000 1.268019e+000 1.130426e+000 9.643770e-001 9.287455e-001 2.924025e+014 1.019367e-002 3.011488e-002 4.860257e-002 7.510858e-002 9.609529e-002 1.217168e-001 1.712216e-001 2.144783e-001 2.182953e-001 3.924742e-001 2.938960e-001 1.256049e-001 4.888277e+013
<GCONST> 1.659939e+002
<MIXTURE> 2 3.959361e-001
<MEAN> 39
 -8.263105e+000 1.251795e+000 -9.898915e+000 -1.715947e+001 -2.103601e+001 -1.761488e+001 -1.294412e+001 -5.187860e+000 3.599496e+000 1.286101e+001 1.614566e+001 1.714539e+001 2.240526e+001 -3.631976e-001 5.003085e-002 1.036212e+000 7.208581e-002 -6.714070e-001 4.093547e-001 1.764502e-001 1.799685e+000 5.094854e-001 -1.273584e+000 -2.122158e+000 -3.236120e+000 -6.100810e-001 -4.223796e-001 -6.944358e-001 -2.243136e-001 7.716755e-001 9.666224e-001 9.791216e-001 4.621927e-001 -1.628388e-001 -8.514807e-001 -1.276264e+000 -7.081714e-001 -7.662784e-002 -3.719250e-001
<VARIANCE> 39
 1.093215e+000 6.555106e+000 1.023473e+001 7.880210e+000 1.725594e+001 3.970829e+000 6.470709e+000 1.143174e+001 1.515118e+001 9.623987e+000 6.304389e+000 9.148798e+000 1.922716e+016 1.993666e-001 3.793910e-001 1.209553e+000 1.244143e+000 9.212283e-001 1.821214e+000 5.067180e-001 1.503978e+000 9.374142e-001 1.892878e+000 1.256818e+000 2.983154e-001 2.924025e+014 4.290414e-002 5.591158e-002 2.497961e-002 6.180118e-002 2.929005e-001 1.166490e-001 1.020592e-001 3.198065e-001 2.728927e-001 9.547749e-002 1.004867e-001 1.443736e-001 4.888277e+013
<GCONST> 1.684089e+002
<STATE> 6
<NUMMIXES> 2
<MIXTURE> 1 5.354453e-001
<MEAN> 39
 -1.306311e+001 -4.375698e+000 -8.102301e+000 -1.081491e+001 -1.461753e+001 -9.607637e+000 -7.364144e+000 -3.490155e+000 -2.007107e+000 2.349751e+000 8.357656e+000 1.062926e+001 1.787818e+001 -1.650400e+000 -2.239373e+000 4.977275e-001 1.863136e+000 3.625174e+000 2.804404e+000 2.048295e+000 -4.972591e-001 -1.920409e+000 -3.156111e+000 -2.901895e+000 -1.913839e+000 -1.493412e+000 3.411602e-001 1.980160e-001 3.373388e-001 -3.847550e-001 1.508334e-001 -2.827383e-001 -6.162661e-002 -3.588889e-001 1.643279e-001 5.022470e-001 1.791682e-001 -9.716675e-002 2.016629e-001
<VARIANCE> 39
 4.280320e+000 1.922880e+001 5.125713e+000 8.458220e+000 8.259784e+000 1.288845e+001 4.695549e+000 4.660380e+000 2.268940e+001 1.735470e+001 1.160973e+001 4.023954e+000 1.922716e+016 2.574211e-001 2.072402e-001 5.852925e-001 6.600999e-001 1.443169e+000 3.170201e-001 6.717103e-001 8.595982e-001 1.068745e+000 5.240855e-001 5.536405e-001 4.967063e-001 2.924025e+014 1.330072e-001 2.853316e-001 1.824319e-001 1.224927e-001 6.034412e-001 2.300108e-001 1.531983e-001 9.772334e-002 2.323423e-001 1.989000e-001 3.430416e-001 1.162688e-001 4.888277e+013
<GCONST> 1.731262e+002
<MIXTURE> 2 4.645545e-001
<MEAN> 39
 -1.193946e+001 2.046903e-001 -7.985109e+000 -1.202165e+001 -1.986640e+001 -1.348441e+001 -1.062378e+001 -2.340915e-001 3.863622e+000 5.518848e+000 7.339334e+000 7.854382e+000 1.950238e+001 -1.870569e+000 -2.553481e+000 5.115847e-001 2.031063e+000 3.187275e+000 2.771472e+000 2.556597e+000 -1.361794e-001 -3.440238e+000 -3.297273e+000 -3.132325e+000 -2.270045e+000 -1.571128e+000 -1.056701e-001 -2.455952e-001 -4.288446e-001 2.478985e-001 7.538552e-001 1.845091e-001 2.198386e-001 -8.346906e-001 -4.163110e-001 -3.897383e-002 5.358884e-001 4.978879e-001 -3.692383e-002
<VARIANCE> 39
 1.277379e+001 2.692143e+001 8.435791e+000 2.548342e+001 4.323376e+001 3.541822e+001 2.919110e+001 1.955261e+001 6.476106e+001 4.603769e+001 2.456972e+001 5.954852e+000 1.922716e+016 1.595131e-001 4.901271e-001 1.326973e+000 2.371647e-001 2.052073e+000 4.664346e-001 9.993526e-001 1.893929e+000 1.972169e+000 6.200867e-001 2.068830e+000 5.531366e-001 2.924025e+014 2.531200e-001 5.822918e-001 2.706192e-001 3.466153e-001 1.022417e+000 1.125809e+000 5.921828e-001 4.164125e-001 1.196472e+000 7.152116e-001 8.277491e-001 7.033321e-002 4.888277e+013
<GCONST> 2.005650e+002
<STATE> 7
<NUMMIXES> 2
<MIXTURE> 1 5.869907e-001
<MEAN> 39
 -1.315008e+001 -4.258849e+000 -5.666365e+000 -6.027640e+000 -4.545039e+000 -4.381471e+000 -3.318883e+000 -1.967950e+000 -3.987496e+000 -2.437438e+000 -3.327928e+000 -8.694617e-001 1.775776e+001 6.332577e-001 5.262660e-001 4.812022e-001 5.786937e-001 7.271877e-001 1.949571e-002 9.037800e-001 1.745503e-001 6.873853e-002 1.253427e-001 -3.882081e-001 -5.164222e-001 1.348606e-001 2.284954e-001 2.472488e-001 -2.197451e-001 -4.692117e-001 -7.319198e-001 -5.054814e-001 -3.284173e-001 -1.098829e-001 4.249031e-001 7.497578e-001 7.618377e-001 5.223602e-001 1.125344e-001
<VARIANCE> 39
 1.041243e+001 1.129042e+001 2.288646e+001 1.305428e+001 1.846963e+001 2.457982e+001 1.277026e+001 1.494231e+001 1.425226e+001 7.412569e+000 1.881133e+001 9.240309e+000 1.922716e+016 2.124245e-001 1.210747e+000 1.181707e+000 1.477905e+000 1.758589e+000 1.679453e+000 9.597064e-001 1.580683e+000 1.195892e+000 1.734522e+000 2.650304e+000 2.500044e+000 2.924025e+014 7.226598e-002 2.709078e-001 2.711266e-001 3.089995e-001 3.815143e-001 5.164090e-001 4.251293e-001 3.089769e-001 5.482921e-001 3.756394e-001 3.561001e-001 3.500923e-001 4.888277e+013
<GCONST> 1.952465e+002
<MIXTURE> 2 4.130104e-001
<MEAN> 39
 -1.448547e+001 -5.003356e+000 -7.224690e+000 -8.329145e+000 -1.001755e+001 -5.839658e+000 -6.836133e+000 -4.721931e+000 -4.229285e+000 -8.679750e-002 3.160664e+000 3.552047e+000 1.677611e+001 -5.168961e-002 3.513172e-001 -5.212656e-001 -9.737052e-002 -5.286869e-002 2.733220e-001 -6.642287e-001 -1.046502e-001 -1.396050e-001 -1.565965e-001 -7.219506e-001 -3.547888e-001 2.840994e-001 -4.244250e-002 1.245322e-001 4.133255e-002 2.354343e-001 2.202341e-001 3.036305e-001 2.000944e-001 2.083508e-001 3.537854e-002 -2.159809e-001 -4.566305e-001 -3.205425e-001 8.240759e-002
<VARIANCE> 39
 7.788437e+000 4.416134e+000 1.346341e+001 1.231178e+001 9.207191e+000 1.593549e+001 1.420355e+001 1.304220e+001 7.275636e+000 1.725866e+001 2.932234e+001 3.115753e+001 1.922716e+016 4.349127e-001 1.963589e-001 1.807463e+000 1.469986e+000 1.667188e+000 4.928045e+000 1.628423e+000 2.407429e+000 1.104279e+000 1.733387e+000 4.628750e+000 5.108625e+000 2.924025e+014 8.075469e-002 4.719105e-002 5.166520e-001 3.957399e-001 4.608838e-001 7.338206e-001 4.016739e-001 4.030847e-001 1.951996e-001 2.883959e-001 7.428010e-001 9.897000e-001 4.888277e+013
<GCONST> 1.970654e+002
<TRANSP> 8
 0.000000e+000 1.000000e+000 0.000000e+000 0.000000e+000 0.000000e+000 0.000000e+000 0.000000e+000 0.000000e+000
 0.000000e+000 9.234552e-001 7.654479e-002 0.000000e+000 0.000000e+000 0.000000e+000 0.000000e+000 0.000000e+000
 0.000000e+000 0.000000e+000 7.612300e-001 2.387701e-001 0.000000e+000 0.000000e+000 0.000000e+000 0.000000e+000
 0.000000e+000 0.000000e+000 0.000000e+000 8.452373e-001 1.547627e-001 0.000000e+000 0.000000e+000 0.000000e+000
 0.000000e+000 0.000000e+000 0.000000e+000 0.000000e+000 8.258085e-001 1.741914e-001 0.000000e+000 0.000000e+000
 0.000000e+000 0.000000e+000 0.000000e+000 0.000000e+000 0.000000e+000 6.913012e-001 3.086988e-001 0.000000e+000
 0.000000e+000 0.000000e+000 0.000000e+000 0.000000e+000 0.000000e+000 0.000000e+000 9.287525e-001 7.124741e-002
 0.000000e+000 0.000000e+000 0.000000e+000 0.000000e+000 0.000000e+000 0.000000e+000 0.000000e+000 0.000000e+000
<ENDHMM>
~h "q"
<BEGINHMM>
<NUMSTATES> 8
<STATE> 2
<NUMMIXES> 2
<MIXTURE> 1 4.677675e-001
<MEAN> 39
 -1.072826e+001 4.141916e+000 -8.773160e+000 -5.792855e+000 -9.502322e+000 -4.685113e+000 -3.203805e+000 -4.295290e+000 7.283821e-001 2.615230e+000 -2.145140e+000 -1.980782e+000 2.011026e+001 9.122638e-001 6.568468e-001 -1.288744e+000 -3.252863e+000 -4.053459e+000 -3.020462e+000 -7.722785e-001 8.575554e-001 5.482001e+000 5.788357e+000 3.208853e+000 9.437956e-001 1.054370e+000 -1.521682e-001 -6.613837e-001 -6.695695e-001 -6.555972e-001 -3.363223e-001 -6.889510e-001 -5.576125e-001 2.129602e-001 1.050212e-001 5.525270e-001 1.279574e+000 1.260545e+000 1.558639e-001
<VARIANCE> 39
 1.303421e+001 2.736559e+000 2.555445e+000 3.968660e+001 5.203784e+000 7.950769e+000 1.135205e+000 1.862117e+000 1.371003e+001 6.014695e+001 3.894341e+000 1.398189e+001 1.922716e+016 5.160424e-001 8.462957e-001 1.466555e+000 2.319543e+000 1.589051e+000 3.930694e+000 1.498185e+000 1.012480e+000 1.916432e+000 1.592599e+000 5.439581e-001 2.111208e+000 2.924025e+014 1.762548e-002 1.522277e-002 6.373861e-001 6.235970e-001 5.821000e-001 1.052908e-001 3.322759e-001 9.034447e-002 7.294452e-001 1.554614e+000 2.635103e-002 2.883637e-001 4.888277e+013
<GCONST> 1.810794e+002
<MIXTURE> 2 5.322323e-001
<MEAN> 39
 -8.321023e+000 6.522580e-001 -7.637455e+000 -7.038282e+000 -5.988482e+000 -6.076405e+000 -6.951134e-001 -3.241738e+000 -3.674674e+000 3.353977e+000 -2.430471e+000 6.823988e-001 1.918254e+001 5.835449e-001 7.392035e-001 -2.699659e+000 -3.869480e+000 -4.237056e+000 -1.988067e+000 -1.773737e+000 -8.048072e-002 4.083916e+000 5.403996e+000 2.928632e+000 -5.925040e-001 1.011983e+000 -3.150568e-001 -7.401574e-001 -3.096200e-001 -8.543969e-001 -7.878630e-001 -9.449571e-001 -5.396562e-001 6.868185e-001 9.442648e-001 5.909898e-001 1.012925e+000 5.299229e-001 2.821128e-001
<VARIANCE> 39
 8.818193e-001 1.724247e+001 1.286121e+001 4.182888e+000 2.074489e+001 7.696957e+000 7.151656e+000 3.053551e+000 3.250193e+001 2.836724e+001 6.512096e+000 5.964149e+000 1.922716e+016 9.897905e-002 5.585445e-001 4.632722e-001 8.182995e-001 1.996512e+000 2.061212e+000 7.689050e-001 5.952268e-001 3.493479e+000 1.465215e+000 1.255786e+000 5.381360e+000 2.924025e+014 1.232229e-002 1.112574e-002 9.199204e-002 2.702919e-001 4.739337e-001 1.365258e-001 8.586483e-002 2.481691e-001 1.789038e+000 7.749178e-001 4.578383e-002 6.081529e-001 4.888277e+013
<GCONST> 1.772328e+002
<STATE> 3
<NUMMIXES> 2
<MIXTURE> 1 5.153710e-001
<MEAN> 39
 -7.607645e+000 -7.709430e-001 -1.173031e+001 -1.981898e+001 -2.002536e+001 -1.871618e+001 -5.255133e+000 1.556952e+000 1.425699e+001 2.111875e+001 1.001333e+001 2.024491e+000 2.346126e+001 -1.952535e-001 -6.723336e-001 -1.075941e+000 -1.733341e+000 -9.812118e-001 -1.972388e+000 -7.788475e-001 5.391296e-001 3.241314e-001 1.570268e+000 6.001665e+000 5.448529e+000 6.963068e-001 -1.736859e-001 -2.754587e-001 4.150356e-001 1.230786e+000 1.907915e+000 1.285955e+000 2.590103e-001 -8.183547e-001 -2.768635e+000 -2.306004e+000 -2.872924e-001 1.425995e+000 -4.088644e-001
<VARIANCE> 39
 1.772930e+000 6.412282e+000 2.479269e+001 5.654526e+000 1.480851e+001 2.070940e+001 9.872483e+000 2.172837e+001 1.597133e+001 9.558431e+000 2.969765e+001 5.135322e+001 1.922716e+016 9.432672e-002 9.724009e-002 5.219343e-001 2.722042e+000 6.239396e+000 2.961070e+000 3.385090e-001 2.651768e+000 1.132492e+001 7.434338e+000 7.433065e-001 4.146837e+000 2.924025e+014 2.383318e-002 3.375246e-002 1.770605e-001 1.042186e-001 2.389435e-001 3.246152e-001 1.160193e-001 3.282820e-001 3.986371e-001 1.070317e-001 9.702435e-001 1.315864e+000 4.888277e+013
<GCONST> 1.890023e+002
<MIXTURE> 2 4.846286e-001
<MEAN> 39
 -9.160771e+000 2.009021e+000 -1.636380e+001 -1.662841e+001 -1.715858e+001 -1.320500e+001 -7.901144e+000 -3.955068e+000 5.651319e+000 1.496249e+001 2.050273e+001 1.676110e+001 2.321649e+001 -1.229846e-001 -1.001956e+000 -6.053587e-001 -3.917845e-001 1.414706e+000 6.144830e-001 -6.475857e-001 -1.249181e+000 -3.903232e+000 -1.226519e+000 3.143937e+000 5.245950e+000 1.321187e-002 1.048622e-001 -5.176930e-001 5.247970e-001 4.105281e-001 7.353178e-001 9.875838e-001 1.057262e-001 -3.433343e-001 -1.161148e+000 -1.736784e+000 -2.096304e+000 -1.116894e+000 -2.181766e-001
<VARIANCE> 39
 4.201548e+000 8.066076e+000 2.134437e+001 1.233830e+001 2.222838e+001 1.425277e+001 5.617264e+000 1.717269e+001 2.355183e+001 7.285341e+000 2.434969e+001 5.334186e+001 1.922716e+016 3.376895e-001 3.118488e-001 1.963354e+000 1.854569e+000 4.450050e+000 2.554696e+000 7.736142e-001 1.284307e+000 7.837377e+000 6.953489e+000 3.456087e+000 2.372909e+000 2.924025e+014 1.152313e-001 3.369655e-002 2.421146e-001 1.458393e-001 5.781652e-001 9.010060e-002 8.527821e-002 1.762289e-001 1.012350e+000 1.859744e-001 9.001936e-001 1.125130e+000 4.888277e+013
<GCONST> 1.956041e+002
<STATE> 4
<NUMMIXES> 2
<MIXTURE> 1 4.371180e-001
<MEAN> 39
 -8.640000e+000 -3.867787e+000 -1.491039e+001 -1.776978e+001 -1.256899e+001 -1.300148e+001 -7.666196e+000 -5.455203e+000 -3.207284e+000 1.068217e+001 1.943102e+001 2.275232e+001 2.277597e+001 5.863301e-001 -2.381276e+000 9.751875e-002 -3.500594e-001 1.038195e+000 2.027090e+000 -6.177769e-001 -1.529288e+000 -2.938280e+000 -4.269547e+000 -2.757601e+000 5.300777e-001 -1.006408e-001 2.775403e-001 -2.672518e-001 6.793241e-003 -5.544049e-002 -6.191383e-001 3.296321e-001 2.978357e-001 -5.070694e-002 9.496830e-001 -6.155325e-001 -2.302797e+000 -2.166507e+000 6.202445e-002
<VARIANCE> 39
 9.502149e-001 1.087961e+001 1.242543e+001 4.570528e+000 6.240973e+000 1.779384e+001 6.800693e+000 7.773435e+000 1.103103e+001 3.054914e+001 1.468429e+001 2.481295e+000 1.922716e+016 4.506894e-001 5.785074e-001 6.232024e-001 6.548507e-001 9.928063e-001 6.347317e-001 1.075006e+000 6.645648e-001 1.889681e+000 1.410953e+000 3.683711e+000 2.832036e+000 2.924025e+014 2.566955e-002 1.486572e-001 6.239229e-002 1.762490e-001 1.594465e-001 1.876837e-001 1.985485e-001 1.443458e-001 1.672706e-001 5.574113e-001 4.605261e-001 1.030977e-001 4.888277e+013
<GCONST> 1.761973e+002
<MIXTURE> 2 5.628822e-001
<MEAN> 39
 -6.954639e+000 -8.857602e+000 -1.420448e+001 -1.903001e+001 -1.212412e+001 -7.516079e+000 -9.248899e+000 -8.797956e+000 -6.643956e+000 -1.066476e+000 9.899638e+000 2.092907e+001 2.289261e+001 7.876247e-001 -2.087374e+000 -3.910422e-001 -1.287049e-001 -2.925918e-001 2.108654e+000 7.309734e-001 -2.055123e+000 -1.279158e+000 -4.504826e+000 -6.385042e+000 -3.209300e+000 5.289375e-002 1.138515e-002 4.858057e-001 -7.715837e-002 4.209655e-001 -6.079882e-001 -4.408057e-001 6.680059e-001 1.845626e-001 2.363373e-001 1.125186e+000 -6.764494e-001 -2.104156e+000 9.952450e-003
<VARIANCE> 39
 1.358302e+000 6.296619e+000 4.048175e+000 4.620118e+000 3.820802e+000 1.868113e+001 1.421804e+001 1.023205e+001 4.576218e+000 2.862685e+001 5.048468e+001 1.706143e+000 1.922716e+016 1.419316e-001 4.788182e-001 5.345261e-001 8.863581e-001 8.557191e-001 1.597633e+000 1.568411e+000 4.687882e-001 4.420756e-001 2.883209e+000 1.214333e+000 4.788036e+000 2.924025e+014 2.820703e-002 1.357157e-001 6.550307e-002 1.705687e-001 2.274457e-001 3.405778e-001 1.361183e-001 1.927964e-001 3.836422e-001 7.828168e-001 1.091563e+000 1.565956e-001 4.888277e+013
<GCONST> 1.770009e+002
<STATE> 5
<NUMMIXES> 2
<MIXTURE> 1 5.219842e-001
<MEAN> 39
 -5.469463e+000 -1.207473e+001 -1.513119e+001 -1.661442e+001 -1.372513e+001 -4.729674e+000 -2.620416e+000 -1.043994e+001 -1.163524e+001 -4.830332e+000 -8.283364e+000 -1.878794e+000 2.292141e+001 4.297265e-001 -3.562631e-002 4.486750e-001 1.856605e+000 -1.048048e+000 -1.428988e+000 2.103132e+000 1.369961e+000 -2.495168e+000 1.097675e+000 -2.205390e+000 -5.464965e+000 -1.031592e-001 -1.498750e-001 3.433223e-001 3.201475e-001 3.226299e-003 8.985195e-002 -1.201533e+000 -6.970985e-002 9.513900e-001 7.535727e-002 1.130601e-001 1.764884e+000 1.557739e+000 -3.930847e-002
<VARIANCE> 39
 8.519921e-001 1.575759e+000 4.727578e+000 8.406236e+000 1.787066e+001 1.076458e+001 6.312396e+000 1.266394e+001 1.670033e+001 1.057549e+001 1.107499e+001 6.751099e+001 1.922716e+016 1.150241e-001 1.314158e-001 3.466419e-001 2.168813e-001 4.129873e-001 3.813420e+000 2.754850e-001 1.303792e+000 5.134978e-001 1.007348e+000 5.151138e+000 7.345172e+000 2.924025e+014 9.506136e-003 5.070855e-002 5.093580e-002 2.112506e-001 2.335525e-001 4.583786e-001 1.327878e-001 9.947342e-002 3.881582e-001 1.196657e+000 1.614237e-001 1.729711e+000 4.888277e+013
<GCONST> 1.742617e+002
<MIXTURE> 2 4.780155e-001
<MEAN> 39
 -4.615077e+000 -1.094635e+001 -1.645139e+001 -1.556847e+001 -1.733236e+001 -5.105781e+000 -4.129438e+000 -1.348272e+001 -1.240701e+001 -4.537943e+000 -7.665795e+000 1.875144e+000 2.276273e+001 3.299167e-001 -2.233022e-001 2.521867e-001 1.044726e+000 -1.592145e+000 -1.559335e+000 1.177335e+000 -2.268681e-002 -2.700705e+000 -8.489022e-002 -3.131689e+000 -6.525539e+000 -1.649729e-001 -2.230105e-001 4.707652e-001 3.595163e-001 -5.110166e-002 3.287063e-001 -8.359947e-001 -4.772513e-001 6.904250e-001 1.270438e-001 4.069515e-001 1.705785e+000 7.126722e-001 -4.919994e-002
<VARIANCE> 39
 2.973707e+000 3.501517e+000 3.937901e+000 1.700296e+001 2.844648e+001 8.921384e+000 1.158796e+001 1.984762e+001 2.253836e+001 2.091815e+001 1.410804e+001 7.766748e+001 1.922716e+016 1.235642e-001 3.421935e-001 7.699849e-001 2.153659e-001 1.260852e+000 3.287657e+000 9.202252e-001 2.074646e+000 9.476627e-001 1.136485e+000 7.317914e+000 6.247694e+000 2.924025e+014 2.250298e-002 4.962219e-002 7.248779e-002 3.241376e-001 4.140794e-001 4.241072e-001 5.555990e-001 2.677409e-001 4.705423e-001 1.532560e+000 1.860509e-001 1.758654e+000 4.888277e+013
<GCONST> 1.900463e+002
<STATE> 6
<NUMMIXES> 2
<MIXTURE> 1 3.917559e-001
<MEAN> 39
 -4.874627e+000 -8.423931e+000 -1.083501e+001 -1.387825e+001 -1.790261e+001 -1.187517e+001 -1.315126e+000 -7.603997e+000 -1.701756e+001 -4.963531e+000 -7.643395e+000 -7.841578e+000 2.212645e+001 -9.789060e-002 1.511825e+000 8.670202e-001 -2.482263e-002 2.910684e-001 -7.570662e-001 -9.489552e-001 8.385436e-002 1.260234e+000 -8.491083e-001 -5.081259e-001 -1.501984e-001 -1.622716e-001 -9.591684e-002 2.174866e-001 1.954954e-002 1.611101e-001 3.961944e-001 4.132495e-001 -1.217182e-001 2.441881e-001 9.428434e-001 -6.934122e-002 1.878834e-001 7.797893e-001 -5.436334e-002
<VARIANCE> 39
 1.752542e+000 1.338569e+001 4.113591e+000 6.161614e+000 1.187096e+001 6.842167e+000 2.817473e+001 4.270003e+001 6.345941e+000 1.623538e+001 9.971056e+000 9.336020e+000 1.922716e+016 1.113356e-001 9.819075e-001 5.965943e-001 3.365808e-001 8.326178e-001 2.259081e+000 2.399001e+000 6.064042e+000 3.275882e+000 2.172492e+000 3.359174e+000 2.248346e+000 2.924025e+014 3.025919e-002 6.640752e-002 2.153851e-002 3.764280e-001 1.842786e-001 3.923330e-001 3.074212e-001 8.091068e-001 2.798246e-001 3.603635e-001 2.216770e-001 6.178693e-001 4.888277e+013
<GCONST> 1.851974e+002
<MIXTURE> 2 6.082442e-001
<MEAN> 39
 -4.624665e+000 -9.424552e+000 -1.204773e+001 -1.404965e+001 -1.657278e+001 -1.372535e+001 3.436738e-001 -1.926546e+000 -1.672476e+001 -8.987147e+000 -5.216211e+000 -6.248515e+000 2.234214e+001 -1.671048e-002 1.276063e+000 8.067999e-001 -2.989547e-001 -7.473550e-001 2.451136e-001 -7.880287e-001 -5.233305e-001 1.062481e-001 -2.927799e-002 -8.653755e-002 -8.362112e-001 -1.428750e-001 -8.942743e-002 3.297336e-001 7.266140e-002 -1.234920e-001 2.203493e-004 4.619417e-001 -4.526728e-001 -8.554279e-001 6.009491e-001 4.229574e-001 -4.695240e-001 7.308815e-002 -2.984956e-002
<VARIANCE> 39
 1.202474e+000 4.352483e+000 4.483888e+000 3.320375e+000 1.065268e+001 6.421106e+000 1.989458e+001 4.544258e+001 1.014564e+001 8.828906e+000 8.282619e+000 1.161084e+001 1.922716e+016 1.463090e-001 2.856220e-001 2.644980e-001 2.317784e-001 1.044104e+000 2.016145e+000 9.804252e-001 5.100323e+000 1.053412e+000 3.051441e+000 1.419286e+000 1.332750e+000 2.924025e+014 1.618053e-002 1.146257e-002 2.778185e-002 7.232882e-002 2.433277e-001 4.556122e-001 5.543379e-002 3.834063e-001 5.082268e-001 4.599877e-001 1.942297e-001 8.290514e-001 4.888277e+013
<GCONST> 1.725102e+002
<STATE> 7
<NUMMIXES> 2
<MIXTURE> 1 4.975743e-001
<MEAN> 39
 -5.646326e+000 2.533513e+000 -4.963179e+000 -9.292180e+000 -1.375906e+001 -1.204995e+001 -8.049886e+000 -6.815542e+000 -5.905299e+000 -8.102954e+000 -7.858079e+000 -8.259964e+000 2.040224e+001 -1.558645e+000 -2.534030e-002 1.606072e+000 3.542799e+000 2.424437e+000 1.606532e+000 2.115258e+000 3.853246e+000 3.227288e+000 1.842697e+000 3.341993e+000 2.085706e+000 -9.987589e-001 -5.968114e-001 -1.195177e+000 -3.934225e-001 1.809276e-001 4.599706e-001 8.906246e-001 6.055585e-001 6.001535e-001 -4.980969e-001 9.005167e-001 7.902970e-001 3.570757e-001 -2.055677e-001
<VARIANCE> 39
 1.944918e+000 3.068609e+000 8.101467e+000 2.080570e+001 2.305514e+001 5.434716e+000 2.002604e+001 3.030196e+001 1.179020e+001 5.875113e+000 1.337287e+001 7.427008e+000 1.922716e+016 5.382777e-001 1.401004e+000 3.598417e-001 9.996892e-001 1.430098e+000 1.170844e+000 8.315761e-001 1.321997e+000 1.961677e+000 5.128370e+000 1.099484e+000 5.155143e-001 2.924025e+014 3.415348e-002 1.473075e-001 8.853813e-002 4.205669e-001 2.200283e-001 8.185832e-002 3.319443e-001 6.506084e-001 2.257110e-001 1.628599e-001 6.906938e-001 2.197208e-001 4.888277e+013
<GCONST> 1.827165e+002
<MIXTURE> 2 5.024255e-001
<MEAN> 39
 -6.520579e+000 -1.416515e+000 -7.324121e+000 -1.170537e+001 -1.782180e+001 -9.884308e+000 -5.158179e+000 -1.118367e+001 -6.212515e+000 -1.834206e+000 -1.207928e+001 -8.495814e+000 2.049711e+001 -1.065943e+000 8.539189e-001 9.948702e-001 1.624362e+000 2.022529e+000 5.046002e-001 -1.554038e-001 1.230110e+000 3.468914e+000 9.078970e-001 8.121865e-001 6.114842e-001 -6.824369e-001 -2.957724e-001 -6.466938e-001 -8.845773e-002 5.236464e-001 7.185293e-001 2.287706e-001 6.865531e-001 1.284668e+000 -1.114820e-001 -8.706303e-002 1.174103e+000 4.423469e-001 -1.564029e-001
<VARIANCE> 39
 7.128644e+000 1.550030e+000 7.992661e+000 3.646798e+001 9.103180e+000 4.118123e+000 5.952364e+001 7.971260e+001 8.404242e+001 3.448119e+001 1.424934e+001 8.508763e+000 1.922716e+016 1.282876e+000 5.418360e+000 7.101337e-001 6.177400e-001 1.141044e+000 1.895091e+000 1.529268e+000 3.113141e+000 2.632351e+000 5.098306e+000 5.408212e+000 2.496763e-001 2.924025e+014 8.177707e-002 1.920216e-001 1.200817e-001 7.607070e-001 1.964804e-002 8.083519e-002 6.711289e-001 1.017089e+000 1.032785e+000 7.147009e-001 6.909981e-001 2.639472e-001 4.888277e+013
<GCONST> 1.979021e+002
<TRANSP> 8
 0.000000e+000 1.000000e+000 0.000000e+000 0.000000e+000 0.000000e+000 0.000000e+000 0.000000e+000 0.000000e+000
 0.000000e+000 5.890839e-001 4.109161e-001 0.000000e+000 0.000000e+000 0.000000e+000 0.000000e+000 0.000000e+000
 0.000000e+000 0.000000e+000 7.414491e-001 2.585509e-001 0.000000e+000 0.000000e+000 0.000000e+000 0.000000e+000
 0.000000e+000 0.000000e+000 0.000000e+000 7.691720e-001 2.308280e-001 0.000000e+000 0.000000e+000 0.000000e+000
 0.000000e+000 0.000000e+000 0.000000e+000 0.000000e+000 7.071606e-001 2.928394e-001 0.000000e+000 0.000000e+000
 0.000000e+000 0.000000e+000 0.000000e+000 0.000000e+000 0.000000e+000 8.317222e-001 1.682778e-001 0.000000e+000
 0.000000e+000 0.000000e+000 0.000000e+000 0.000000e+000 0.000000e+000 0.000000e+000 7.486320e-001 2.513680e-001
 0.000000e+000 0.000000e+000 0.000000e+000 0.000000e+000 0.000000e+000 0.000000e+000 0.000000e+000 0.000000e+000
<ENDHMM>
~h "bu"
<BEGINHMM>
<NUMSTATES> 8
<STATE> 2
<NUMMIXES> 2
<MIXTURE> 1 5.725504e-001
<MEAN> 39
 -2.068685e+000 -1.183929e+001 -1.909014e+001 -8.193662e+000 -6.036634e+000 -1.509350e+001 -1.491608e+001 -3.311078e+000 1.978956e+000 4.145136e+000 1.085224e+001 1.107109e+001 2.270307e+001 1.452964e+000 -1.541584e+000 -2.126503e+000 2.146220e+000 -3.025497e+000 -1.179071e+000 -1.641652e+000 -3.210426e+000 -4.103565e+000 4.529231e+000 7.702946e+000 5.178559e+000 6.457657e-001 -1.674898e+000 2.748601e-001 7.136920e-001 1.372148e-002 -1.348562e+000 1.892662e+000 1.364079e+000 -5.995178e-001 -6.158928e-001 -4.957872e-001 -1.300819e+000 -6.363027e-001 -5.027667e-001
<VARIANCE> 39
 1.843419e+000 2.736639e+000 4.119592e+000 4.351677e+000 1.065895e+001 1.397286e+000 6.506543e+000 3.234882e+000 2.014016e+001 1.132707e+001 1.112119e+001 3.623578e+000 1.922716e+016 1.618374e+000 1.088732e-001 7.258142e-001 3.396554e-001 6.528051e-001 2.117517e+000 3.354345e+000 1.199638e-001 3.123516e-001 7.756546e-001 1.361124e+000 1.386075e+000 2.924025e+014 1.480318e-002 8.934701e-002 4.548930e-002 2.712465e-001 6.232184e-002 5.832954e-002 6.315374e-002 1.806278e-001 3.753116e-001 3.514079e-001 1.092340e+000 4.658335e-001 4.888277e+013
<GCONST> 1.650595e+002
<MIXTURE> 2 4.274496e-001
<MEAN> 39
 -6.032392e+000 -9.002890e+000 -1.002233e+001 -1.225957e+001 -8.880741e+000 -1.212112e+001 -6.121140e+000 -2.862695e-001 4.920430e+000 1.403807e+000 3.777695e+000 5.092948e+000 2.189438e+001 4.098390e+000 -1.544472e+000 -3.129729e+000 9.295151e-002 -8.075277e-001 -3.261408e+000 -4.069148e+000 -2.082039e+000 -1.536574e+000 3.596603e+000 6.423956e+000 4.207025e+000 1.450850e+000 -1.011351e+000 -2.391848e-001 -2.559669e-001 9.628345e-001 -9.938913e-001 8.651955e-001 2.071790e-001 -1.199395e+000 -1.674356e+000 3.989434e-001 1.019961e+000 9.659371e-001 -4.398364e-001
<VARIANCE> 39
 1.311303e+001 1.820997e+000 2.719260e+001 2.893847e+000 1.113110e+001 1.988371e+000 3.755139e+001 9.711679e+000 1.649000e+000 3.149623e+000 9.373266e+000 1.335388e+001 1.922716e+016 1.099347e+000 2.082127e-001 2.839948e-001 5.704264e-001 1.321762e+000 4.268382e-001 5.275240e-001 7.988455e-001 2.083766e+000 4.866917e-001 2.127879e+000 9.624870e-001 2.924025e+014 2.283895e-001 5.320961e-002 1.895116e-001 1.164015e-001 9.474465e-002 2.076640e-001 3.613230e-001 3.633061e-002 1.049423e-001 9.686039e-002 6.373025e-001 3.983506e-001 4.888277e+013
<GCONST> 1.705679e+002
<STATE> 3
<NUMMIXES> 2
<MIXTURE> 1 5.940341e-001
<MEAN> 39
 -6.332725e+000 -1.431966e+001 -1.442363e+001 -4.306869e+000 -1.910872e+001 -1.347457e+001 -5.504595e+000 -6.728362e+000 -9.212978e+000 1.229005e+001 2.439833e+001 1.745622e+001 2.308126e+001 -1.279388e+000 -8.894727e-002 -4.050628e-002 -4.881360e-001 -4.911952e+000 3.212071e+000 1.131391e+000 -2.870291e+000 -2.186124e+000 9.664239e-001 1.042109e-001 7.812352e-001 7.537099e-002 -1.575879e-001 1.213503e+000 6.528036e-001 -1.013845e+000 8.550738e-001 7.534830e-001 1.432790e-001 3.518335e-001 1.513557e+000 -1.808899e+000 -3.908717e+000 -2.409664e+000 -2.566667e-001
<VARIANCE> 39
 1.440603e+000 1.676903e+000 2.949377e+000 2.730510e+000 1.662847e+001 1.222579e+001 1.342943e+001 1.110847e+001 5.209505e+000 5.641660e+000 8.784331e+000 3.990744e+000 1.922716e+016 4.069950e-001 6.122116e-001 4.944244e-001 1.839689e+000 8.270022e-001 9.859056e-001 4.286925e-001 3.513008e-001 1.980566e+000 2.067498e+000 9.028839e+000 2.735072e+000 2.924025e+014 3.496296e-001 4.783071e-002 7.694465e-002 1.402123e-001 6.987416e-001 8.674468e-001 6.406212e-001 5.693340e-002 1.731529e-001 1.107901e-001 1.837229e-001 7.593414e-002 4.888277e+013
<GCONST> 1.746040e+002
<MIXTURE> 2 4.059659e-001
<MEAN> 39
 -8.125143e+000 -1.265267e+001 -1.756470e+001 -1.015223e+001 -2.421422e+001 -3.346881e+000 -1.046579e+001 -1.475945e+001 -6.183973e+000 8.983342e+000 1.330119e+001 1.579237e+001 2.296459e+001 9.240122e-001 2.569389e+000 -9.165822e-002 -2.135077e+000 -3.179989e-001 1.921790e+000 -1.055554e+000 -1.811208e+000 1.877135e+000 -2.104544e+000 -6.740120e+000 -3.496595e+000 -1.891206e-001 7.383832e-001 1.016788e+000 4.828634e-001 -2.727358e-001 2.131650e+000 -1.563510e+000 -8.523391e-001 3.424489e-001 7.460937e-001 -1.286539e+000 -1.756359e+000 -1.803948e+000 -7.182608e-002
<VARIANCE> 39
 1.101027e+000 1.775231e+000 5.012980e+000 1.073978e+001 4.675014e+000 6.806365e+000 1.534592e+001 2.952056e+000 1.454994e+000 1.948479e+000 2.048852e+001 3.068514e+000 1.922716e+016 3.044313e-001 5.455167e-001 2.886648e-001 4.128170e-001 2.558483e+000 2.125840e+000 2.041654e+000 2.967335e-001 8.789368e-001 7.718979e-001 1.253465e+000 5.294838e-001 2.924025e+014 2.302200e-002 5.840611e-002 3.448039e-002 2.113129e-001 6.390689e-002 1.909863e-001 4.203974e-002 4.035433e-002 1.915911e-001 5.391159e-002 6.623950e-001 9.801659e-002 4.888277e+013
<GCONST> 1.579608e+002
<STATE> 4
<NUMMIXES> 2
<MIXTURE> 1 6.412131e-001
<MEAN> 39
 -3.045782e+000 -6.086978e+000 -1.538445e+001 -1.167910e+001 -1.968967e+001 -7.135182e+000 -1.002998e+001 -1.193828e+001 -2.427986e+000 5.030466e+000 8.708836e-001 5.782300e+000 2.244279e+001 1.282001e+000 3.242077e+000 1.547779e+000 -1.082083e+000 2.347308e+000 -2.168018e+000 -1.762263e+000 -1.721183e+000 1.379654e-001 -3.017252e+000 -5.155108e+000 -4.976146e+000 -1.376213e-001 -1.690605e-001 -3.308987e-001 4.340599e-001 3.074550e-001 2.927656e-001 -9.417825e-001 1.695433e-001 2.229724e-001 -1.187292e+000 -5.931269e-001 8.141549e-001 -3.009511e-001 5.903259e-002
<VARIANCE> 39
 2.887985e+000 1.492990e+001 8.016898e+000 2.666080e+000 2.312201e+001 2.996177e+001 1.805410e+001 1.545690e+001 6.929355e+000 2.475235e+000 4.836866e+000 7.011469e+000 1.922716e+016 1.464083e-001 1.544383e-001 6.590396e-001 4.993660e-001 1.872202e-001 1.214805e+000 7.303616e-001 3.244431e-001 1.467912e+000 3.571450e-001 1.663990e+000 2.255764e-001 2.924025e+014 8.129326e-002 3.197154e-001 9.659658e-002 7.386082e-002 9.108290e-001 6.546056e-001 4.707554e-001 9.627949e-002 2.006022e-001 6.977435e-002 2.458651e-001 2.024924e-001 4.888277e+013
<GCONST> 1.704462e+002
<MIXTURE> 2 3.587870e-001
<MEAN> 39
 -3.131018e+000 -1.503877e+000 -1.225446e+001 -1.315978e+001 -1.632826e+001 -1.088488e+001 -1.492448e+001 -2.019406e+001 -6.297971e+000 -6.489302e-001 -1.961350e+000 -1.621862e+000 2.246495e+001 -1.144435e-002 1.690811e+000 1.769337e+000 -7.434520e-001 8.387693e-001 -2.063135e+000 -1.157840e+000 -1.788221e+000 -2.861814e+000 -3.702053e+000 -3.248735e+000 -4.176031e+000 3.294785e-002 -3.921510e-001 -1.494242e+000 -4.020340e-001 1.014952e-002 -1.263006e+000 1.048403e+000 1.029416e+000 7.848505e-001 -6.421630e-001 1.397873e-001 7.178628e-001 8.924939e-001 6.806125e-002
<VARIANCE> 39
 1.236491e+000 1.334925e+000 2.681142e+000 3.494026e+000 4.350615e+000 4.840298e+000 6.719840e+000 9.511156e+000 5.979652e+000 8.533007e+000 3.317230e+000 8.165291e+000 1.922716e+016 9.856027e-002 4.009809e-001 1.493545e-001 1.865584e-001 5.585648e-001 4.260665e-001 3.310706e-001 2.099753e-001 4.153465e-001 1.486828e-001 3.513869e-001 2.098164e-001 2.924025e+014 1.854292e-002 3.960669e-002 6.204178e-002 3.170018e-002 6.403369e-002 2.808933e-001 7.099649e-002 1.492234e-001 1.823888e-001 1.339573e-001 1.047832e-001 8.802342e-002 4.888277e+013
<GCONST> 1.444602e+002
<STATE> 5
<NUMMIXES> 2
<MIXTURE> 1 5.693936e-001
<MEAN> 39
 -3.152628e+000 -9.104798e+000 -1.175747e+001 -1.591490e+001 -2.131044e+001 -1.578654e+000 -1.129081e+001 -1.406935e+001 -9.243293e+000 -8.929154e+000 -1.405711e+001 -6.271122e+000 2.264719e+001 -1.237445e-001 -1.832412e+000 -5.090137e-001 3.317079e-001 1.189868e+000 3.974152e+000 -1.261430e+000 2.122663e+000 1.689198e+000 -1.958900e-001 -2.000801e+000 1.237577e+000 -9.220035e-002 -1.603786e-002 6.650814e-001 -9.717663e-002 2.969248e-001 9.842708e-001 -5.049815e-001 -3.108418e-001 4.555846e-002 2.827014e-001 5.475009e-001 5.163410e-001 3.740788e-001 -5.619181e-002
<VARIANCE> 39
 6.263434e-001 8.027849e+000 1.981860e+000 3.937733e+000 1.121335e+001 3.393919e+001 2.206949e+001 8.351534e+000 1.313136e+001 5.913903e+000 1.009401e+001 6.475396e+000 1.922716e+016 7.245813e-002 1.071566e+000 1.931041e-001 3.947413e-001 2.567921e+000 1.525647e+000 1.040667e+000 4.499963e-001 6.403747e-001 3.876974e-001 3.488983e-001 3.283766e-001 2.924025e+014 9.721524e-003 2.625608e-001 4.802659e-002 1.130654e-001 2.308348e-001 9.488497e-001 4.838060e-001 2.741657e-001 7.128531e-001 1.677815e-001 5.845156e-002 5.260502e-001 4.888277e+013
<GCONST> 1.689490e+002
<MIXTURE> 2 4.306064e-001
<MEAN> 39
 -3.606394e+000 -2.231393e+000 -1.036398e+001 -1.450514e+001 -1.810290e+001 -1.185379e+001 -1.323230e+001 -1.683069e+001 -1.183028e+001 -7.478507e+000 -9.323599e+000 -7.319221e+000 2.259125e+001 -6.551594e-002 -1.540433e+000 -1.705635e-003 -1.168622e+000 -1.738457e+000 1.639307e+000 1.204007e+000 7.469046e-001 -1.849210e+000 -2.703156e+000 -2.884323e+000 -1.929636e+000 6.409527e-002 -9.099558e-002 -1.092501e+000 -6.057482e-001 2.041534e-001 -2.175250e-001 1.628544e+000 4.148042e-002 8.554128e-001 1.013670e+000 8.898506e-001 3.309309e-001 1.406037e+000 -1.395977e-002
<VARIANCE> 39
 8.743508e-001 7.850257e+000 1.952988e+000 2.262636e+000 5.745942e+000 1.389274e+001 7.717119e+000 2.987989e+000 7.697804e+000 6.286412e+000 1.113214e+001 2.243878e+000 1.922716e+016 9.568051e-002 9.876109e-001 4.265175e-001 2.318935e-001 1.258857e+000 1.607136e+000 2.100199e+000 1.067241e+000 2.456821e+000 1.936127e+000 4.325500e-001 2.162494e+000 2.924025e+014 2.181609e-002 4.741991e-001 6.425946e-002 6.215546e-002 4.839965e-001 6.586940e-001 3.614953e-001 1.384050e-001 2.884577e-001 8.111761e-002 5.080437e-002 1.888750e-001 4.888277e+013
<GCONST> 1.677271e+002
<STATE> 6
<NUMMIXES> 2
<MIXTURE> 1 4.720366e-001
<MEAN> 39
 -2.904976e+000 -7.291867e+000 -1.452635e+001 -1.257577e+001 -1.665515e+001 2.749053e-001 -1.055432e+001 -1.293605e+001 -5.731200e+000 -4.617750e+000 -1.625866e+001 -6.392855e+000 2.198444e+001 3.467736e-001 1.463152e+000 9.914707e-002 3.394575e-001 -8.210690e-002 -2.195442e+000 5.472221e-001 1.134458e-001 -3.575846e-001 5.693746e-001 8.344547e-001 -1.330198e-001 -1.945831e-001 -1.988738e-001 5.637125e-001 5.913725e-001 -7.929267e-002 1.802749e-004 -9.154659e-001 -2.136802e-001 1.087670e-001 -4.265890e-001 -2.703468e-001 3.019961e-001 1.895309e-001 -7.204129e-002
<VARIANCE> 39
 4.525507e-001 1.836962e+000 5.129211e+000 3.218240e+000 1.689567e+001 1.903895e+001 8.317219e+000 3.616630e+001 3.337155e+000 1.006520e+001 4.238422e+000 1.755728e+001 1.922716e+016 8.320514e-002 3.697590e-001 6.239905e-001 2.521657e-001 3.370590e+000 3.938920e+000 7.101309e-001 8.660839e-001 6.526669e-001 7.693227e-001 5.928736e-001 8.374584e-001 2.924025e+014 5.363733e-002 7.630732e-002 4.317719e-001 4.603550e-002 9.667276e-001 2.533375e-001 5.419970e-001 1.327561e+000 8.886530e-002 2.628196e-001 3.406152e-002 8.522398e-001 4.888277e+013
<GCONST> 1.728559e+002
<MIXTURE> 2 5.279633e-001
<MEAN> 39
 -3.761108e+000 -7.594326e+000 -1.459640e+001 -1.563808e+001 -1.467782e+001 1.178301e+000 -1.331002e+001 -1.093614e+001 -8.600671e+000 -7.795041e+000 -1.804807e+001 -6.099919e+000 2.202933e+001 9.776708e-002 8.553817e-001 -7.314206e-001 2.014090e-001 -6.088731e-001 -1.201911e+000 1.018332e+000 -1.420332e+000 -8.801649e-002 1.280763e+000 9.907160e-002 -1.309651e+000 -9.781435e-002 1.099965e-001 2.529181e-001 2.038500e-001 1.457304e-001 -7.229037e-001 -8.373834e-001 1.675738e-001 -3.301885e-001 -7.342836e-002 1.827058e-001 5.031607e-001 -1.492718e-001 -7.974168e-003
<VARIANCE> 39
 4.382482e-001 4.369937e+000 2.261880e+000 3.110977e+000 5.419676e+000 4.492891e+000 9.237339e+000 6.937485e+000 4.734072e+000 1.121783e+001 4.910875e+000 5.034798e+000 1.922716e+016 6.149441e-002 1.555077e-001 1.329572e-001 4.737208e-001 2.040618e+000 5.879346e-001 6.603271e-001 1.427073e+000 4.359056e-001 1.007351e+000 5.239644e-001 3.982435e-001 2.924025e+014 9.335494e-003 1.047449e-001 8.223812e-002 4.440055e-002 2.119906e-001 6.603350e-002 4.513206e-001 4.255339e-001 8.454780e-002 2.942007e-001 5.293607e-002 2.600237e-001 4.888277e+013
<GCONST> 1.550124e+002
<STATE> 7
<NUMMIXES> 2
<MIXTURE> 1 5.001425e-001
<MEAN> 39
 -6.960716e+000 4.445824e+000 -3.526810e+000 -8.177087e+000 -1.343753e+001 -1.555535e+001 -1.561008e+001 -8.680618e+000 -6.784601e+000 -4.388149e+000 -1.104373e+001 -2.289465e+000 1.960782e+001 -1.481377e+000 -5.469024e-002 1.336661e+000 2.198822e+000 3.828298e+000 1.738979e+000 2.433319e+000 3.508343e+000 2.381902e+000 7.079860e-001 1.625196e+000 1.241547e+000 -9.710880e-001 -3.106215e-002 -1.502858e+000 -1.303729e+000 -2.654346e-001 -4.807074e-002 1.516682e+000 1.578310e+000 -1.266706e-001 1.027917e+000 5.113608e-001 2.408427e-001 -7.308838e-001 5.498241e-002
<VARIANCE> 39
 4.190245e-001 1.308781e+000 6.836362e+000 1.453867e+001 1.610345e+001 4.764611e+000 1.926191e+000 1.055560e+001 1.013049e+001 6.105769e+000 2.531481e+000 1.196463e+001 1.922716e+016 5.204875e-002 1.335952e+000 2.446658e+000 2.554094e-001 2.470697e-001 1.884636e+000 3.182543e+000 7.244748e-001 1.037253e+000 4.063840e-001 3.804207e-001 1.557859e+000 2.924025e+014 1.418577e-002 2.908668e-002 4.364301e-002 1.992194e-001 5.197927e-001 3.525079e-001 1.178249e-001 6.951483e-001 8.517808e-002 2.876435e-002 4.502982e-002 1.008446e-001 4.888277e+013
<GCONST> 1.602926e+002
<MIXTURE> 2 4.998576e-001
<MEAN> 39
 -1.997342e+000 4.585364e-001 -1.254924e+001 -1.392430e+001 -1.911083e+001 -1.195361e+001 -1.073165e+001 -1.173957e+001 -1.087204e+001 -4.428912e+000 -1.194297e+001 -7.017245e+000 2.112078e+001 -1.136443e+000 3.000618e+000 3.326964e+000 8.473108e-001 1.229842e+000 -3.418118e+000 -1.640993e+000 1.779834e+000 -5.171041e-001 -5.160506e-001 1.369067e+000 1.857299e+000 -5.596592e-001 -5.250865e-001 -3.609940e-001 3.910258e-001 5.481172e-001 1.406652e+000 1.369307e+000 4.448702e-001 9.570374e-001 7.982281e-001 4.795339e-002 1.242741e-002 5.316763e-001 -1.929983e-001
<VARIANCE> 39
 2.742735e+000 1.088600e+001 1.264530e+001 2.680323e+000 2.926505e+000 6.255514e+000 3.787982e+000 7.962042e+000 1.031090e+001 7.037033e+000 3.362183e+000 1.218791e+001 1.922716e+016 2.030848e-001 1.737498e-001 6.376464e-001 9.837294e-001 1.701364e+000 1.105237e+000 3.997896e-001 5.519201e-001 1.072050e+000 2.746213e-001 4.445896e-001 1.015454e+000 2.924025e+014 2.148698e-002 2.914289e-001 4.520382e-001 2.597140e-002 3.266183e-002 3.393706e-001 4.446737e-001 4.179179e-002 1.758266e-001 1.498418e-001 2.180386e-002 2.706141e-001 4.888277e+013
<GCONST> 1.617495e+002
<TRANSP> 8
 0.000000e+000 1.000000e+000 0.000000e+000 0.000000e+000 0.000000e+000 0.000000e+000 0.000000e+000 0.000000e+000
 0.000000e+000 5.833032e-001 4.166968e-001 0.000000e+000 0.000000e+000 0.000000e+000 0.000000e+000 0.000000e+000
 0.000000e+000 0.000000e+000 6.827965e-001 3.172036e-001 0.000000e+000 0.000000e+000 0.000000e+000 0.000000e+000
 0.000000e+000 0.000000e+000 0.000000e+000 6.717662e-001 3.282339e-001 0.000000e+000 0.000000e+000 0.000000e+000
 0.000000e+000 0.000000e+000 0.000000e+000 0.000000e+000 8.001831e-001 1.998170e-001 0.000000e+000 0.000000e+000
 0.000000e+000 0.000000e+000 0.000000e+000 0.000000e+000 0.000000e+000 8.318235e-001 1.681765e-001 0.000000e+000
 0.000000e+000 0.000000e+000 0.000000e+000 0.000000e+000 0.000000e+000 0.000000e+000 7.531965e-001 2.468035e-001
 0.000000e+000 0.000000e+000 0.000000e+000 0.000000e+000 0.000000e+000 0.000000e+000 0.000000e+000 0.000000e+000
<ENDHMM>
~h "de"
<BEGINHMM>
<NUMSTATES> 8
<STATE> 2
<NUMMIXES> 2
<MIXTURE> 1 5.711246e-001
<MEAN> 39
 -4.407152e+000 6.307407e-002 -1.202080e+001 -1.634735e+001 -1.379310e+001 -1.323373e+001 -1.815254e+001 -1.501620e+001 -1.137070e+001 -1.399478e+000 -6.013742e-001 1.970054e+000 2.194000e+001 -9.977914e-002 -2.043590e-001 1.948677e+000 6.538984e-001 3.972184e-001 9.597778e-001 8.485411e-001 1.364131e+000 1.777485e+000 -4.386465e-001 -1.305443e-001 3.203023e-001 -7.209436e-001 -3.705963e-001 -8.879220e-001 -1.550477e-001 -4.810584e-001 1.078148e+000 4.873409e-001 1.303659e+000 1.665608e+000 3.938151e-001 -2.717160e-001 -5.643111e-001 2.824242e-002 1.581604e-002
<VARIANCE> 39
 5.190213e+000 5.041992e+000 1.587429e+001 1.206483e+001 1.500546e+001 1.366650e+001 2.543897e+001 7.527425e+001 1.061039e+001 1.972740e+001 2.592040e+001 2.546664e+001 1.922716e+016 3.155426e-001 1.704477e+000 1.034718e+000 1.742478e+000 4.442449e+000 1.970757e+000 4.217023e+000 5.879094e+000 1.221521e+000 2.126265e+000 3.001707e+000 5.876580e-001 2.924025e+014 1.670700e-001 3.035913e-001 2.852819e-001 6.748021e-001 2.178720e-001 2.019813e-001 6.838907e-001 7.970660e-001 2.365556e-001 3.194017e-001 8.018567e-001 3.612538e-001 4.888277e+013
<GCONST> 2.019288e+002
<MIXTURE> 2 4.288750e-001
<MEAN> 39
 -9.673292e+000 -2.990174e+000 -1.833700e+001 -1.984547e+001 -3.298557e+000 -9.544937e+000 -1.428803e+001 -2.746529e-002 -1.524635e+001 -3.935054e+000 -1.270936e+001 -1.606107e+000 2.308647e+001 -3.715577e-001 -5.678160e-001 -8.927660e-001 5.983657e-001 7.449846e-001 -4.751479e-001 -2.441740e-001 3.074839e-001 -1.799931e-001 8.224447e-001 3.019321e-001 -8.155554e-001 -4.705373e-002 2.970948e-001 3.490802e-001 4.920868e-001 4.572580e-002 -9.783922e-001 9.566606e-002 2.388745e-001 -6.520900e-001 2.858484e-001 -4.664738e-001 3.389054e-001 -2.062882e-001 -1.836478e-001
<VARIANCE> 39
 7.688798e-001 3.694092e+000 2.091997e+001 1.404288e+001 1.429244e+001 7.038428e+000 1.003328e+001 1.258568e+001 9.224932e+000 9.113081e+000 7.013516e+000 1.311151e+001 1.922716e+016 7.020704e-001 1.490696e+000 4.473864e+000 1.857449e+000 1.047575e+001 6.574104e-001 8.507841e-001 4.083640e+000 1.058068e+000 2.521860e+000 1.905793e+000 1.506623e+000 2.924025e+014 6.405548e-002 1.816508e-001 9.315401e-001 5.158970e-001 9.078941e-001 4.621802e-001 3.246035e-001 6.415628e-001 1.133254e-001 3.101385e-001 2.419452e-001 5.688627e-001 4.888277e+013
<GCONST> 1.935501e+002
<STATE> 3
<NUMMIXES> 2
<MIXTURE> 1 5.494684e-001
<MEAN> 39
 -1.018603e+001 -1.003846e+000 -6.269929e+000 -1.056679e+001 -1.012698e+001 -1.007382e+001 -7.150079e+000 -5.415289e+000 -7.016171e+000 -4.098156e+000 -4.599340e+000 -2.211491e+000 1.938808e+001 2.561402e-001 -5.886943e-001 2.939671e-001 -7.579606e-001 2.671763e+000 8.394150e-001 1.446424e+000 2.854519e+000 7.601416e-001 4.716436e-001 1.224618e+000 1.408267e+000 1.217519e-001 7.425623e-002 -3.752376e-001 -8.961548e-001 -5.006185e-001 4.595817e-001 8.663788e-002 2.069046e-001 9.214922e-002 -1.265251e-001 4.853619e-001 9.116946e-001 1.108081e+000 1.722279e-001
<VARIANCE> 39
 5.406673e+001 9.780760e+000 1.406049e+001 2.592028e+001 3.207581e+001 3.480957e+001 6.202077e+001 3.771632e+001 1.720443e+001 1.565364e+001 1.290228e+001 2.509159e+001 1.922716e+016 1.066013e+000 5.743069e+000 2.173266e+000 2.717094e+000 1.737872e+000 2.212571e+000 3.241638e+000 1.371201e+001 2.563942e+000 2.587814e+000 1.491745e+000 2.587909e+000 2.924025e+014 2.607816e-001 3.447097e-001 2.959953e-001 9.987684e-002 4.661465e-001 1.372446e-001 3.689850e-001 3.187831e-001 5.661510e-001 7.235360e-002 1.570098e-001 1.135517e-001 4.888277e+013
<GCONST> 2.062525e+002
<MIXTURE> 2 4.505315e-001
<MEAN> 39
 -1.474494e+001 -4.965791e+000 -1.190052e+001 -1.197252e+001 -7.938079e+000 -3.073321e+000 -1.637722e+000 -1.143477e+000 -7.663566e+000 -7.585108e+000 -7.903758e+000 -4.300618e+000 1.734476e+001 -1.957136e+000 -6.793860e-001 1.362213e+000 1.832692e+000 7.921812e-001 1.693020e-001 2.097116e+000 8.993790e-001 1.640501e+000 1.254323e-001 -6.263534e-001 -4.317673e-001 -4.793327e-001 3.324749e-001 5.161220e-001 2.449300e-003 -7.886937e-002 1.588969e-001 -6.825102e-001 -7.987968e-001 -2.017034e-001 -3.716646e-001 3.987749e-001 -2.747902e-002 -5.046536e-003 3.652859e-001
<VARIANCE> 39
 1.238674e+001 1.184900e+001 6.508742e+000 5.081344e+000 7.643900e+000 6.619980e+000 2.337875e+001 2.876199e+001 1.988514e+001 9.329873e+000 2.292808e+001 5.045139e+000 1.922716e+016 9.230378e-001 2.663335e+000 1.565840e+000 4.795199e-001 1.190051e+000 2.483536e+000 4.393224e+000 1.709805e+000 1.400501e+000 6.691940e-001 1.108123e+000 2.731990e-001 2.924025e+014 5.103293e-001 4.461412e-001 2.195944e-001 3.231373e-002 3.450723e-001 2.525910e-001 3.499262e-001 4.473147e-001 2.503695e-001 7.203217e-002 6.609280e-001 1.991953e-001 4.888277e+013
<GCONST> 1.885861e+002
<STATE> 4
<NUMMIXES> 2
<MIXTURE> 1 4.051005e-001
<MEAN> 39
 -9.118335e+000 -4.327346e+000 -6.140363e+000 -1.388445e+001 -2.158219e+000 -8.023711e+000 -5.777624e+000 -1.570111e+000 -3.917665e+000 -4.275433e+000 -1.505460e+000 6.241972e+000 1.974508e+001 3.595103e-002 -1.370206e+000 -7.542626e-001 -1.210015e+000 1.934841e+000 4.833381e-001 9.953676e-001 2.619474e+000 1.605291e+000 1.465922e+000 2.415122e+000 3.126068e+000 5.265312e-001 -4.749595e-002 -1.768323e-001 -1.096722e+000 -2.479622e-001 -7.942692e-001 -4.578167e-001 -5.031219e-001 -1.196830e+000 -6.234411e-001 2.819107e-001 4.415882e-001 3.066155e-001 3.043372e-001
<VARIANCE> 39
 2.480381e+001 4.203138e+001 3.662730e+001 6.218946e+001 5.840356e+001 2.017539e+001 4.040139e+001 1.641050e+001 9.669243e+000 2.619097e+001 7.595043e+000 8.397416e+000 1.922716e+016 2.400099e+000 7.325514e+000 1.672836e+000 2.941335e+000 6.996943e+000 2.379299e+000 5.453617e+000 9.272473e+000 1.574152e+000 2.422562e+000 1.021074e+000 2.959080e+000 2.924025e+014 9.264063e-002 1.804481e-001 5.538441e-001 7.166347e-001 7.328941e-001 1.483146e-001 2.457675e-001 7.714390e-001 5.772143e-001 7.268507e-001 3.912864e-001 7.298808e-001 4.888277e+013
<GCONST> 2.145616e+002
<MIXTURE> 2 5.948995e-001
<MEAN> 39
 -9.933924e+000 1.452025e+000 -1.837827e+001 -1.552239e+001 -1.033943e+001 -1.343425e+001 -4.854080e+000 -7.999558e+000 -3.382304e+000 -6.102368e+000 5.124287e+000 6.722939e+000 2.193720e+001 2.989855e-001 -2.621346e-001 -9.769099e-001 -1.539908e+000 -1.451879e+000 -9.875124e-001 -5.501449e-001 -1.120978e+000 -1.034072e+000 -1.457378e+000 3.962555e-001 -7.573830e-001 3.072298e-001 -3.092214e-001 -7.326271e-002 7.250389e-001 4.323262e-001 3.284862e-001 4.894971e-001 1.853549e-001 2.825464e-001 -3.745924e-001 1.271775e-001 -4.033355e-001 -4.020976e-001 -2.675690e-001
<VARIANCE> 39
 5.142329e+000 5.097198e+000 3.892141e+001 3.278377e+001 1.575479e+001 1.089925e+001 4.283134e+000 1.298474e+001 1.608219e+001 5.424483e+001 8.248092e+000 1.561756e+001 1.922716e+016 1.438044e+000 4.960207e-001 9.539294e+000 4.402710e+000 1.428522e+000 1.154324e+000 1.599775e+000 1.145527e+000 8.216712e-001 6.719625e+000 1.136995e+000 1.913013e+000 2.924025e+014 2.708572e-001 1.999717e-001 1.062903e+000 6.676219e-001 2.710204e-001 3.614871e-001 2.767209e-001 1.827617e-001 3.067673e-001 2.134629e+000 1.544598e-001 6.945246e-001 4.888277e+013
<GCONST> 2.009829e+002
<STATE> 5
<NUMMIXES> 2
<MIXTURE> 1 4.832760e-001
<MEAN> 39
 -9.494150e+000 -7.690208e+000 -7.472805e+000 -1.923007e+001 -3.401932e+000 -4.993577e+000 -6.835701e+000 -2.982017e-001 -5.741204e+000 1.922102e-001 4.295481e+000 3.731940e+000 2.033656e+001 -1.461283e+000 -2.051421e+000 -1.624322e-001 -3.818008e-001 3.489830e+000 9.577112e-001 1.413791e+000 1.669865e+000 -5.605542e-001 1.715393e+000 1.667014e+000 1.268378e+000 4.175693e-001 2.069003e-001 6.822081e-001 -3.356675e-001 6.228236e-001 -5.978300e-001 -1.169893e+000 -6.810619e-001 -1.376159e+000 -3.873252e-001 -1.684181e-001 -2.116116e-001 6.202356e-002 2.014116e-001
<VARIANCE> 39
 3.466427e+001 2.005109e+001 3.057401e+001 4.413223e+001 1.561843e+001 2.413699e+001 3.358036e+001 2.309291e+001 4.164516e+001 3.807792e+001 1.366948e+001 2.389752e+001 1.922716e+016 3.726643e-001 2.540522e+000 5.635422e+000 1.382830e+000 8.477896e-001 1.806226e+000 8.570804e-001 2.368936e+000 4.307741e-001 1.964409e+000 7.667261e+000 1.375676e+001 2.924025e+014 1.913911e-001 5.097494e-002 5.736172e-001 3.853649e-001 3.854885e-001 4.463981e-001 2.785476e-001 2.266277e+000 1.126045e+000 2.990770e-001 1.634693e-001 5.510712e-001 4.888277e+013
<GCONST> 2.092666e+002
<MIXTURE> 2 5.167241e-001
<MEAN> 39
 -1.053496e+001 -1.178101e+000 -1.227812e+001 -1.695990e+001 -1.013077e+001 -9.615134e+000 -7.806911e+000 -4.929335e+000 -1.022517e+001 -4.926526e+000 3.320166e+000 6.542878e+000 2.074968e+001 -1.656820e+000 -1.089805e+000 1.144565e+000 1.068357e+000 2.288541e+000 2.691647e+000 7.675409e-001 1.386908e+000 -1.504411e+000 1.584188e+000 1.733741e-001 9.703479e-001 -7.029690e-001 -1.772569e-001 3.674261e-002 -1.083563e-002 2.848702e-001 2.784349e-001 -1.610896e-001 4.701822e-002 -3.178286e-001 1.093653e-001 -1.816582e-001 -3.174460e-001 -7.041977e-001 1.527125e-002
<VARIANCE> 39
 1.215972e+001 2.479138e+001 2.204866e+001 1.692586e+001 2.044074e+001 3.518454e+001 2.256757e+001 3.710739e+001 2.131862e+001 3.920757e+001 1.093588e+001 3.205247e+001 1.922716e+016 3.987971e-001 9.589617e-001 7.450106e+000 8.048394e-001 1.378970e+000 5.381253e+000 5.784717e-001 2.098632e+000 3.193872e-001 7.201299e-001 2.658261e+000 5.054941e+000 2.924025e+014 4.179514e-001 3.204775e-001 1.531942e-001 2.423857e-001 1.311638e+000 1.316166e+000 5.054009e-001 2.306170e+000 3.241510e-001 4.871779e-001 9.461220e-002 4.586248e-001 4.888277e+013
<GCONST> 2.060978e+002
<STATE> 6
<NUMMIXES> 2
<MIXTURE> 1 3.600352e-001
<MEAN> 39
 -1.638576e+001 3.967189e-001 -2.715305e-001 -9.746445e+000 3.989722e-001 -6.309653e+000 -3.563408e+000 4.074529e+000 -9.722310e+000 -4.147274e+000 -2.612303e+000 -6.543568e+000 1.828985e+001 1.318286e+000 4.763690e-001 9.538928e-002 3.670274e-002 -4.402523e-001 -1.077414e+000 -1.032126e+000 1.407767e+000 1.671669e+000 1.775910e+000 1.581192e+000 5.054877e-001 6.603684e-001 9.154580e-001 -5.336885e-001 -1.589324e+000 -8.436987e-001 -1.584650e+000 6.088002e-002 -8.261021e-001 -1.501658e+000 4.165935e-001 2.671135e-001 1.565090e+000 1.600387e+000 3.081085e-001
<VARIANCE> 39
 1.845926e+000 4.308838e+000 1.792518e+001 1.436588e+001 4.449971e+000 4.364646e+000 5.951160e+000 1.005060e+001 9.081082e+000 1.868653e+001 9.980868e+000 2.111180e+001 1.922716e+016 2.265742e+000 1.510919e+000 8.369607e+000 3.660018e+000 6.826009e+000 8.278380e-001 1.660791e+000 3.953282e+000 2.116871e-001 2.374732e+000 1.215865e+001 6.792232e+000 2.924025e+014 9.623346e-002 6.762736e-001 6.343395e-001 3.113753e-001 2.437501e-001 4.498596e-001 8.833631e-002 7.628986e-001 9.028871e-002 4.843206e-001 6.862369e-001 5.146023e-001 4.888277e+013
<GCONST> 1.977288e+002
<MIXTURE> 2 6.399646e-001
<MEAN> 39
 -8.091768e+000 -1.077798e+001 -1.127025e+001 -1.984034e+001 2.144536e-001 -1.035949e+001 -8.571055e+000 -2.590871e+000 -8.977247e+000 5.019155e+000 1.018722e+001 1.488181e+001 2.314903e+001 1.376581e-001 -1.181056e+000 -1.823746e+000 2.798522e-001 -8.226433e-001 -4.963088e-001 -7.517142e-001 -2.889196e+000 -1.021841e+000 2.102349e-001 5.059956e-001 1.709443e+000 3.543404e-001 2.639733e-001 5.789230e-001 2.190304e-001 3.019330e-001 -1.062251e+000 -2.153400e-001 -3.128572e-001 -7.681409e-001 3.035710e-002 -1.011852e+000 -1.651336e+000 -1.290350e+000 -2.493381e-001
<VARIANCE> 39
 6.680997e+000 5.241697e+001 1.928780e+001 1.230870e+001 3.249425e+001 4.046176e+000 3.543536e+000 1.823750e+001 1.049872e+001 1.908439e+001 2.762206e+001 3.632854e+001 1.922716e+016 2.163591e+000 1.328113e+000 5.537100e+000 3.136416e+000 3.732220e+000 1.060815e+000 3.284746e+000 1.433796e+000 3.479914e+000 3.131578e+000 9.164365e+000 7.803197e+000 2.924025e+014 2.477766e-001 6.754406e-001 4.827395e-001 3.339955e-001 5.779139e-001 3.216001e-001 2.221354e-001 9.701079e-001 2.602366e-001 2.585596e-001 4.584945e-001 9.135771e-001 4.888277e+013
<GCONST> 2.096840e+002
<STATE> 7
<NUMMIXES> 2
<MIXTURE> 1 4.754770e-001
<MEAN> 39
 -4.644547e+000 -6.208607e+000 -1.229467e+001 -1.330074e+001 -1.077699e+001 -8.793933e+000 -1.683487e+001 -1.473625e+001 -9.065247e+000 -4.521582e+000 -6.096049e+000 5.717787e+000 2.073233e+001 -6.069583e-001 6.646147e-002 1.875222e+000 1.502162e+000 1.197709e+000 3.662589e-001 2.966217e-001 2.809625e-001 9.474698e-001 1.380667e-001 -1.440851e+000 -1.094557e+000 -9.959645e-001 -6.179795e-001 -7.505354e-001 3.715134e-001 -2.861373e-001 8.837827e-001 6.229814e-002 1.672835e+000 9.846607e-001 3.844647e-001 6.981392e-001 6.821364e-001 4.060949e-001 -3.516008e-002
<VARIANCE> 39
 6.622769e+000 1.928529e+001 1.309758e+001 3.616362e+001 8.084657e+001 2.492797e+001 1.152824e+001 2.552430e+001 4.911518e+001 4.388435e+001 3.381342e+001 3.081187e+001 1.922716e+016 1.068761e+000 2.276649e+000 1.598691e+000 2.970109e+000 3.964735e+000 3.769747e+000 7.809031e+000 4.981667e+000 2.366287e+000 2.977399e+000 4.088592e+000 1.772734e+000 2.924025e+014 8.045878e-002 5.912095e-001 3.045121e-001 3.509011e-001 1.022326e+000 8.942960e-001 5.918309e-001 5.676777e-001 5.301889e-001 9.333862e-001 9.693333e-001 5.014462e-001 4.888277e+013
<GCONST> 2.177881e+002
<MIXTURE> 2 5.245224e-001
<MEAN> 39
 -6.270328e+000 -1.197068e+001 -1.452104e+001 -1.909873e+001 -6.647858e+000 -1.058096e+001 -9.513453e+000 -9.653591e+000 -8.502936e+000 2.936049e-001 2.343112e+000 1.105002e+001 2.289693e+001 7.420867e-001 8.164393e-001 -6.741226e-001 4.802874e-001 -2.162944e+000 -2.225875e-001 -8.828729e-001 -2.122993e+000 -4.277781e-001 -1.603265e+000 -2.656933e+000 -1.094338e+000 -2.232755e-001 -4.004719e-002 5.297546e-001 7.509609e-001 4.043893e-001 3.076516e-001 2.248255e-001 -2.389661e-001 2.738783e-001 5.136441e-002 -1.710364e-001 -3.524377e-001 -5.695140e-001 -2.537609e-001
<VARIANCE> 39
 3.694405e+000 1.489584e+001 7.499618e+000 1.227602e+001 4.273201e+001 2.689392e+001 2.871244e+001 2.709020e+001 3.002176e+001 2.220840e+001 5.462900e+001 3.109833e+001 1.922716e+016 5.245874e-001 5.661688e+000 2.571450e+000 1.687437e+000 1.428013e+000 1.747355e+000 3.526270e+000 5.487159e+000 1.317943e+000 3.559197e+000 3.777978e+000 6.770594e+000 2.924025e+014 2.577872e-001 4.829040e-001 4.327787e-001 4.672663e-001 8.215306e-001 5.069332e-001 7.296423e-001 8.950364e-001 2.711702e-001 4.702998e-001 1.651704e+000 7.298787e-001 4.888277e+013
<GCONST> 2.145400e+002
<TRANSP> 8
 0.000000e+000 1.000000e+000 0.000000e+000 0.000000e+000 0.000000e+000 0.000000e+000 0.000000e+000 0.000000e+000
 0.000000e+000 7.427387e-001 2.572613e-001 0.000000e+000 0.000000e+000 0.000000e+000 0.000000e+000 0.000000e+000
 0.000000e+000 0.000000e+000 6.323938e-001 3.676063e-001 0.000000e+000 0.000000e+000 0.000000e+000 0.000000e+000
 0.000000e+000 0.000000e+000 0.000000e+000 6.926187e-001 3.073813e-001 0.000000e+000 0.000000e+000 0.000000e+000
 0.000000e+000 0.000000e+000 0.000000e+000 0.000000e+000 5.007284e-001 4.992716e-001 0.000000e+000 0.000000e+000
 0.000000e+000 0.000000e+000 0.000000e+000 0.000000e+000 0.000000e+000 6.709609e-001 3.290391e-001 0.000000e+000
 0.000000e+000 0.000000e+000 0.000000e+000 0.000000e+000 0.000000e+000 0.000000e+000 8.522972e-001 1.477028e-001
 0.000000e+000 0.000000e+000 0.000000e+000 0.000000e+000 0.000000e+000 0.000000e+000 0.000000e+000 0.000000e+000
<ENDHMM>
~h "er"
<BEGINHMM>
<NUMSTATES> 8
<STATE> 2
<NUMMIXES> 2
<MIXTURE> 1 5.379794e-001
<MEAN> 39
 -1.903667e+001 -6.057283e+000 -8.070965e+000 -4.740891e+000 -4.863675e+000 -3.079092e+000 -3.234049e+000 -3.013588e+000 -1.563754e+000 -9.884424e-001 -1.877394e+000 -2.400540e+000 1.493097e+001 4.015597e-002 1.753965e-001 2.397694e-001 1.084218e-001 4.599662e-001 4.716950e-001 7.230489e-001 4.986860e-001 5.061827e-001 2.254352e-001 7.867897e-002 2.066611e-001 1.642170e-003 6.761274e-002 1.379081e-001 1.709405e-001 3.508750e-002 -6.896920e-002 -1.337425e-001 1.540253e-001 2.731455e-001 -2.046921e-001 -1.497186e-001 3.973926e-002 1.621194e-001 4.379597e-003
<VARIANCE> 39
 2.170670e+000 3.606066e+000 4.826835e+000 7.182378e+000 5.775223e+000 7.024731e+000 1.585531e+001 2.189259e+001 1.933203e+001 6.770981e+000 1.842547e+001 9.453678e+000 1.922716e+016 1.231114e-001 4.445612e-001 6.299329e-001 8.431760e-001 4.942443e-001 9.370140e-001 2.169470e+000 4.469178e+000 8.836299e-001 1.747501e+000 2.676863e+000 1.299631e+000 2.924025e+014 3.925493e-002 7.539456e-002 1.114323e-001 1.076047e-001 1.239149e-001 1.423506e-001 5.164247e-001 4.969907e-001 3.306116e-001 2.404983e-001 6.038639e-001 1.838527e-001 4.888277e+013
<GCONST> 1.784638e+002
<MIXTURE> 2 4.620221e-001
<MEAN> 39
 -1.840945e+001 -5.062899e+000 -6.697531e+000 -4.537547e+000 -5.588320e+000 -4.056740e+000 -2.859063e+000 -1.733534e+000 -3.746331e+000 -3.095941e+000 -1.591195e+000 -1.368967e+000 1.496322e+001 2.809120e-002 -1.834993e-001 -4.054703e-001 -8.274201e-002 -3.217526e-001 -4.671790e-001 -6.949693e-001 -4.161650e-001 -5.381226e-001 9.889214e-002 6.622898e-002 -2.416140e-001 -6.787223e-003 -8.155366e-002 -1.507890e-001 -2.131374e-001 -4.110441e-002 1.151750e-001 1.429852e-001 -9.748153e-002 -1.601369e-001 2.584990e-001 1.764573e-001 -1.417533e-001 -2.002854e-001 -3.501944e-003
<VARIANCE> 39
 6.613709e-001 3.127263e+000 6.554071e+000 8.305703e+000 1.037987e+001 1.080146e+001 2.225027e+001 4.297722e+001 1.385269e+001 2.187227e+001 9.727883e+000 8.636798e+000 1.922716e+016 2.438308e-001 4.981271e-001 7.738778e-001 4.170453e-001 1.197444e+000 9.020106e-001 1.634466e+000 3.147206e+000 2.089863e+000 8.885512e-001 1.795700e+000 1.005628e+000 2.924025e+014 2.143282e-002 1.040618e-001 1.227892e-001 1.037278e-001 2.152480e-001 2.842939e-001 5.503238e-001 1.299117e+000 2.642414e-001 2.984479e-001 4.382459e-001 2.376961e-001 4.888277e+013
<GCONST> 1.817388e+002
<STATE> 3
<NUMMIXES> 2
<MIXTURE> 1 4.825806e-001
<MEAN> 39
 -1.840610e+001 -6.066342e+000 -9.676973e+000 -4.229052e+000 -5.925301e-001 7.035298e-001 3.350151e-001 -3.469927e+000 -4.772887e+000 -2.022238e+000 -2.293513e+000 -2.565191e+000 1.493363e+001 -5.402291e-002 2.544412e-001 -1.064725e-001 4.280877e-001 9.013847e-001 3.614840e-001 1.433192e+000 7.896408e-001 4.437991e-002 1.929885e-001 -4.258256e-001 7.790437e-001 -5.424823e-003 6.296310e-004 5.434502e-002 3.642862e-001 -1.432336e-001 -6.060065e-001 -8.729200e-001 -8.174939e-001 6.432619e-002 5.100861e-001 3.470574e-001 8.177559e-002 1.830816e-001 2.013983e-002
<VARIANCE> 39
 4.190245e-001 4.435404e+000 3.349819e+000 5.046828e+000 1.046238e+001 1.793669e+000 1.467671e+001 3.399862e+000 3.835475e+000 2.305823e+000 1.266749e+000 6.473332e+000 1.922716e+016 2.867869e-002 2.418542e-002 1.224729e-001 1.422698e-001 6.972767e-001 1.209277e+000 2.331213e+000 1.609094e-001 2.220624e-001 4.093259e-001 1.909853e-001 2.596805e-001 2.924025e+014 3.726997e-003 5.025341e-002 2.284866e-002 4.457671e-002 1.872316e-001 7.288777e-002 3.368344e-001 1.263950e-002 4.140869e-002 5.160826e-002 3.119343e-002 6.486367e-002 4.888277e+013
<GCONST> 1.331219e+002
<MIXTURE> 2 5.174196e-001
<MEAN> 39
 -1.859805e+001 -5.532640e+000 -9.161651e+000 -3.151381e+000 -4.774395e+000 -3.249662e+000 -3.083519e+000 -2.950783e+000 -4.513824e+000 7.225009e-001 -2.938500e-001 -1.873404e+000 1.488043e+001 9.920121e-002 -6.108932e-001 5.454033e-002 -5.932245e-001 -1.796226e+000 -1.743146e+000 -1.571240e+000 9.133977e-001 1.313890e+000 -3.121114e-001 -8.997743e-001 3.436183e-001 1.825026e-001 1.153471e-002 -2.081134e-001 -4.344943e-002 -4.659869e-001 -6.603369e-002 -1.552535e-002 -1.225368e-001 4.050099e-001 -4.533737e-002 1.132108e-001 -1.581244e-001 2.484775e-001 2.412363e-001
<VARIANCE> 39
 4.190245e-001 2.683808e+000 1.481697e+000 8.547687e+000 7.446270e+000 1.023734e+001 1.977828e+001 9.970037e+000 1.957675e+000 4.455356e+000 9.121426e+000 1.150198e+001 1.922716e+016 7.098036e-002 6.035852e-001 2.311270e-001 3.514135e-001 1.465856e-001 2.021910e-001 2.726581e-001 2.627318e-001 8.572882e-001 1.869544e-001 2.831382e-001 1.161611e-001 2.924025e+014 2.764309e-002 1.141291e-001 7.727074e-003 2.422019e-002 5.400175e-001 2.716872e-001 5.214125e-001 7.433947e-002 1.639282e-001 1.132524e-001 4.453560e-002 8.398598e-002 4.888277e+013
<GCONST> 1.469470e+002
<STATE> 4
<NUMMIXES> 2
<MIXTURE> 1 4.812942e-001
<MEAN> 39
 -1.777428e+001 -6.351251e+000 -7.986623e+000 -4.616656e+000 -5.814311e+000 -6.173400e+000 -2.528726e+000 1.605481e+000 4.299018e+000 -3.146998e+000 -2.867898e+000 -5.514641e-001 1.603921e+001 -3.715081e-001 2.220997e-001 3.602957e-002 -1.586500e+000 9.815397e-001 -3.101345e-002 1.006786e+000 2.594906e+000 -7.986745e-001 1.494211e+000 -7.535324e-001 2.480727e+000 1.053340e+000 -5.935159e-001 1.073784e+000 3.128222e-001 -8.552534e-001 1.509341e+000 1.130489e+000 6.186630e-001 5.848377e-001 -9.434702e-001 5.771626e-001 7.488055e-002 -6.349296e-002 1.781327e-001
<VARIANCE> 39
 1.265216e+000 2.013717e+000 2.097955e+000 5.181507e+000 4.676466e+000 7.960427e-001 5.662321e-001 7.479804e-001 9.439620e-001 6.300274e+000 1.410326e+001 7.223609e+000 1.922716e+016 1.620722e-001 6.919849e-001 2.881850e-002 6.867754e-001 2.579262e-001 4.829703e-001 1.156226e-001 3.836919e-001 3.044391e-001 4.722444e-002 3.328713e-001 9.456906e-002 2.924025e+014 5.559396e-003 1.675504e-002 1.491921e-002 1.632869e-002 8.849648e-003 7.403206e-003 2.749274e-002 1.391175e-002 4.837091e-002 7.760392e-002 9.542829e-002 9.841830e-002 4.888277e+013
<GCONST> 1.198198e+002
<MIXTURE> 2 5.187058e-001
<MEAN> 39
 -1.898223e+001 -5.924355e+000 -7.506793e+000 -4.031421e+000 -4.618166e+000 -6.157598e+000 -3.589216e+000 -1.366499e+000 -6.421434e-001 -5.178252e+000 -7.677736e+000 -2.308999e-001 1.503268e+001 4.736591e-001 -1.427335e+000 -2.450500e-001 -8.221756e-001 -7.861487e-001 -7.153139e-001 -6.442881e-002 1.690800e+000 2.643806e-001 1.776551e-001 -1.640605e+000 1.263548e+000 8.049546e-001 -4.300985e-001 7.467163e-001 1.130337e-001 -6.591538e-001 1.461027e+000 1.076367e+000 6.611753e-001 6.881464e-001 -1.030735e+000 6.678116e-001 2.444928e-001 3.931409e-001 3.014963e-001
<VARIANCE> 39
 4.190245e-001 6.354608e-001 2.726547e+000 5.489789e+000 7.117404e+000 1.557972e+000 5.642866e+000 2.404651e+000 6.976614e+000 7.805529e-001 8.882795e-001 2.841720e+000 1.922716e+016 6.579306e-002 5.806964e-002 5.395868e-002 1.728256e-001 2.458834e-001 1.373432e-001 2.164972e-001 4.517912e-001 4.037569e-001 7.310036e-001 5.628124e-002 3.073316e-001 2.924025e+014 6.514189e-003 3.722725e-002 4.843220e-003 4.719902e-002 8.849648e-003 7.834123e-003 1.612801e-002 7.933611e-003 3.157293e-002 1.313169e-002 2.231365e-002 1.825110e-002 4.888277e+013
<GCONST> 1.109435e+002
<STATE> 5
<NUMMIXES> 2
<MIXTURE> 1 4.993187e-001
<MEAN> 39
 -1.597803e+001 -1.220203e+001 -1.104583e+001 -5.826236e+000 -1.007398e+001 -3.985061e+000 -3.492198e+000 1.255058e+000 -2.983887e+000 6.858203e-001 -2.070591e+000 4.091348e+000 1.713242e+001 -1.478564e+000 2.081631e+000 5.757179e-001 -2.156514e+000 3.606075e+000 1.512227e+000 1.183037e+000 3.371666e+000 -2.507826e+000 1.797378e+000 3.681643e-001 1.880322e+000 1.172081e+000 -4.754455e-001 1.238488e+000 5.086835e-001 -8.728145e-001 1.043628e+000 8.334383e-001 3.623930e-001 8.011768e-001 4.148572e-002 1.203621e-001 -4.349148e-002 -9.653612e-001 1.038647e-002
<VARIANCE> 39
 4.190245e-001 8.690121e-001 4.795330e-001 1.821229e+000 9.391111e-001 2.150541e+000 5.662321e-001 1.609674e+000 4.242612e+000 7.805529e-001 3.315788e+000 8.991018e-001 1.922716e+016 7.494784e-002 9.810035e-002 6.595303e-002 8.870422e-002 4.499834e-001 2.844208e-001 2.597818e-001 7.662550e-002 8.242726e-002 2.463121e-001 3.350502e-001 1.243861e-001 2.924025e+014 3.726997e-003 3.125403e-002 1.190916e-002 5.845683e-003 7.027995e-002 4.578914e-002 1.833123e-002 7.933611e-003 7.475162e-002 2.870225e-002 9.529849e-003 5.641884e-002 4.888277e+013
<GCONST> 1.057771e+002
<MIXTURE> 2 5.006813e-001
<MEAN> 39
 -1.870504e+001 -8.315289e+000 -9.757599e+000 -6.988927e+000 -3.441869e+000 -5.185381e+000 -3.610088e-001 6.521741e+000 -6.537655e+000 5.762259e+000 -7.819083e+000 2.414750e+000 1.851187e+001 -1.725744e+000 2.837203e+000 9.247605e-001 -3.901562e+000 3.245188e+000 2.377780e+000 1.269532e-001 3.002976e+000 -1.987140e+000 2.044159e+000 -6.265287e-001 8.296853e-001 1.115058e+000 -4.856072e-002 5.152672e-001 3.873269e-001 -3.569340e-001 1.375286e-001 8.137389e-001 1.789519e-002 5.177780e-001 1.086838e+000 -4.860902e-001 2.729017e-001 -1.675527e+000 -2.160467e-001
<VARIANCE> 39
 3.102172e+000 5.223156e+000 4.795330e-001 3.146690e+000 7.797771e+000 1.649939e+000 1.848307e+000 3.720056e+000 5.262808e-001 3.956230e+000 1.117120e+000 8.991018e-001 1.922716e+016 2.538391e-002 2.400887e-002 2.881850e-002 4.257424e-001 1.449076e-001 5.351359e-002 4.627905e-002 4.130781e-002 4.136708e-001 4.722444e-002 6.092051e-002 8.817966e-002 2.924025e+014 3.251952e-002 4.888795e-002 6.735788e-003 2.866357e-002 1.203200e-001 1.363191e-002 1.888139e-002 6.082329e-002 3.390751e-002 3.893881e-002 2.023228e-002 3.754780e-002 4.888277e+013
<GCONST> 1.083425e+002
<STATE> 6
<NUMMIXES> 2
<MIXTURE> 1 6.411710e-001
<MEAN> 39
 -2.478632e+001 2.795627e+000 -6.808058e+000 -1.541963e+001 6.474316e+000 -1.792023e+000 -2.857033e+000 1.019317e+001 -1.159040e+001 1.228278e+000 -3.175375e+000 7.262676e+000 1.914209e+001 -1.232871e+000 2.893303e+000 1.629532e+000 -3.988711e+000 2.466404e+000 2.199333e+000 9.484394e-001 4.802786e+000 1.399904e+000 2.398618e-001 -1.596465e+000 -2.694180e+000 6.061448e-001 7.585002e-001 -9.568372e-001 2.373072e-001 1.064194e+000 -1.025779e+000 2.385731e-001 -1.078961e-001 -5.638718e-001 1.338132e+000 -1.101036e+000 4.266089e-001 -1.664047e+000 -3.846224e-001
<VARIANCE> 39
 4.190245e-001 6.354608e-001 4.795330e-001 8.456390e-001 5.549505e+000 1.833335e+000 5.662321e-001 8.325070e-001 1.244467e+000 4.743739e+000 8.882795e-001 9.924013e-001 1.922716e+016 7.949710e-002 3.055572e-002 2.881850e-002 3.208649e-002 2.085734e-001 1.405439e-001 4.627905e-002 3.747041e-001 6.162021e-001 5.866715e-002 5.628124e-002 2.895648e-001 2.924025e+014 1.708940e-002 3.242774e-002 4.843220e-003 4.167159e-002 1.082383e-001 1.473851e-002 1.380214e-002 1.609755e-001 4.889802e-002 1.751355e-002 2.152420e-002 5.362064e-002 4.888277e+013
<GCONST> 1.045823e+002
<MIXTURE> 2 3.588289e-001
<MEAN> 39
 -2.388575e+001 1.248235e+000 -6.722718e+000 -1.351035e+001 5.054392e+000 -2.050205e+000 -1.921245e+000 9.344030e+000 -9.196770e+000 4.698092e+000 -3.759457e+000 6.286802e+000 1.903799e+001 -1.422718e+000 2.507090e+000 1.123484e+000 -4.158222e+000 2.376919e+000 1.950733e+000 8.381511e-001 4.066915e+000 6.177601e-001 3.581189e-001 -1.592794e+000 -2.041745e+000 6.431845e-001 6.271807e-001 -6.897135e-001 1.998053e-001 6.741892e-001 -8.772380e-001 1.934223e-001 -8.046427e-002 -3.191582e-001 1.254595e+000 -1.036370e+000 2.950495e-001 -1.700045e+000 -3.492318e-001
<VARIANCE> 39
 1.422023e+000 3.789156e+000 1.009017e+000 1.831918e+000 1.204323e+001 8.657434e+000 2.586160e+000 9.651093e-001 7.144236e+000 1.749022e+001 9.309421e-001 1.644987e+000 1.922716e+016 2.414970e-001 6.025693e-002 9.614313e-002 6.683817e-002 4.203328e-001 1.989121e-001 6.804665e-002 1.117661e+000 1.820996e+000 5.379629e-001 5.628124e-002 1.424116e+000 2.924025e+014 5.674145e-002 2.391261e-001 1.132370e-002 2.504983e-001 1.360051e-001 4.233026e-002 8.477162e-003 2.419916e-001 2.541725e-002 2.462982e-002 4.968530e-002 1.043579e-001 4.888277e+013
<GCONST> 1.360866e+002
<STATE> 7
<NUMMIXES> 2
<MIXTURE> 1 5.737449e-001
<MEAN> 39
 -2.390783e+001 2.129598e+000 -3.974866e+000 -1.631629e+001 6.348347e+000 4.940643e+000 -2.084993e+000 1.008980e+001 -4.242901e+000 3.658767e+000 -8.016785e+000 1.654074e+000 1.955078e+001 -1.719025e-001 1.269749e+000 1.134387e+000 -2.084603e+000 9.663189e-001 2.471737e+000 8.825654e-001 3.995808e+000 3.387789e+000 -6.948601e-001 4.078942e-001 -4.059077e+000 1.791462e-001 1.071214e+000 -1.533098e+000 -1.395357e-001 1.850216e+000 -1.438686e+000 -4.926327e-001 -2.908155e-001 -1.792026e+000 4.198207e-001 -1.396765e+000 8.989884e-001 -4.006037e-001 -3.511369e-001
<VARIANCE> 39
 1.514992e+000 8.992320e-001 4.795330e-001 9.430048e+000 1.263716e+001 1.520646e+000 5.662321e-001 1.193305e+000 1.980693e+001 2.005585e+000 8.690173e+000 4.879135e+000 1.922716e+016 1.224000e-001 3.288156e-001 2.881850e-002 7.136246e-001 1.950510e-001 4.020675e-001 1.377174e-001 1.072769e+000 7.992292e-002 4.722444e-002 9.701014e-001 6.718572e-002 2.924025e+014 3.726997e-003 5.819242e-003 4.843220e-003 9.333925e-002 8.849648e-003 7.457111e-003 1.331893e-002 2.891266e-001 1.974215e-001 1.709591e-002 5.713071e-002 1.623758e-001 4.888277e+013
<GCONST> 1.219505e+002
<MIXTURE> 2 4.262550e-001
<MEAN> 39
 -2.123889e+001 -9.993933e-001 -5.608879e+000 -2.205401e+001 -1.076662e+000 2.123411e+000 2.895421e-001 1.530719e+001 4.488311e+000 3.348657e+000 -9.111038e+000 -4.832146e+000 1.955031e+001 1.047673e+000 -8.080416e-001 1.235903e+000 1.055042e-001 -1.907385e-001 2.494406e+000 4.703813e-001 2.310245e+000 3.152992e+000 -1.709357e+000 1.264298e+000 -4.482261e+000 -1.110469e-001 1.281262e+000 -1.471291e+000 -3.910933e-001 2.166040e+000 -1.740011e+000 -7.981091e-001 -8.463573e-001 -3.038444e+000 -5.483887e-001 -8.218657e-001 1.271722e+000 9.868682e-001 -1.597053e-001
<VARIANCE> 39
 4.190245e-001 1.181761e+000 4.795330e-001 1.104711e+000 2.387142e+000 8.792704e-001 1.568553e+000 5.882940e+000 2.247214e+000 8.023378e-001 1.693290e+000 4.654468e+000 1.922716e+016 1.744654e-001 7.372817e-001 2.881850e-002 6.490356e-001 1.082681e-001 1.373555e-001 4.627905e-002 1.564971e-001 6.610403e-002 2.927719e-001 5.628124e-002 5.204509e-002 2.924025e+014 8.475111e-003 1.726670e-002 5.326076e-002 3.013945e-002 1.369120e-001 8.626498e-002 4.569919e-002 1.588170e-001 1.185927e-001 6.704145e-002 9.529849e-003 1.586720e-001 4.888277e+013
<GCONST> 1.173802e+002
<TRANSP> 8
 0.000000e+000 1.000000e+000 0.000000e+000 0.000000e+000 0.000000e+000 0.000000e+000 0.000000e+000 0.000000e+000
 0.000000e+000 9.702798e-001 2.972022e-002 0.000000e+000 0.000000e+000 0.000000e+000 0.000000e+000 0.000000e+000
 0.000000e+000 0.000000e+000 7.708123e-001 2.291877e-001 0.000000e+000 0.000000e+000 0.000000e+000 0.000000e+000
 0.000000e+000 0.000000e+000 0.000000e+000 3.221881e-001 6.778119e-001 0.000000e+000 0.000000e+000 0.000000e+000
 0.000000e+000 0.000000e+000 0.000000e+000 0.000000e+000 3.750031e-001 6.249970e-001 0.000000e+000 0.000000e+000
 0.000000e+000 0.000000e+000 0.000000e+000 0.000000e+000 0.000000e+000 9.090720e-002 9.090928e-001 0.000000e+000
 0.000000e+000 0.000000e+000 0.000000e+000 0.000000e+000 0.000000e+000 0.000000e+000 2.340427e-001 7.659574e-001
 0.000000e+000 0.000000e+000 0.000000e+000 0.000000e+000 0.000000e+000 0.000000e+000 0.000000e+000 0.000000e+000
<ENDHMM>
~h "fu"
<BEGINHMM>
<NUMSTATES> 8
<STATE> 2
<NUMMIXES> 2
<MIXTURE> 1 5.784338e-001
<MEAN> 39
 -9.262773e+000 -6.048519e+000 -1.280186e+001 -4.046215e+000 7.471050e+000 -2.286966e+000 -1.034504e+001 -2.418738e+000 -6.366987e+000 7.731617e+000 -3.100538e+000 -1.524700e+000 1.927286e+001 4.306738e+000 1.592793e-001 -1.736464e+000 -1.239696e+000 -3.705794e+000 -7.560108e+000 -5.132992e+000 1.147552e+000 2.923628e+000 -2.833752e-001 2.770600e+000 2.548274e+000 1.931860e+000 -3.010128e-001 -1.085855e+000 4.195658e-002 7.851049e-001 -2.285028e+000 -5.004598e-001 1.243280e+000 -8.206236e-001 -4.634582e-001 -1.052330e+000 1.587586e+000 1.239531e+000 1.582283e-001
<VARIANCE> 39
 4.525754e+000 6.398347e+000 2.203748e+000 4.616112e+000 1.146132e+001 2.123454e+001 1.290512e+001 1.366899e+000 2.812421e+000 4.876842e+000 6.551500e+000 8.991018e-001 1.922716e+016 7.060552e-002 2.815368e-001 2.002836e-001 3.947876e-001 5.521970e-001 5.194458e-001 3.143853e-001 3.163541e-001 7.346996e-001 1.073346e+000 2.571813e-001 6.911864e-001 2.924025e+014 1.106418e-001 4.346307e-002 2.313588e-002 2.079564e-002 7.327752e-002 6.859106e-001 4.515158e-001 6.525774e-002 3.201621e-002 8.439600e-003 9.529849e-003 1.152675e-002 4.888277e+013
<GCONST> 1.436423e+002
<MIXTURE> 2 4.215661e-001
<MEAN> 39
 -1.064222e+001 -8.315365e+000 -1.498840e+001 -6.359434e+000 5.077664e+000 2.335877e-001 -9.035913e+000 -4.642620e+000 -1.726498e+000 5.568392e+000 -6.283213e+000 -5.386890e-001 1.835776e+001 3.909158e+000 7.123353e-001 -1.013908e+000 -1.777049e+000 -3.312428e+000 -5.752076e+000 -4.782553e+000 1.333397e-001 2.391552e+000 6.865641e-001 1.270884e+000 1.280671e+000 1.723899e+000 2.608125e-001 -8.515585e-001 -2.629761e-001 7.402747e-001 -1.881824e+000 -1.566978e+000 1.395287e-001 -2.552096e-001 -6.760237e-002 -1.177766e+000 1.474531e+000 1.037447e+000 3.246061e-001
<VARIANCE> 39
 1.162606e+001 1.157661e+001 3.034793e+000 1.936686e+000 7.470087e+000 2.934225e+001 7.910419e+000 2.689963e+000 3.338441e+000 9.394158e+000 2.317804e+001 4.861969e+000 1.922716e+016 9.652527e-002 7.588179e-001 4.350806e-001 1.427357e+000 1.535151e+000 9.800013e-001 2.583584e+000 4.671246e-001 2.159407e-001 1.574865e+000 1.233133e+000 3.349734e+000 2.924025e+014 4.053031e-001 1.053264e-001 4.667387e-002 4.990731e-002 5.950375e-002 2.069481e+000 8.159198e-001 3.017446e-001 1.517196e-001 1.030981e-002 1.091162e-001 9.153479e-002 4.888277e+013
<GCONST> 1.713603e+002
<STATE> 3
<NUMMIXES> 2
<MIXTURE> 1 3.925274e-001
<MEAN> 39
 8.070736e-002 -6.583787e+000 -2.034381e+001 -1.150706e+001 -5.702629e+000 -1.760359e+001 -1.871269e+001 -6.370175e+000 3.601118e+000 5.145875e+000 1.849361e+000 5.286686e+000 2.327054e+001 2.769322e+000 -1.518185e+000 -9.591430e-001 1.286770e+000 -6.275929e+000 -6.570033e+000 1.161129e-001 7.284577e-001 -6.432230e-001 -2.815162e+000 5.204525e+000 4.555925e+000 1.829117e+000 -1.616098e+000 -8.091290e-001 9.547892e-001 4.679753e-001 -1.252481e+000 2.693751e+000 2.194133e+000 -1.579622e+000 -1.130253e+000 -4.359203e-001 1.009779e+000 7.241927e-001 -3.386380e-001
<VARIANCE> 39
 1.169832e+000 6.039310e+000 9.372202e+000 1.618848e+000 3.537684e+000 4.533069e+000 3.993058e+000 3.443047e+000 2.441120e+000 5.234676e+000 3.284778e+000 2.608360e+000 1.922716e+016 2.659790e-001 3.563220e-001 7.611958e-002 1.678943e-001 5.848698e-001 1.235774e+000 1.901991e+000 6.867108e-001 4.713393e-001 1.025356e-001 7.693211e-001 1.526644e-001 2.924025e+014 2.982158e-002 9.040846e-002 1.072940e-001 5.778832e-002 1.585229e-001 3.719928e-001 7.481625e-002 6.180514e-002 7.429476e-002 5.711811e-002 2.921141e-002 4.165999e-002 4.888277e+013
<GCONST> 1.454428e+002
<MIXTURE> 2 6.074725e-001
<MEAN> 39
 -5.910471e-001 -1.257546e+001 -2.377281e+001 -6.332595e+000 -8.850175e+000 -2.124627e+001 -1.531781e+001 -1.372111e-001 3.173056e+000 -3.710744e+000 4.008799e+000 1.176231e+001 2.389899e+001 2.701409e-001 -2.803929e+000 5.259768e-001 7.284422e-001 -8.095256e+000 -7.938399e-001 2.966500e+000 -3.478469e+000 -1.366300e+000 -1.730812e+000 5.284296e+000 3.965529e+000 1.073684e+000 -1.765407e+000 3.277079e-001 1.225657e+000 -6.777003e-001 3.025407e-001 3.870490e+000 9.041413e-001 -1.531859e+000 -3.480088e-001 3.889583e-001 5.559016e-002 -3.037593e-001 -5.403517e-001
<VARIANCE> 39
 1.302899e+000 3.224999e+000 2.842833e+000 9.483756e+000 5.467587e+000 2.482831e+000 8.740665e+000 1.743013e+001 3.682724e+000 1.562711e+001 8.344904e+000 6.109054e+000 1.922716e+016 9.885149e-001 7.123924e-002 7.703162e-001 2.214687e-001 4.817440e-001 6.514325e+000 8.251661e-001 2.022801e+000 1.506064e-001 1.306864e-001 4.184250e-001 2.430324e-001 2.924025e+014 2.738248e-002 2.638551e-001 6.568481e-002 2.735550e-001 4.332429e-001 1.263325e-001 5.140619e-001 9.101587e-002 2.726548e-001 1.976391e-001 1.695713e-001 1.348840e-001 4.888277e+013
<GCONST> 1.637553e+002
<STATE> 4
<NUMMIXES> 2
<MIXTURE> 1 4.650346e-001
<MEAN> 39
 -8.378706e+000 -1.145534e+001 -1.130620e+001 -1.452313e+001 -2.495362e+001 2.211506e+000 -1.335712e+001 -2.068714e+001 1.746946e+000 1.572749e-001 1.615968e+001 1.774504e+001 2.400595e+001 -1.390551e+000 3.529329e+000 -5.524634e-002 -3.608150e+000 1.434379e+000 2.186976e+000 -2.850507e+000 -9.040512e-001 3.511377e+000 8.083937e-001 1.185713e+000 2.461112e+000 -5.823050e-002 4.721140e-001 1.294948e+000 -1.334627e+000 4.964987e-001 2.366709e+000 -3.083385e+000 -2.796697e-001 1.835573e+000 5.833194e-001 6.816891e-001 -1.049435e+000 -4.388688e-002 -5.979648e-002
<VARIANCE> 39
 1.347666e+000 6.199927e+000 4.427508e+000 1.414990e+001 7.725311e+000 7.514425e+000 2.753907e+001 1.447050e+001 1.031939e+001 9.347515e+000 2.929893e+000 3.534676e+000 1.922716e+016 1.248293e-001 3.584924e-001 1.556460e+000 7.492945e-001 2.798283e+000 6.263514e+000 2.845828e-001 3.227694e+000 5.128841e-001 2.149603e-001 7.848445e-001 4.399396e-001 2.924025e+014 4.436123e-002 2.040810e-001 8.642961e-002 3.122023e-001 2.763980e-001 4.273964e-001 5.043429e-001 6.892803e-002 1.951465e-001 5.765150e-002 5.199271e-002 2.208303e-002 4.888277e+013
<GCONST> 1.687064e+002
<MIXTURE> 2 5.349655e-001
<MEAN> 39
 -4.911084e+000 -1.586629e+001 -1.428926e+001 -2.289179e+000 -2.294907e+001 -1.287094e+001 -2.058896e+000 -1.238627e+001 -8.806603e+000 -3.625108e-002 1.647632e+001 1.406912e+001 2.413317e+001 -2.303726e+000 1.243409e-001 2.960859e+000 -2.130414e+000 -4.353255e+000 6.206474e+000 4.917628e-001 -4.655391e+000 -5.493586e-002 2.707061e-001 3.826547e+000 2.316936e+000 8.497787e-002 -6.298643e-001 1.725093e+000 -2.208801e-001 -1.110623e+000 2.679176e+000 9.459481e-001 -1.285632e+000 5.730546e-001 1.285714e+000 8.031633e-001 -1.193331e+000 -4.636512e-001 -3.857580e-001
<VARIANCE> 39
 1.799656e+000 6.994382e-001 1.009754e+001 1.069619e+001 2.424960e+001 4.990571e+001 7.056261e+000 7.189503e+001 9.198242e+000 1.965668e+001 3.981328e+000 2.330898e+000 1.922716e+016 1.111480e-001 2.442417e+000 6.239179e-001 2.435366e+000 3.094500e+000 7.807696e-001 3.584502e+000 7.356983e-001 2.207796e+000 5.621171e-001 3.547808e-001 3.241903e-001 2.924025e+014 2.238519e-001 7.573537e-002 3.792286e-001 1.785854e-001 2.896135e-001 2.770939e+000 1.457274e-001 9.631265e-001 6.987973e-002 6.520881e-002 8.003204e-002 4.890416e-002 4.888277e+013
<GCONST> 1.787992e+002
<STATE> 5
<NUMMIXES> 2
<MIXTURE> 1 3.509163e-001
<MEAN> 39
 -8.543691e+000 4.076476e+000 -1.402065e+001 -1.693858e+001 -1.482066e+001 -2.013536e+001 -1.073015e+001 -6.875275e+000 4.813087e+000 1.157532e+001 2.178308e+001 2.436855e+001 2.393899e+001 5.608315e-001 1.999733e-001 2.134962e+000 -3.238783e-001 -1.494305e+000 -9.182886e-001 -5.488011e-002 3.627353e+000 -7.279574e-001 1.948325e+000 8.664852e-002 -2.760464e+000 -8.808670e-002 3.715738e-001 -1.928708e-001 9.552079e-001 1.330529e+000 7.390831e-001 1.852645e+000 4.111378e-001 2.898242e-001 -2.078274e-001 -1.355448e+000 -1.184840e+000 -1.350078e+000 -7.286722e-002
<VARIANCE> 39
 8.393325e-001 2.287865e+000 3.949147e+000 5.339089e+000 1.007997e+001 7.387938e+000 5.632689e+000 5.918312e+000 6.817291e+000 3.935627e+000 3.932259e+000 3.090087e+000 1.922716e+016 8.025203e-002 2.950856e-001 3.078380e-001 8.687454e-001 5.070457e-001 5.875363e-001 2.245901e-001 2.902829e-001 5.228398e-001 5.937992e-001 9.001197e-001 1.747475e+000 2.924025e+014 6.938942e-003 1.564836e-001 3.831135e-002 6.186735e-001 9.201431e-001 2.514162e-001 3.378716e-001 2.049574e-001 6.611574e-002 2.120361e-001 2.664322e-001 8.342155e-002 4.888277e+013
<GCONST> 1.588115e+002
<MIXTURE> 2 6.490837e-001
<MEAN> 39
 -9.458207e+000 -1.351503e-001 -1.725667e+001 -1.422062e+001 -1.437978e+001 -1.232389e+001 -1.290807e+001 -1.308939e+001 5.818621e+000 5.012177e+000 1.847096e+001 2.382056e+001 2.392531e+001 -1.645215e-001 3.051789e+000 -7.126069e-001 -3.732545e-001 1.781833e+000 -4.195873e+000 3.150298e-001 1.516436e+000 9.196162e-001 2.371870e+000 4.441065e-001 1.424650e+000 -1.164343e-002 3.457820e-001 -6.630955e-001 5.683126e-001 2.952784e-001 -6.765957e-001 -2.700099e-001 3.863562e-001 6.242168e-001 -7.124724e-001 2.271233e-001 -1.291654e-001 -8.940881e-001 2.234954e-003
<VARIANCE> 39
 4.190245e-001 1.513554e+001 3.914386e+000 6.702400e+000 4.348851e+000 4.289585e+001 1.029106e+001 3.986990e+000 3.801473e+000 2.087989e+001 3.628808e+000 9.797634e+000 1.922716e+016 1.379177e-001 1.413563e+000 1.995263e+000 1.027075e+000 2.625034e+000 2.120293e+000 1.227437e+000 8.888421e-001 1.024237e+000 9.469118e-001 4.919512e-001 1.550644e+000 2.924025e+014 1.805230e-002 2.312139e-001 4.838166e-001 3.845563e-001 6.471644e-001 2.696060e+000 3.569600e-001 1.200409e-001 8.646521e-002 1.877410e-001 1.656029e-001 2.831094e-001 4.888277e+013
<GCONST> 1.796546e+002
<STATE> 6
<NUMMIXES> 2
<MIXTURE> 1 4.344623e-001
<MEAN> 39
 -2.002813e+000 8.174880e+000 5.950176e-001 -5.393131e+000 -6.356781e+000 -9.415574e+000 -5.223743e+000 2.789641e+000 3.392076e+000 4.312248e+000 1.078813e+001 9.933464e+000 2.301062e+001 4.529421e-001 1.798248e+000 5.702463e+000 7.146078e+000 6.949413e+000 7.919526e+000 5.453645e+000 2.226463e+000 -9.160463e-001 -4.869899e+000 -5.052916e+000 -4.554790e+000 -2.301968e-001 -1.099080e+000 -6.038772e-001 -8.523365e-001 -3.077910e-001 2.141097e-001 4.513451e-001 5.037216e-001 -6.616331e-001 1.710804e-001 3.938092e-001 2.184186e-001 3.408526e-001 -1.386895e-001
<VARIANCE> 39
 2.563643e+000 5.561360e+000 1.817477e+001 1.545313e+001 3.294972e+001 2.938831e+001 1.047471e+001 5.660121e+000 9.947152e+000 1.842199e+001 4.831173e+000 3.016716e+000 1.922716e+016 3.587890e-001 8.817837e-002 2.944177e-001 4.655903e-001 1.526060e+000 1.567845e+000 5.229293e-001 5.670341e-001 3.195841e-001 6.651145e-001 5.208116e-001 2.544689e-001 2.924025e+014 3.677053e-002 1.769200e-001 3.650722e-001 6.321654e-001 9.203418e-001 6.884645e-001 2.805477e-001 9.347745e-002 5.093701e-002 6.172335e-001 3.065342e-001 3.611762e-002 4.888277e+013
<GCONST> 1.732299e+002
<MIXTURE> 2 5.655376e-001
<MEAN> 39
 -7.783967e+000 4.139188e+000 -1.048509e+001 -1.543050e+001 -1.859376e+001 -2.148260e+001 -1.276075e+001 7.976642e-003 4.289490e+000 1.658550e+001 1.791207e+001 1.427676e+001 2.358063e+001 1.608294e+000 1.333984e+000 4.543085e+000 4.205459e+000 3.314637e+000 4.282820e+000 1.934105e+000 2.656511e+000 -6.051205e-001 -2.846112e+000 -3.785913e+000 -4.630331e+000 -2.693657e-001 -1.835583e-001 3.855036e-001 8.618738e-001 1.899433e+000 2.243604e+000 2.497934e+000 1.557464e+000 -4.578144e-001 7.850356e-002 -1.731618e+000 -1.297105e+000 -3.858924e-001 -5.196882e-002
<VARIANCE> 39
 1.021821e+000 9.679409e-001 3.232417e+000 2.607757e+000 4.267682e+000 3.850618e+000 3.593835e+000 6.689628e+000 7.530186e+000 9.625206e+000 5.507909e+000 1.373969e+001 1.922716e+016 4.248757e-002 3.290783e-001 1.121804e+000 3.115788e+000 4.492290e+000 5.972807e+000 1.473750e+000 5.194436e-001 4.146958e-001 3.031043e+000 1.201780e+000 2.367097e-001 2.924025e+014 8.519962e-002 2.481651e-002 1.209883e-001 2.105813e-001 2.500449e-001 1.804568e-001 5.666081e-002 7.822439e-002 6.910888e-002 2.555732e-001 1.947360e-001 1.458291e-001 4.888277e+013
<GCONST> 1.637430e+002
<STATE> 7
<NUMMIXES> 2
<MIXTURE> 1 4.066876e-001
<MEAN> 39
 -7.025529e+000 9.708648e+000 8.195982e+000 7.595092e+000 4.858516e+000 6.616085e+000 5.819953e+000 7.065927e+000 2.337044e+000 -7.806021e-002 1.311726e+000 -8.414713e-002 2.264248e+001 -2.132457e+000 -1.388808e+000 5.854329e-001 1.768868e+000 2.440596e+000 4.121696e+000 2.985438e+000 2.794625e-001 6.567696e-002 -5.407555e-001 -2.109887e+000 -2.994293e+000 -8.089697e-001 -5.116830e-001 -1.439742e+000 -2.451873e+000 -2.648829e+000 -2.540328e+000 -2.583648e+000 -1.708007e+000 -1.183887e+000 -1.975365e-002 1.166667e+000 1.332829e+000 1.106557e+000 -2.734714e-001
<VARIANCE> 39
 4.080464e+000 2.663054e+000 4.755495e+000 7.661717e+000 1.195015e+001 1.168256e+001 1.626478e+001 1.237407e+001 1.334395e+001 1.508542e+001 6.201547e+000 6.133252e+000 1.922716e+016 5.029994e-001 3.033931e+000 6.878555e+000 7.471547e+000 7.161396e+000 9.519121e+000 4.089432e+000 1.473570e+000 2.648786e-001 3.472527e+000 2.871991e+000 8.204925e-001 2.924025e+014 1.940226e-001 9.819549e-002 1.520607e-001 2.147102e-001 4.447481e-001 4.321717e-001 3.065647e-001 9.768593e-002 9.566842e-002 2.783152e-001 1.452949e-001 4.576024e-002 4.888277e+013
<GCONST> 1.891445e+002
<MIXTURE> 2 5.933127e-001
<MEAN> 39
 -1.221308e+001 -1.107191e+000 -2.216260e+000 -1.972095e+000 -2.173110e+000 3.265724e+000 2.942271e+000 5.337914e-001 8.211432e-001 1.211791e-001 2.072902e+000 -1.780576e+000 1.887186e+001 -1.231186e+000 -2.346107e+000 -2.646311e+000 -2.525436e+000 -3.252934e+000 -2.448339e+000 -2.183469e+000 -2.244246e+000 -8.183786e-001 -3.625488e-001 -1.128950e+000 2.286363e-002 -1.086712e+000 3.325167e-001 7.489442e-001 4.993539e-001 2.749373e-001 2.961285e-002 -6.519203e-001 -6.675749e-001 1.873940e-001 -1.317620e-002 -1.648103e-001 -3.258708e-001 5.040459e-001 1.340986e-001
<VARIANCE> 39
 1.115687e+000 1.485240e+001 1.980476e+001 1.932082e+001 2.695652e+001 1.791858e+001 5.347103e+000 5.852798e+000 6.180473e+000 1.852599e+001 5.545556e+000 1.651890e+000 1.922716e+016 7.953969e-002 2.392379e+000 2.099599e+000 1.616720e+000 1.047913e+000 6.422954e-001 7.613859e-001 5.428928e-001 4.576930e-001 9.043643e-001 2.161838e+000 3.119968e-001 2.924025e+014 8.760237e-003 3.859653e-001 8.698579e-001 1.092252e+000 1.991271e+000 1.156109e+000 6.905109e-001 6.339343e-001 1.249961e-001 1.144404e-001 2.071729e-001 1.383362e-001 4.888277e+013
<GCONST> 1.828109e+002
<TRANSP> 8
 0.000000e+000 1.000000e+000 0.000000e+000 0.000000e+000 0.000000e+000 0.000000e+000 0.000000e+000 0.000000e+000
 0.000000e+000 3.548105e-001 6.451895e-001 0.000000e+000 0.000000e+000 0.000000e+000 0.000000e+000 0.000000e+000
 0.000000e+000 0.000000e+000 5.000150e-001 4.999850e-001 0.000000e+000 0.000000e+000 0.000000e+000 0.000000e+000
 0.000000e+000 0.000000e+000 0.000000e+000 6.774231e-001 3.225769e-001 0.000000e+000 0.000000e+000 0.000000e+000
 0.000000e+000 0.000000e+000 0.000000e+000 0.000000e+000 8.302306e-001 1.697694e-001 0.000000e+000 0.000000e+000
 0.000000e+000 0.000000e+000 0.000000e+000 0.000000e+000 0.000000e+000 6.677318e-001 3.322681e-001 0.000000e+000
 0.000000e+000 0.000000e+000 0.000000e+000 0.000000e+000 0.000000e+000 0.000000e+000 8.298663e-001 1.701337e-001
 0.000000e+000 0.000000e+000 0.000000e+000 0.000000e+000 0.000000e+000 0.000000e+000 0.000000e+000 0.000000e+000
<ENDHMM>
~h "le"
<BEGINHMM>
<NUMSTATES> 8
<STATE> 2
<NUMMIXES> 2
<MIXTURE> 1 5.035217e-001
<MEAN> 39
 -9.140710e+000 -1.984177e+001 -5.087622e+000 -1.319991e+001 1.162646e+000 -1.160914e+001 -1.575784e+001 -1.467778e+001 -1.388185e+001 -6.142237e+000 -3.114925e+000 -1.242402e+000 2.251760e+001 3.590436e-001 2.513590e-001 -4.098812e-001 -1.671386e-001 -8.498821e-002 2.801857e-001 -4.004948e-001 9.687025e-001 2.097624e-002 -2.255931e-001 -2.844941e-001 -9.455157e-001 -5.366468e-002 1.320701e-001 2.835464e-001 -1.898882e-001 -1.482177e-001 1.348958e-002 1.913894e-001 -1.036616e-001 1.026341e-001 2.347173e-001 -2.098591e-001 -1.563666e-001 1.567485e-001 -2.035352e-002
<VARIANCE> 39
 8.794473e-001 9.343472e-001 4.202514e+000 1.402382e+000 2.679875e+000 5.474926e+000 5.343400e+000 1.085620e+001 2.382623e+000 6.886648e+000 3.547685e+000 1.308230e+001 1.922716e+016 1.197669e-001 5.586215e-001 2.298032e-001 3.640107e-001 4.274381e-001 6.926777e-001 2.819468e-001 6.589048e-001 9.872152e-001 2.500747e-001 1.065981e+000 1.344274e+000 2.924025e+014 1.338991e-002 5.527508e-002 6.659938e-002 9.917629e-002 1.018140e-001 1.754002e-001 7.340071e-002 2.375056e-001 1.127819e-001 4.608465e-002 1.806093e-001 4.767698e-001 4.888277e+013
<GCONST> 1.518212e+002
<MIXTURE> 2 4.964785e-001
<MEAN> 39
 -8.591005e+000 -1.969026e+001 -6.709280e+000 -1.369501e+001 4.103940e-001 -1.163221e+001 -1.746988e+001 -1.309300e+001 -1.385329e+001 -7.943299e+000 -2.944237e+000 -3.527675e+000 2.243987e+001 3.083012e-001 5.103973e-001 -8.322713e-001 -9.378632e-001 -2.789771e-001 -4.075527e-001 -1.185108e+000 2.554118e-001 1.635193e-001 -9.161084e-001 -8.446288e-001 -3.672478e-001 -1.110467e-001 5.535441e-002 4.210699e-001 -9.767100e-002 -3.379499e-001 2.022672e-002 1.320017e-001 -6.064969e-003 -1.513140e-001 1.072383e-001 -1.221065e-001 -3.153744e-001 6.119195e-001 -2.589530e-002
<VARIANCE> 39
 1.204326e+000 1.079588e+000 4.100803e+000 2.699772e+000 2.582030e+000 6.172138e+000 5.873663e+000 8.885362e+000 2.647270e+000 6.795314e+000 3.262505e+000 7.299527e+000 1.922716e+016 8.317842e-002 7.171596e-001 2.143160e-001 8.001874e-001 4.760163e-001 7.435110e-001 2.692212e-001 7.182692e-001 8.672927e-001 2.424912e-001 1.265113e+000 2.455762e+000 2.924025e+014 1.760378e-002 6.215233e-002 4.667216e-002 1.172833e-001 1.105492e-001 2.271088e-001 1.029178e-001 1.963525e-001 1.501248e-001 5.455660e-002 2.074185e-001 3.759215e-001 4.888277e+013
<GCONST> 1.547944e+002
<STATE> 3
<NUMMIXES> 2
<MIXTURE> 1 5.094260e-001
<MEAN> 39
 -6.573933e+000 -9.044651e+000 -1.183193e+001 -2.117203e+001 -4.552129e+000 -8.647899e+000 -1.992929e+001 -1.295262e+001 -1.441909e+001 -1.253355e+001 -6.373173e+000 3.860522e+000 2.161665e+001 2.107130e-001 2.510317e+000 -2.781350e-001 9.309067e-001 -2.942831e+000 2.641878e-001 9.762825e-001 -1.066715e+000 4.582015e-001 1.236858e+000 1.864465e+000 -1.129769e+000 -2.993474e-001 -2.794386e-001 -5.751737e-001 3.929984e-001 1.539467e+000 6.872759e-001 1.002909e-001 8.791096e-001 1.600398e-001 8.669406e-001 7.578177e-001 9.840686e-001 -3.369247e-001 -2.341612e-001
<VARIANCE> 39
 5.251713e-001 1.939926e+000 2.559245e+000 3.637958e+000 1.003628e+001 5.970047e+000 7.411759e+000 3.914915e+000 4.899247e+000 2.248239e+001 3.098374e+000 8.122371e+000 1.922716e+016 6.751652e-002 2.391114e-001 3.682500e-001 2.825137e+000 1.155925e+000 4.132893e-001 1.012903e+000 5.171377e-001 1.816125e+000 2.270727e-001 2.536795e-001 7.979394e-001 2.924025e+014 2.030567e-002 7.291374e-002 3.658706e-002 5.811401e-002 5.197420e-001 1.383466e-001 7.064129e-002 9.034285e-002 7.830163e-002 8.291352e-002 5.380867e-002 3.793010e-001 4.888277e+013
<GCONST> 1.544003e+002
<MIXTURE> 2 4.905738e-001
<MEAN> 39
 -6.673935e+000 -1.404704e+001 -9.102677e+000 -1.947535e+001 1.540774e+000 -1.061863e+001 -2.110980e+001 -1.264908e+001 -1.024038e+001 -9.761671e+000 -9.015073e+000 2.751021e-001 2.180361e+001 2.820454e-001 2.625613e+000 -1.154183e+000 -2.010494e+000 -1.142359e+000 1.221179e+000 -3.767087e-001 -2.958639e-001 -3.535425e-001 -1.078138e+000 -1.068800e+000 2.417672e+000 -1.664829e-001 -9.807149e-002 2.689200e-001 6.568251e-002 5.722358e-001 -1.002973e+000 1.815833e-001 4.998641e-001 -2.225284e-001 -3.075779e-001 5.767285e-001 9.667462e-001 -6.382890e-001 -1.648302e-002
<VARIANCE> 39
