~o
<STREAMINFO> 1 39
<VECSIZE> 39<NULLD><MFCC_E_D_A><DIAGC>
~v "varFloor1"
<VARIANCE> 39
 4.616806e-001 6.375043e-001 4.657230e-001 5.374508e-001 7.124863e-001 5.879782e-001 5.610021e-001 5.041022e-001 5.070046e-001 7.413398e-001 8.533108e-001 9.091832e-001 1.638780e+016 2.573251e-002 2.327256e-002 2.922606e-002 3.155651e-002 4.841505e-002 4.091895e-002 4.557283e-002 4.198139e-002 3.980587e-002 4.634015e-002 5.471007e-002 5.149198e-002 2.433853e+014 4.025485e-003 3.721701e-003 4.975221e-003 5.770924e-003 8.651932e-003 7.528152e-003 8.330238e-003 8.019187e-003 7.560903e-003 8.370203e-003 9.376933e-003 8.501045e-003 4.060800e+013
~s "silst"
<NUMMIXES> 2
<MIXTURE> 1 5.916035e-001
<MEAN> 39
 -1.388783e+001 -5.296745e+000 -6.323460e+000 -5.468204e+000 -3.880593e+000 -6.010624e+000 -2.154438e+000 -1.060327e+000 -2.374354e-001 1.812535e+000 -1.683746e+000 -1.119332e+000 1.613527e+001 -2.326462e-001 -8.170474e-002 -8.774577e-002 1.580065e-001 6.851210e-001 -2.976125e-001 5.511895e-001 6.692584e-001 2.915599e-001 9.160910e-001 7.549099e-001 8.898922e-001 2.227041e-001 3.280084e-001 9.329195e-002 -3.302983e-001 -4.325086e-001 -4.302310e-001 -2.702982e-001 -5.225416e-001 -4.639617e-001 -1.445250e-001 -1.671729e-002 2.360630e-001 2.285033e-001 2.175288e-001
<VARIANCE> 39
 2.843046e+001 5.883171e+001 4.063656e+001 6.712537e+001 5.422697e+001 4.383881e+001 3.943081e+001 4.279997e+001 5.684215e+001 6.325723e+001 7.440663e+001 4.367308e+001 1.638780e+016 4.207715e+000 3.369700e+000 4.187448e+000 5.430434e+000 8.058773e+000 6.162245e+000 7.890727e+000 7.379992e+000 5.212796e+000 5.522048e+000 7.164430e+000 4.192746e+000 2.433853e+014 5.644972e-001 5.441222e-001 8.874972e-001 8.737437e-001 1.358954e+000 1.114288e+000 1.130546e+000 1.271283e+000 1.172514e+000 9.853114e-001 1.373280e+000 6.601251e-001 4.060800e+013
<GCONST> 2.401821e+002
<MIXTURE> 2 4.083971e-001
<MEAN> 39
 -9.710043e+000 -3.866340e+000 -1.078853e+001 -9.359231e+000 -7.980664e+000 -1.155097e+001 -7.369809e+000 -4.459486e+000 -2.179266e+000 3.261196e+000 2.547966e+000 6.578071e+000 2.073826e+001 1.178511e+000 -7.233342e-002 -1.724832e+000 -1.657464e+000 -7.778054e-001 -1.367965e+000 -1.424511e+000 -1.864187e+000 -9.483838e-001 -6.224952e-001 -8.814641e-002 6.752114e-001 6.017034e-001 -1.605004e-001 -1.275479e-001 -8.931393e-002 -2.790001e-002 9.260665e-002 2.291286e-001 1.759629e-002 -1.757810e-001 -2.662823e-001 -4.354574e-001 -5.879411e-001 -5.880989e-001 -1.073861e-002
<VARIANCE> 39
 2.756495e+001 7.040083e+001 7.780302e+001 1.079166e+002 7.091518e+001 8.093436e+001 6.296552e+001 6.758794e+001 4.255317e+001 7.270676e+001 6.699918e+001 8.987920e+001 1.638780e+016 4.013122e+000 3.962430e+000 5.822600e+000 4.912201e+000 7.441012e+000 5.831145e+000 4.441105e+000 3.897035e+000 4.001991e+000 4.395695e+000 7.524621e+000 6.996948e+000 2.433853e+014 7.772311e-001 6.632839e-001 1.419491e+000 1.284976e+000 2.276095e+000 1.372375e+000 1.417177e+000 1.388942e+000 9.629178e-001 1.103556e+000 1.283280e+000 1.152081e+000 4.060800e+013
<GCONST> 2.456097e+002
~h "a"
<BEGINHMM>
<NUMSTATES> 8
<STATE> 2
<NUMMIXES> 2
<MIXTURE> 1 5.502454e-001
<MEAN> 39
 -1.564014e+001 -3.432327e+000 -4.290490e+000 -4.235541e+000 -3.665285e+000 -5.825956e+000 -3.760698e+000 -2.770366e+000 -3.189222e+000 -1.048071e+000 -7.089539e-001 -2.341819e+000 1.579424e+001 2.259067e-001 7.077928e-001 8.246412e-001 8.578578e-001 6.262179e-001 6.630307e-001 -2.285054e-001 -1.310271e-001 -5.913847e-002 1.012404e+000 4.625267e-001 -2.534652e-001 -1.492711e-002 1.111430e-001 6.985398e-002 -1.446221e-001 -2.867576e-001 1.563662e-001 1.891354e-001 2.780125e-001 1.168987e-001 1.209707e-001 -2.137797e-001 -4.457688e-001 -1.893180e-001 5.172642e-002
<VARIANCE> 39
 3.301567e+000 9.058125e+000 8.638638e+000 1.797841e+001 1.431014e+001 1.452666e+001 5.802217e+000 1.720749e+001 2.152915e+001 1.135672e+001 9.625036e+000 1.060717e+001 1.638780e+016 1.567912e-001 4.067567e-001 6.959559e-001 2.553225e+000 1.622525e+000 1.238255e+000 1.005697e+000 8.939886e-001 2.181129e+000 1.289097e+000 1.151203e+000 2.964272e+000 2.433853e+014 4.249985e-002 2.182253e-001 2.202185e-001 3.401011e-001 3.187717e-001 1.777711e-001 1.212983e-001 3.808438e-001 4.259163e-001 3.961697e-001 4.016325e-001 4.528732e-001 4.060800e+013
<GCONST> 1.859560e+002
<MIXTURE> 2 4.497547e-001
<MEAN> 39
 -1.421863e+001 -3.215072e+000 -5.771344e+000 -8.999948e+000 -4.064896e+000 -4.197433e+000 -3.250215e-001 -1.851814e+000 1.135666e+000 -1.776853e+000 -3.668344e+000 -6.181617e+000 1.589037e+001 -3.483124e-001 -5.792559e-002 -1.141030e-001 -4.348414e-001 7.643879e-001 -4.164114e-002 -1.980012e-001 -4.800105e-001 -6.414947e-001 -7.428764e-001 -5.718201e-001 1.647899e-001 -2.766627e-002 1.030703e-001 -1.427083e-001 -3.101065e-001 2.779075e-001 -2.784562e-001 -2.472234e-001 -1.976960e-001 -5.876632e-002 -6.306869e-001 -3.011144e-001 2.365131e-002 3.655271e-001 1.431478e-001
<VARIANCE> 39
 3.735362e+000 4.433218e+000 5.127589e+000 1.534447e+001 1.480416e+001 1.732815e+001 7.089885e+000 7.269830e+000 1.293412e+001 1.768238e+001 6.176967e+000 1.509756e+001 1.638780e+016 7.357676e-002 3.503488e-001 9.906849e-001 1.590811e+000 1.043692e+000 2.107285e+000 1.560532e+000 1.504098e+000 2.030902e+000 1.291997e+000 2.017613e+000 1.125707e+000 2.433853e+014 3.687507e-002 6.294326e-002 6.017427e-001 2.937126e-001 2.845347e-001 5.300593e-001 1.701210e-001 2.755706e-001 2.409026e-001 6.478962e-001 1.004111e-001 5.432226e-001 4.060800e+013
<GCONST> 1.828092e+002
<STATE> 3
<NUMMIXES> 2
<MIXTURE> 1 5.970950e-001
<MEAN> 39
 -1.177234e+001 -1.613044e+000 -1.380053e+001 -7.317348e+000 -3.637260e+000 -6.026226e+000 -1.932482e+000 -4.230895e+000 -6.690340e+000 -4.816473e+000 -4.171622e+000 4.662969e-001 1.923541e+001 1.600398e+000 -4.780615e-001 -1.656909e+000 -2.404208e+000 -1.532197e+000 -1.024259e+000 5.020256e-001 2.947247e-001 4.094647e-001 -5.813458e-001 7.034585e-001 2.836735e+000 9.262972e-001 2.468579e-001 -1.150198e-001 -2.295627e-001 -7.670434e-001 -2.353849e-001 -3.142464e-001 -1.958604e-001 -6.381410e-001 2.479505e-001 4.011415e-001 8.246657e-001 9.497265e-001 1.924502e-001
<VARIANCE> 39
 8.576397e+000 1.257010e+000 1.229193e+002 3.500892e+001 3.688556e+001 5.524717e+000 1.275739e+001 4.404424e+001 2.030589e+001 1.515168e+001 3.199620e+001 2.970570e+001 1.638780e+016 1.323980e+000 7.627337e-001 2.806144e+000 8.662387e+000 7.871056e-001 1.509075e+000 9.911471e-001 3.136531e+000 1.265751e+000 1.165509e+000 4.520838e+000 1.190768e+000 2.433853e+014 2.302420e-001 6.101764e-002 4.227526e-001 1.023800e+000 1.899449e-001 4.101312e-001 7.774667e-002 5.397539e-001 2.029847e-001 1.737484e-001 4.707132e-001 1.804733e-001 4.060800e+013
<GCONST> 1.983951e+002
<MIXTURE> 2 4.029051e-001
<MEAN> 39
 -1.417884e+001 -2.533554e+000 -1.741416e+001 -6.969273e+000 -1.974932e+000 -4.006793e+000 -4.268067e+000 -8.339635e+000 -6.178118e+000 -4.739763e+000 -4.807840e+000 -1.273557e+000 2.017756e+001 6.562234e-001 9.574276e-002 -4.338308e+000 -1.333393e+000 -1.075679e+000 -1.344886e+000 -2.913692e-001 -2.216769e+000 -1.671675e+000 -1.341969e+000 4.481196e-001 1.879227e+000 1.166067e+000 1.705751e-001 5.480219e-002 4.464590e-001 1.146785e-001 -5.407978e-001 -4.030835e-002 -3.424353e-002 2.418991e-001 1.652023e-001 2.494454e-001 4.822138e-001 8.684574e-002 -8.430794e-002
<VARIANCE> 39
 5.492623e+000 2.439711e+000 1.254572e+002 1.155752e+001 1.214548e+001 6.727318e+000 1.061778e+001 6.390933e+001 2.506606e+001 1.773664e+001 1.335456e+001 1.813585e+001 1.638780e+016 2.548134e-001 2.918221e-001 7.794910e+000 1.064386e+000 2.261894e+000 6.122148e-001 9.937333e-001 5.913380e+000 1.219707e+000 2.764263e+000 1.634045e+000 1.688522e+000 2.433853e+014 9.470385e-002 5.209170e-002 2.300364e+000 4.812661e-001 1.737631e-001 3.144592e-001 1.409891e-001 1.766331e+000 5.941162e-001 4.146967e-001 3.532038e-001 6.175115e-001 4.060800e+013
<GCONST> 1.972708e+002
<STATE> 4
<NUMMIXES> 2
<MIXTURE> 1 5.746014e-001
<MEAN> 39
 -7.577664e+000 -2.344606e+000 -1.827552e+001 -1.475377e+001 -1.529553e+001 -1.217541e+001 -1.107455e+001 -1.110921e+001 -2.866328e+000 3.679681e+000 1.401276e+001 2.192016e+001 2.290062e+001 -2.036176e-001 8.482116e-001 1.306756e+000 5.591075e-001 -9.543358e-001 -1.113121e+000 -1.762119e+000 3.031221e-001 1.480567e+000 1.874007e+000 2.477926e+000 1.631502e+000 -3.987840e-003 -4.768443e-003 6.457733e-002 2.742723e-001 -2.417898e-001 1.269946e-001 -5.074069e-002 5.178635e-001 4.531188e-001 2.117109e-001 8.801802e-002 -6.122112e-001 -6.896698e-001 -6.305311e-003
<VARIANCE> 39
 3.375102e+000 1.587083e+001 2.786586e+001 1.402527e+001 9.045000e+000 1.167317e+001 1.875317e+001 1.790836e+001 1.370978e+001 1.527240e+001 2.550380e+001 1.980852e+001 1.638780e+016 7.004821e-002 1.540989e-001 5.996265e-001 8.670080e-001 6.435296e-001 7.125558e-001 1.518633e+000 1.760679e+000 1.506275e+000 1.457246e+000 2.759431e+000 2.154494e+000 2.433853e+014 1.429834e-002 4.197120e-002 7.880180e-002 2.064237e-001 1.409069e-001 1.342800e-001 3.584000e-001 2.328871e-001 1.675610e-001 2.268466e-001 5.225832e-001 4.108940e-001 4.060800e+013
<GCONST> 1.802612e+002
<MIXTURE> 2 4.253990e-001
<MEAN> 39
 -5.316317e+000 -5.717102e+000 -1.812498e+001 -2.112848e+001 -8.777122e+000 -9.963642e+000 2.356794e-001 -6.941734e+000 -4.003460e+000 -1.495630e+000 1.219765e+000 1.380425e+001 2.293044e+001 3.298042e-001 -3.900732e-001 -8.029869e-001 -8.368140e-001 -1.852270e+000 -3.986316e-001 -1.439035e+000 -1.412847e+000 -6.869563e-002 1.606366e+000 2.425318e+000 3.252186e+000 4.412862e-001 -5.081512e-001 3.643824e-001 7.263446e-001 1.242104e+000 5.406743e-002 9.964546e-002 -7.816130e-001 6.990054e-002 -6.913581e-002 4.138875e-001 4.545121e-001 -5.041152e-001 -3.199530e-001
<VARIANCE> 39
 3.127704e+000 9.258318e+000 1.699374e+001 2.339557e+001 1.871036e+001 6.873809e+000 2.788208e+001 7.940167e+000 5.811527e+000 3.028853e+001 2.920422e+001 4.131590e+001 1.638780e+016 8.717650e-001 1.155956e+000 1.984216e+000 7.799132e+000 5.673391e-001 1.159520e+000 4.318103e+000 9.623935e-001 9.790573e-001 1.819265e+000 3.300161e+000 3.930653e+000 2.433853e+014 1.224813e-001 7.783619e-002 1.130241e-001 8.820736e-001 1.010087e-001 4.838951e-001 4.217857e-001 1.529691e-001 1.502897e-001 3.737572e-001 4.312673e-001 3.864105e-001 4.060800e+013
<GCONST> 1.948509e+002
<STATE> 5
<NUMMIXES> 2
<MIXTURE> 1 5.564790e-001
<MEAN> 39
 -8.248450e+000 6.047795e-001 -1.122138e+001 -1.521153e+001 -1.822069e+001 -1.643380e+001 -1.232517e+001 -8.295369e+000 2.364410e+000 1.252908e+001 1.775026e+001 2.154361e+001 2.273696e+001 -2.634098e-001 4.864980e-001 1.323614e+000 -3.741983e-001 -1.036823e+000 -6.355352e-001 3.316285e-001 9.899108e-001 9.181316e-001 9.113838e-001 -4.166289e-001 -1.972225e+000 -2.247327e-001 -8.344891e-002 -2.869633e-001 -1.498979e-001 7.481936e-002 2.001866e-001 3.655123e-001 1.885741e-001 1.843200e-001 -3.560071e-001 -9.028689e-001 -7.640430e-001 -6.554855e-001 -1.696243e-001
<VARIANCE> 39
 1.378125e+000 6.100825e+000 1.767980e+001 1.069023e+001 9.242656e+000 9.078692e+000 8.887391e+000 1.012331e+001 2.435654e+001 1.155233e+001 8.237101e+000 1.295589e+001 1.638780e+016 1.955088e-001 4.269007e-001 6.337568e-001 6.543627e-001 8.354110e-001 1.345624e+000 4.783692e-001 2.082506e+000 1.017654e+000 2.697960e+000 1.402771e+000 6.948890e-001 2.433853e+014 2.449936e-002 4.611351e-002 4.672752e-002 1.552062e-001 1.658966e-001 1.937685e-001 9.663362e-002 1.850060e-001 2.677522e-001 2.496447e-001 2.093190e-001 1.765616e-001 4.060800e+013
<GCONST> 1.726401e+002
<MIXTURE> 2 4.435207e-001
<MEAN> 39
 -8.839470e+000 2.453471e+000 -9.021591e+000 -1.590438e+001 -2.285603e+001 -1.692354e+001 -1.334713e+001 -2.767084e+000 5.861909e+000 1.091792e+001 1.282429e+001 1.222953e+001 2.166197e+001 -1.154265e+000 -1.168468e+000 1.029536e+000 1.281019e+000 1.045347e+000 1.657395e+000 1.272258e+000 1.295269e+000 -1.141903e+000 -2.563111e+000 -2.883201e+000 -2.905564e+000 -1.158471e+000 -4.700275e-001 -7.768374e-001 -2.815379e-001 7.175983e-001 1.286808e+000 9.179761e-001 6.155321e-001 -6.861567e-001 -1.034778e+000 -8.903445e-001 -3.718669e-001 2.201161e-001 -3.304306e-001
<VARIANCE> 39
 1.950948e+000 7.182595e+000 1.197675e+001 8.674966e+000 1.620771e+001 5.084463e+000 8.257425e+000 2.288171e+001 2.244613e+001 9.921097e+000 1.733072e+001 1.988230e+001 1.638780e+016 5.993322e-001 1.732610e+000 1.264054e+000 1.517669e+000 3.342520e+000 2.630538e+000 1.676011e+000 1.661458e+000 3.228368e+000 2.195782e+000 1.348453e+000 7.213278e-001 2.433853e+014 2.908111e-002 4.514426e-002 1.554465e-001 9.070366e-002 1.670406e-001 2.039610e-001 8.222877e-002 4.072318e-001 2.074172e-001 2.135312e-001 3.002504e-001 1.415748e-001 4.060800e+013
<GCONST> 1.835276e+002
<STATE> 6
<NUMMIXES> 2
<MIXTURE> 1 4.935368e-001
<MEAN> 39
 -1.513208e+001 -5.354875e+000 -5.335553e+000 -8.702026e+000 -7.282924e+000 -5.038263e+000 -4.883611e+000 -3.879955e+000 -3.482740e+000 -2.219285e+000 4.677701e-002 5.175188e-001 1.652772e+001 2.661363e-001 1.877541e-001 7.338587e-001 9.525438e-001 1.331870e+000 6.189583e-001 4.160001e-001 7.560710e-001 1.000740e-001 -3.912151e-001 -6.606829e-001 -1.492506e+000 1.145338e-001 3.823101e-001 1.514902e-001 -2.432572e-001 -8.325008e-002 -5.962902e-001 -4.662863e-001 -3.597489e-001 9.753959e-002 2.167286e-001 5.501099e-001 6.473761e-001 7.521846e-001 1.940857e-001
<VARIANCE> 39
 6.963331e+000 2.649847e+000 1.141067e+001 1.567002e+001 2.193116e+001 1.204261e+001 1.217173e+001 1.414012e+001 1.282665e+001 8.285255e+000 1.134876e+001 1.085279e+001 1.638780e+016 2.886170e-001 4.270812e-001 1.888643e+000 1.895796e+000 2.201311e+000 2.861195e+000 1.370899e+000 1.476057e+000 9.909649e-001 1.514552e+000 4.365605e+000 3.613274e+000 2.433853e+014 6.892643e-002 2.551452e-001 3.759485e-001 4.368601e-001 7.592871e-001 3.619836e-001 4.492783e-001 1.358466e-001 4.450772e-001 2.080686e-001 4.606058e-001 4.189920e-001 4.060800e+013
<GCONST> 1.927108e+002
<MIXTURE> 2 5.064633e-001
<MEAN> 39
 -1.409598e+001 -5.915507e+000 -7.531828e+000 -9.140288e+000 -1.159750e+001 -7.839709e+000 -6.681585e+000 -4.642707e+000 -4.224927e+000 5.867474e-001 6.214560e+000 7.834292e+000 1.653155e+001 -7.828824e-001 -6.150788e-001 -3.389063e-001 5.254974e-001 1.161467e+000 1.367015e+000 2.180990e-001 -5.175152e-001 -1.080715e+000 -8.342660e-001 -1.412057e+000 -5.848451e-001 -3.105252e-001 6.363461e-002 2.645369e-001 9.610108e-002 -9.150194e-004 2.127334e-001 1.552672e-001 1.162953e-001 1.704801e-001 2.031262e-001 2.038904e-002 -3.965949e-001 -5.261343e-001 1.742904e-001
<VARIANCE> 39
 4.435846e+000 3.430798e+000 6.544863e+000 5.249602e+000 6.210806e+000 7.427736e+000 1.183278e+001 1.113250e+001 8.858864e+000 1.583471e+001 1.096327e+001 1.681331e+001 1.638780e+016 8.158911e-001 1.996697e+000 1.690133e+000 1.984676e+000 5.893391e+000 3.801342e+000 3.567010e+000 1.321550e+000 3.071612e+000 3.772013e+000 4.598512e+000 4.722001e+000 2.433853e+014 1.708274e-001 9.568757e-002 5.262917e-001 3.980672e-001 4.635561e-001 8.587310e-001 4.103499e-001 3.560005e-001 3.298142e-001 5.426785e-001 1.151402e+000 7.381411e-001 4.060800e+013
<GCONST> 2.000863e+002
<STATE> 7
<NUMMIXES> 2
<MIXTURE> 1 5.213407e-001
<MEAN> 39
 -1.152428e+001 -2.809371e+000 -6.055974e+000 -4.440691e+000 -3.943978e+000 -5.117445e+000 -2.407298e+000 -1.554452e+000 -4.126915e+000 -2.822912e+000 -5.784041e+000 -1.867812e+000 1.889640e+001 9.377032e-001 1.327071e+000 3.417806e-001 7.844037e-002 -3.778490e-001 -3.557842e-001 1.231659e+000 -1.315602e-001 6.781449e-001 1.130228e+000 4.587742e-001 7.877108e-001 2.602803e-001 5.097284e-002 2.247866e-001 -3.847595e-001 -6.493860e-001 -7.156450e-001 -2.555842e-001 -2.938586e-001 -7.304537e-002 7.041038e-001 1.138407e+000 9.202808e-001 2.801874e-001 7.716056e-002
<VARIANCE> 39
 6.279428e+000 2.220319e+001 3.359460e+001 5.388900e+000 1.200807e+001 2.290554e+001 1.112804e+001 1.086272e+001 1.311172e+001 1.203872e+001 1.725695e+001 6.775363e+000 1.638780e+016 8.492114e-002 1.075144e+000 5.686591e-001 9.652842e-001 1.053689e+000 7.351416e-001 5.221344e-001 1.141883e+000 2.770174e+000 2.915529e+000 2.224037e+000 8.323558e-001 2.433853e+014 1.360052e-002 2.758232e-001 3.295421e-001 2.505434e-001 2.563962e-001 4.142428e-001 3.567453e-001 2.561900e-001 4.459281e-001 5.302454e-001 2.081721e-001 2.899015e-001 4.060800e+013
<GCONST> 1.858188e+002
<MIXTURE> 2 4.786592e-001
<MEAN> 39
 -1.248087e+001 -2.121480e+000 -7.874110e+000 -3.579825e+000 -5.310739e+000 -1.694508e+000 -3.522604e+000 -1.353389e+000 -5.264291e+000 -1.193920e+000 -3.599934e+000 -1.133508e+000 1.855815e+001 6.907556e-001 2.970877e-001 -1.225650e+000 -1.256617e+000 -8.181667e-001 -1.087552e+000 -2.599707e-001 -5.394678e-001 6.360472e-001 9.903793e-001 -1.074442e-001 -8.132960e-001 3.503717e-001 -3.336908e-002 -4.902408e-002 -4.517308e-002 -6.947054e-001 -6.446716e-001 -7.470685e-001 -2.761791e-001 -1.577146e-001 5.408722e-001 3.594033e-001 5.172167e-001 2.565035e-001 8.885609e-002
<VARIANCE> 39
 1.622657e+001 9.316242e+000 1.965227e+001 5.938972e+000 1.962763e+001 2.363452e+001 2.131515e+001 1.176019e+001 1.141596e+001 1.089457e+001 1.152107e+001 1.324544e+001 1.638780e+016 1.367645e-001 8.780921e-001 8.397252e-001 2.432159e+000 4.173840e+000 2.356667e+000 1.950734e+000 2.116198e+000 3.911324e+000 7.846226e+000 3.657807e+000 6.628588e-001 2.433853e+014 3.240464e-002 3.018970e-001 2.299490e-001 4.222945e-001 2.604992e-001 8.337868e-001 4.636367e-001 7.624015e-001 7.759373e-001 4.689859e-001 2.828771e-001 1.990934e-001 4.060800e+013
<GCONST> 1.979608e+002
<TRANSP> 8
 0.000000e+000 1.000000e+000 0.000000e+000 0.000000e+000 0.000000e+000 0.000000e+000 0.000000e+000 0.000000e+000
 0.000000e+000 9.156123e-001 8.438772e-002 0.000000e+000 0.000000e+000 0.000000e+000 0.000000e+000 0.000000e+000
 0.000000e+000 0.000000e+000 8.113994e-001 1.886006e-001 0.000000e+000 0.000000e+000 0.000000e+000 0.000000e+000
 0.000000e+000 0.000000e+000 0.000000e+000 8.672109e-001 1.327892e-001 0.000000e+000 0.000000e+000 0.000000e+000
 0.000000e+000 0.000000e+000 0.000000e+000 0.000000e+000 8.338419e-001 1.661581e-001 0.000000e+000 0.000000e+000
 0.000000e+000 0.000000e+000 0.000000e+000 0.000000e+000 0.000000e+000 9.021601e-001 9.783987e-002 0.000000e+000
 0.000000e+000 0.000000e+000 0.000000e+000 0.000000e+000 0.000000e+000 0.000000e+000 8.582859e-001 1.417141e-001
 0.000000e+000 0.000000e+000 0.000000e+000 0.000000e+000 0.000000e+000 0.000000e+000 0.000000e+000 0.000000e+000
<ENDHMM>
~h "q"
<BEGINHMM>
<NUMSTATES> 8
<STATE> 2
<NUMMIXES> 2
<MIXTURE> 1 5.508605e-001
<MEAN> 39
 -7.827540e+000 -9.607230e-001 -1.168383e+001 -2.014197e+001 -2.064448e+001 -1.922561e+001 -5.409452e+000 1.566038e+000 1.507518e+001 2.161933e+001 9.477489e+000 1.374503e+000 2.347950e+001 -2.291614e-001 -7.111531e-001 -1.024743e+000 -1.853522e+000 -1.209396e+000 -2.182891e+000 -8.282166e-001 6.948696e-001 6.143309e-001 1.759355e+000 6.118198e+000 5.317802e+000 7.449495e-001 -1.669304e-001 -2.629220e-001 4.442990e-001 1.290580e+000 2.007836e+000 1.320243e+000 2.962169e-001 -8.161117e-001 -2.880790e+000 -2.370752e+000 -1.894809e-001 1.546830e+000 -4.205050e-001
<VARIANCE> 39
 2.076010e+000 5.844790e+000 2.643700e+001 4.856219e+000 1.121237e+001 1.928551e+001 1.221364e+001 2.107777e+001 1.082286e+001 7.713909e+000 2.452004e+001 4.615596e+001 1.638780e+016 8.806501e-002 9.677834e-002 2.557355e-001 2.128725e+000 4.925005e+000 2.297620e+000 2.169040e-001 2.514195e+000 9.600533e+000 6.200349e+000 4.855592e-001 3.912941e+000 2.433853e+014 1.625630e-002 3.388105e-002 1.965319e-001 7.791317e-002 1.637761e-001 3.326754e-001 1.196759e-001 3.364854e-001 3.162844e-001 9.378561e-002 8.299969e-001 1.215169e+000 4.060800e+013
<GCONST> 1.830680e+002
<MIXTURE> 2 4.491396e-001
<MEAN> 39
 -7.958575e+000 4.352819e+000 -1.249243e+001 -1.154155e+001 -1.237247e+001 -7.568892e+000 -4.591535e+000 -4.334842e+000 5.434709e+000 1.065305e+001 1.202729e+000 -5.491326e-001 2.126351e+001 4.366488e-001 -2.452357e-001 -2.556718e+000 -4.199577e+000 -4.558309e+000 -3.709276e+000 -1.934588e+000 5.627703e-001 5.171761e+000 5.881281e+000 4.464517e+000 1.817759e+000 1.250768e+000 -3.658499e-001 -6.686365e-001 1.553151e-001 1.379003e-001 4.962753e-001 -1.913726e-001 -1.055956e-001 1.841165e-001 -1.031858e+000 -8.539351e-001 8.214161e-001 1.391311e+000 -6.522959e-003
<VARIANCE> 39
 6.691970e+000 8.363949e+000 3.407168e+001 1.672842e+001 4.584325e+001 9.492744e+000 8.627428e+000 4.477848e+000 3.041650e+001 2.745934e+001 3.703896e+001 2.438741e+001 1.638780e+016 3.431082e-001 2.203760e-001 1.145184e+000 6.709986e-001 1.628555e+000 1.219816e+000 2.334645e-001 1.535418e+000 5.349043e+000 1.637654e+000 2.115735e+000 8.737730e+000 2.433853e+014 3.178426e-002 2.903449e-002 3.327467e-001 3.588580e-001 5.489439e-001 4.717718e-001 1.784607e-001 2.210681e-001 1.182679e+000 6.444109e-001 4.808611e-001 3.341484e-001 4.060800e+013
<GCONST> 1.932124e+002
<STATE> 3
<NUMMIXES> 2
<MIXTURE> 1 3.973835e-001
<MEAN> 39
 -9.486041e+000 1.729805e+000 -1.557878e+001 -1.627090e+001 -1.663854e+001 -1.347096e+001 -7.427781e+000 -3.023854e+000 4.095305e+000 1.486794e+001 2.196999e+001 1.944683e+001 2.330561e+001 -6.899341e-002 -1.074426e+000 5.931559e-002 1.261357e-001 2.446666e+000 1.162849e+000 -2.285018e-001 -1.159271e+000 -5.002272e+000 -2.242997e+000 2.524562e+000 5.240049e+000 -1.630356e-001 2.303453e-001 -5.085430e-001 4.671321e-001 3.686177e-001 7.133452e-001 1.055078e+000 3.259423e-002 -4.357949e-001 -1.003796e+000 -1.710366e+000 -2.345655e+000 -1.409360e+000 -2.363187e-001
<VARIANCE> 39
 3.731905e+000 7.388471e+000 1.927021e+001 1.236212e+001 1.798429e+001 1.502890e+001 5.377500e+000 2.654059e+001 1.235668e+001 6.929674e+000 5.851398e+000 1.606148e+001 1.638780e+016 3.939286e-001 4.461432e-001 8.680521e-001 6.144922e-001 9.069586e-001 7.902002e-001 5.576885e-001 1.261773e+000 1.059367e+000 1.364328e+000 2.198490e+000 4.482341e+000 2.433853e+014 5.547265e-002 4.110083e-002 2.200087e-001 1.208401e-001 3.957402e-001 8.260011e-002 7.255769e-002 2.444250e-001 7.362314e-001 1.436045e-001 1.646000e-001 4.065870e-001 4.060800e+013
<GCONST> 1.793062e+002
<MIXTURE> 2 6.026167e-001
<MEAN> 39
 -8.496286e+000 -4.106806e+000 -1.418939e+001 -1.819765e+001 -1.198427e+001 -1.316678e+001 -8.041651e+000 -4.850241e+000 -3.538486e+000 1.042588e+001 2.012545e+001 2.207965e+001 2.274829e+001 4.415466e-001 -2.444352e+000 -1.415050e-001 -3.974901e-001 7.710291e-001 1.983264e+000 -7.664902e-001 -1.701118e+000 -2.965783e+000 -4.601739e+000 -2.833368e+000 8.204030e-001 -1.008497e-001 2.396386e-001 -2.694966e-001 -4.008450e-002 -7.695603e-002 -6.723745e-001 3.223897e-001 3.611141e-001 -1.172549e-001 9.679039e-001 -6.362745e-001 -2.392510e+000 -2.136800e+000 7.041275e-002
<VARIANCE> 39
 6.877285e-001 6.218399e+000 1.076397e+001 3.179785e+000 5.330684e+000 1.673601e+001 6.751452e+000 4.498540e+000 1.384644e+001 2.375946e+001 6.334923e+000 3.266429e+000 1.638780e+016 4.071417e-001 6.346418e-001 5.414026e-001 5.470783e-001 1.011037e+000 4.490837e-001 7.003171e-001 5.563011e-001 1.658806e+000 1.570742e+000 5.051414e+000 2.860411e+000 2.433853e+014 2.293842e-002 1.053985e-001 6.627344e-002 1.577614e-001 1.397291e-001 1.628187e-001 1.751517e-001 1.316537e-001 1.542016e-001 3.272170e-001 2.415689e-001 1.400672e-001 4.060800e+013
<GCONST> 1.700044e+002
<STATE> 4
<NUMMIXES> 2
<MIXTURE> 1 5.597255e-001
<MEAN> 39
 -6.617126e+000 -1.052378e+001 -1.445609e+001 -1.995273e+001 -1.152493e+001 -6.027030e+000 -7.568735e+000 -1.023500e+001 -6.913050e+000 -4.947373e+000 4.407054e+000 1.800009e+001 2.295671e+001 8.220687e-001 -1.369311e+000 -2.194617e-001 5.009201e-001 -7.159834e-002 2.350295e+000 1.364475e+000 -1.426097e+000 -1.096478e+000 -3.017655e+000 -6.205063e+000 -5.058119e+000 6.541768e-002 -4.249715e-002 6.028851e-001 7.030402e-002 5.978462e-001 -4.771175e-001 -8.602928e-001 5.809196e-001 5.469280e-001 -1.365741e-001 1.645475e+000 2.381347e-001 -1.621205e+000 -2.892487e-002
<VARIANCE> 39
 6.328229e-001 3.902807e+000 3.282846e+000 3.869015e+000 4.579954e+000 1.468199e+001 1.604820e+001 5.789361e+000 5.356835e+000 1.796839e+001 4.469131e+001 3.470820e+001 1.638780e+016 1.144309e-001 5.611354e-001 4.810413e-001 1.136556e+000 6.915493e-001 1.588042e+000 8.974355e-001 1.388601e+000 4.173663e-001 6.235739e+000 1.232173e+000 5.247848e+000 2.433853e+014 1.934970e-002 3.559383e-002 7.518195e-002 7.115182e-002 1.814278e-001 5.023068e-001 1.511489e-001 2.460943e-001 2.503902e-001 3.822357e-001 1.108682e+000 1.019828e+000 4.060800e+013
<GCONST> 1.769381e+002
<MIXTURE> 2 4.402747e-001
<MEAN> 39
 -5.547089e+000 -1.094226e+001 -1.622462e+001 -1.782138e+001 -1.345887e+001 -4.193214e+000 -7.076609e+000 -1.241628e+001 -8.316050e+000 -5.617393e+000 -1.287224e+000 1.203801e+001 2.300418e+001 6.449513e-001 -9.839526e-001 -4.279747e-001 9.484665e-001 -1.719710e+000 1.543079e-001 1.575886e+000 -1.205248e+000 -2.096104e+000 -1.157373e+000 -5.804553e+000 -6.477618e+000 -5.867289e-002 -1.425524e-001 6.093510e-001 2.032361e-001 3.959763e-001 -3.642156e-001 -1.135354e+000 2.926301e-001 7.105669e-001 -3.031613e-001 1.233726e+000 1.024157e+000 -7.619702e-001 -5.491398e-002
<VARIANCE> 39
 1.850289e+000 5.790299e+000 6.324709e+000 1.216578e+001 1.403943e+001 9.610323e+000 1.504182e+001 9.093209e+000 9.832865e+000 1.545546e+001 6.067227e+001 6.796013e+001 1.638780e+016 1.653730e-001 9.995958e-001 4.180156e-001 1.299765e+000 9.712919e-001 1.705406e+000 1.572401e+000 2.223867e+000 7.653347e-001 6.562890e+000 2.151489e+000 5.010862e+000 2.433853e+014 2.005951e-002 6.247226e-002 1.308303e-001 1.306219e-001 2.802098e-001 3.759787e-001 2.733153e-001 3.390025e-001 1.634268e-001 3.009967e-001 1.432902e+000 1.685939e+000 4.060800e+013
<GCONST> 1.891865e+002
<STATE> 5
<NUMMIXES> 2
<MIXTURE> 1 5.293921e-001
<MEAN> 39
 -5.002703e+000 -1.075689e+001 -1.222677e+001 -1.437656e+001 -1.453044e+001 -1.442352e+001 2.652002e+000 1.022006e-001 -1.585880e+001 -9.476318e+000 -4.928971e+000 -4.254663e+000 2.257670e+001 2.062793e-001 1.014427e+000 6.035587e-001 4.530358e-002 -5.965170e-001 -3.677659e-002 7.028417e-002 1.215983e+000 -3.854826e-002 -6.795883e-001 7.266994e-001 -1.412997e-001 -8.052415e-002 -2.244724e-002 3.166189e-001 5.424388e-002 -2.289113e-001 -2.290834e-001 7.337077e-001 -4.955042e-001 -9.674722e-001 3.244542e-001 5.192155e-001 -3.700508e-001 -2.131028e-001 -2.200399e-002
<VARIANCE> 39
 1.210554e+000 4.151557e+000 3.610642e+000 2.268279e+000 2.859946e+000 4.088081e+000 3.148667e+000 1.650017e+001 3.588627e+000 1.029696e+001 3.593168e+000 4.212479e+000 1.638780e+016 6.103808e-002 2.375491e-001 2.749276e-001 1.550939e-001 1.105620e+000 2.563865e+000 5.592607e-001 3.214798e+000 1.009722e+000 3.132868e+000 2.786142e-001 1.759272e+000 2.433853e+014 1.880534e-002 1.031422e-002 3.179113e-002 3.490741e-002 1.352644e-001 3.198393e-001 2.764688e-002 3.775026e-001 2.871748e-001 5.313873e-001 2.281453e-001 7.220142e-001 4.060800e+013
<GCONST> 1.578673e+002
<MIXTURE> 2 4.706081e-001
<MEAN> 39
 -4.395366e+000 -1.097538e+001 -1.486257e+001 -1.350458e+001 -1.819223e+001 -8.062885e+000 -1.940366e+000 -1.101276e+001 -1.588475e+001 -2.239552e+000 -1.006522e+001 -6.920918e+000 2.255305e+001 1.219626e-001 2.075030e-001 9.240730e-001 1.040620e+000 -6.428766e-001 -2.703114e+000 7.692862e-001 1.276678e+000 -2.152909e+000 -1.514285e-001 -3.964499e-001 -3.599181e+000 -1.980031e-001 -1.992129e-001 3.263842e-001 2.480257e-001 -4.014029e-001 5.317834e-001 -2.638222e-001 -6.354800e-001 3.345577e-001 7.001321e-001 -5.415143e-001 1.359026e+000 2.000600e+000 -8.356382e-003
<VARIANCE> 39
 2.172730e+000 3.212628e+000 3.772733e+000 7.227258e+000 2.064449e+001 2.153303e+001 1.043785e+001 2.284398e+001 1.760797e+001 8.661722e+000 4.994478e+000 1.500995e+001 1.638780e+016 9.551934e-002 2.412123e-001 4.243415e-001 6.601682e-001 1.328864e+000 6.765515e-001 2.311739e+000 1.687281e+000 1.882059e+000 2.720315e+000 2.735534e+000 8.321787e+000 2.433853e+014 2.194216e-002 3.160919e-002 6.770377e-002 7.317932e-002 1.741706e-001 7.078596e-001 2.568151e-001 4.566163e-001 2.343349e-001 3.427330e-001 5.831683e-001 4.662254e-001 4.060800e+013
<GCONST> 1.799656e+002
<STATE> 6
<NUMMIXES> 2
<MIXTURE> 1 5.145606e-001
<MEAN> 39
 -5.221498e+000 -6.359864e-001 -8.143223e+000 -1.438783e+001 -1.792257e+001 -1.141811e+001 -8.775887e+000 -1.375517e+001 -9.822731e+000 -5.738764e+000 -1.351753e+001 -1.002993e+001 2.136166e+001 -5.171964e-001 1.955155e+000 1.471020e+000 1.684564e+000 1.698710e+000 -3.940684e-002 -3.443791e-001 1.083216e+000 3.793305e+000 -5.306662e-002 1.537213e-001 7.308590e-001 -5.208935e-001 -3.920010e-001 -7.605402e-001 6.466479e-002 9.878626e-001 7.395924e-001 4.048762e-001 1.124607e+000 1.740495e+000 3.488759e-001 3.979741e-001 1.580172e+000 6.992633e-001 -2.322071e-001
<VARIANCE> 39
 7.112976e-001 3.707814e+000 5.616940e+000 1.588253e+001 1.415396e+001 5.024271e+000 3.046502e+001 4.358994e+001 2.934874e+001 1.328214e+001 2.817112e+000 3.066268e+000 1.638780e+016 2.417712e-001 5.146837e-001 3.339983e-001 1.201914e+000 1.203681e+000 4.242449e-001 1.530232e+000 3.667298e+000 2.616419e+000 3.009808e+000 2.744395e+000 6.039909e-001 2.433853e+014 9.479497e-002 2.870257e-001 2.037702e-002 6.876983e-002 2.908433e-002 1.990093e-001 7.967680e-002 7.881793e-002 2.435848e-001 5.616882e-001 1.589624e-001 6.748144e-002 4.060800e+013
<GCONST> 1.722157e+002
<MIXTURE> 2 4.854391e-001
<MEAN> 39
 -4.639941e+000 -6.428902e+000 -9.975823e+000 -1.401670e+001 -1.978038e+001 -1.089433e+001 -3.955711e+000 -7.642225e+000 -1.745236e+001 -6.424904e+000 -6.310448e+000 -9.705123e+000 2.185177e+001 -3.802387e-001 2.050561e+000 9.978670e-001 -6.012834e-001 -3.850863e-001 4.503150e-001 -2.007951e+000 -2.798576e+000 1.479322e+000 7.792917e-001 -1.945223e+000 -9.523556e-001 -2.145639e-001 -1.389349e-001 2.358480e-001 2.910503e-002 3.731710e-001 5.396010e-001 -6.455296e-002 1.503041e-002 2.419151e-001 1.165934e+000 -2.520053e-004 -2.538398e-001 6.345000e-001 -7.227964e-002
<VARIANCE> 39
 9.990426e-001 2.465234e+000 2.195718e+000 3.109352e+000 2.827273e+000 3.831921e+000 2.995112e+001 6.421909e+001 1.236951e+001 8.570687e+000 1.212177e+001 3.095274e+000 1.638780e+016 6.683437e-002 2.102150e-001 3.846223e-001 2.664227e-001 1.158442e+000 7.181429e-001 3.408306e-001 4.822050e-001 2.320915e+000 9.094139e-001 1.014157e+000 7.227833e-001 2.433853e+014 6.695176e-003 4.182149e-002 1.037532e-002 1.355950e-001 6.888628e-002 2.960526e-001 1.416987e-001 5.959462e-001 3.473192e-001 1.952771e-001 2.375525e-001 1.466495e-001 4.060800e+013
<GCONST> 1.592725e+002
<STATE> 7
<NUMMIXES> 2
<MIXTURE> 1 2.854570e-001
<MEAN> 39
 -8.127152e+000 8.455359e-001 -3.239196e+000 -4.109067e+000 -1.113888e+001 -8.464950e+000 -3.333515e+000 -3.105979e+000 -2.507384e+000 -2.652360e+000 -4.360901e+000 -4.758714e+000 1.817780e+001 -2.090754e+000 -1.215030e+000 7.217979e-001 2.753306e+000 2.672976e+000 2.331342e+000 1.900130e+000 3.123783e+000 2.246282e+000 2.487694e+000 3.143150e+000 1.936996e+000 -1.091038e+000 -3.306977e-001 -7.899849e-001 -6.415274e-001 -6.606103e-001 2.076564e-001 3.541818e-001 -1.010748e-001 -1.791128e-001 -6.989311e-001 2.085865e-001 -1.746350e-002 -9.088372e-002 2.253134e-002
<VARIANCE> 39
 8.938888e+000 8.750421e+000 9.909516e+000 3.158931e+001 3.784728e+001 1.487487e+001 3.677536e+001 1.975677e+001 4.319071e+001 4.929497e+001 1.256694e+001 1.511958e+001 1.638780e+016 6.356854e-001 2.077923e+000 9.839391e-001 2.241128e+000 1.830864e+000 1.597057e+000 1.253483e+000 2.820954e+000 2.382727e+000 3.372576e+000 2.045586e+000 1.361854e+000 2.433853e+014 1.095734e-001 2.738638e-001 9.958638e-002 5.869687e-001 3.956760e-001 3.625207e-001 5.609967e-001 8.557953e-001 6.522626e-001 8.834045e-001 6.963092e-001 2.774248e-001 4.060800e+013
<GCONST> 2.047077e+002
<MIXTURE> 2 7.145427e-001
<MEAN> 39
 -1.614075e+001 -4.717458e+000 -5.856122e+000 -3.511907e+000 -3.471809e+000 -1.893070e+000 -2.580556e+000 1.227415e-001 1.329671e-002 -1.767561e-002 -4.463446e-001 -1.341753e+000 1.470261e+001 -4.429240e-002 3.571877e-001 -7.111667e-001 -7.666560e-001 6.853549e-001 -5.483510e-001 -1.453027e-001 -4.945148e-001 -4.791654e-001 -3.951023e-001 -4.646708e-001 2.639678e-001 -1.812706e-002 7.195358e-001 6.223052e-001 -7.522750e-002 -4.915089e-001 -6.421100e-001 -7.400384e-001 -1.861483e-001 -3.760577e-001 -2.716114e-001 -2.622547e-001 -4.886957e-001 -2.001035e-001 4.028160e-001
<VARIANCE> 39
 6.770967e+000 1.164120e+001 9.828348e+000 1.468989e+001 1.677317e+001 7.574690e+000 7.511058e+000 2.031873e+001 1.566312e+001 1.589670e+001 9.155434e+000 1.651636e+001 1.638780e+016 2.781594e+000 2.723907e+000 1.746404e+000 2.760668e+000 2.953296e+000 3.743394e+000 1.125792e+000 2.071784e+000 1.676162e+000 1.540892e+000 1.184104e+000 1.794601e+000 2.433853e+014 1.688897e-001 3.542640e-001 2.383786e-001 3.372218e-001 2.743153e-001 1.538407e-001 2.883389e-001 5.434659e-001 4.039949e-001 5.339305e-001 2.708224e-001 2.541918e-001 4.060800e+013
<GCONST> 1.972063e+002
<TRANSP> 8
 0.000000e+000 1.000000e+000 0.000000e+000 0.000000e+000 0.000000e+000 0.000000e+000 0.000000e+000 0.000000e+000
 0.000000e+000 6.910208e-001 3.089792e-001 0.000000e+000 0.000000e+000 0.000000e+000 0.000000e+000 0.000000e+000
 0.000000e+000 0.000000e+000 7.526016e-001 2.473984e-001 0.000000e+000 0.000000e+000 0.000000e+000 0.000000e+000
 0.000000e+000 0.000000e+000 0.000000e+000 7.110304e-001 2.889696e-001 0.000000e+000 0.000000e+000 0.000000e+000
 0.000000e+000 0.000000e+000 0.000000e+000 0.000000e+000 8.234738e-001 1.765262e-001 0.000000e+000 0.000000e+000
 0.000000e+000 0.000000e+000 0.000000e+000 0.000000e+000 0.000000e+000 7.651019e-001 2.348981e-001 0.000000e+000
 0.000000e+000 0.000000e+000 0.000000e+000 0.000000e+000 0.000000e+000 0.000000e+000 9.015418e-001 9.845824e-002
 0.000000e+000 0.000000e+000 0.000000e+000 0.000000e+000 0.000000e+000 0.000000e+000 0.000000e+000 0.000000e+000
<ENDHMM>
~h "bu"
<BEGINHMM>
<NUMSTATES> 8
<STATE> 2
<NUMMIXES> 2
<MIXTURE> 1 5.128393e-001
<MEAN> 39
 -2.108992e+000 -1.184971e+001 -1.896428e+001 -8.021913e+000 -6.168997e+000 -1.510615e+001 -1.485520e+001 -3.380603e+000 1.682585e+000 4.219031e+000 1.100672e+001 1.110584e+001 2.271095e+001 1.419137e+000 -1.492153e+000 -2.017856e+000 2.221320e+000 -2.986086e+000 -1.035642e+000 -1.499962e+000 -3.163476e+000 -4.067624e+000 4.499699e+000 7.622241e+000 5.126471e+000 6.349561e-001 -1.665925e+000 2.828029e-001 7.200475e-001 -1.284244e-002 -1.331426e+000 1.904460e+000 1.381617e+000 -5.607170e-001 -5.714148e-001 -5.121513e-001 -1.350307e+000 -6.586370e-001 -5.023218e-001
<VARIANCE> 39
 1.886649e+000 2.788705e+000 5.116181e+000 4.746812e+000 1.106801e+001 1.499571e+000 6.827785e+000 3.292149e+000 2.204053e+001 1.162832e+001 1.200916e+001 3.736824e+000 1.638780e+016 1.679769e+000 8.748161e-002 7.468523e-001 3.043964e-001 6.134263e-001 2.241473e+000 3.548471e+000 1.006805e-001 2.716401e-001 7.830363e-001 1.394253e+000 1.428122e+000 2.433853e+014 1.573011e-002 8.933702e-002 4.290887e-002 2.902355e-001 6.331509e-002 5.373782e-002 6.441309e-002 1.816663e-001 3.879205e-001 3.712990e-001 1.162716e+000 4.897334e-001 4.060800e+013
<GCONST> 1.650411e+002
<MIXTURE> 2 4.871606e-001
<MEAN> 39
 -5.585865e+000 -9.267514e+000 -1.110146e+001 -1.187701e+001 -8.453850e+000 -1.238236e+001 -7.195795e+000 -4.967472e-001 4.806109e+000 1.552111e+000 4.529882e+000 5.707206e+000 2.198275e+001 3.805305e+000 -1.571601e+000 -3.054551e+000 2.708530e-001 -1.095797e+000 -3.086066e+000 -3.920814e+000 -2.236489e+000 -1.857558e+000 3.678654e+000 6.640919e+000 4.302596e+000 1.368192e+000 -1.088810e+000 -1.893786e-001 -1.468809e-001 8.691275e-001 -1.040802e+000 9.760526e-001 3.404208e-001 -1.148527e+000 -1.574778e+000 3.150967e-001 7.737224e-001 7.961024e-001 -4.477273e-001
<VARIANCE> 39
 1.379067e+001 2.612007e+000 3.425619e+001 3.696588e+000 1.253397e+001 2.431143e+000 4.393029e+001 9.302593e+000 3.171967e+000 3.794701e+000 1.396138e+001 1.528811e+001 1.638780e+016 1.805175e+000 2.051791e-001 3.029163e-001 7.770567e-001 1.912084e+000 6.450494e-001 9.148223e-001 9.066560e-001 2.690285e+000 6.339169e-001 2.380365e+000 1.196252e+000 2.433853e+014 2.628738e-001 7.631010e-002 2.541352e-001 1.860612e-001 1.149467e-001 2.758606e-001 4.710495e-001 5.469494e-002 1.922628e-001 1.622269e-001 1.139491e+000 5.914503e-001 4.060800e+013
<GCONST> 1.804101e+002
<STATE> 3
<NUMMIXES> 2
<MIXTURE> 1 5.853312e-001
<MEAN> 39
 -6.359355e+000 -1.425505e+001 -1.435425e+001 -4.287091e+000 -1.916895e+001 -1.326335e+001 -5.380906e+000 -6.802417e+000 -9.136612e+000 1.227263e+001 2.445560e+001 1.743377e+001 2.308208e+001 -1.270335e+000 -6.937461e-002 -5.885628e-002 -5.523155e-001 -4.894491e+000 3.218490e+000 1.124486e+000 -2.852332e+000 -2.130463e+000 9.227307e-001 -1.531118e-002 7.295150e-001 7.005760e-002 -1.386715e-001 1.212796e+000 6.329586e-001 -1.019871e+000 8.775235e-001 6.975446e-001 1.040518e-001 3.458061e-001 1.513729e+000 -1.808561e+000 -3.907611e+000 -2.408413e+000 -2.532395e-001
<VARIANCE> 39
 1.384082e+000 1.786388e+000 2.874461e+000 2.602090e+000 1.584619e+001 1.305381e+001 1.308509e+001 1.113719e+001 5.065234e+000 5.374340e+000 8.791818e+000 3.859072e+000 1.638780e+016 4.145417e-001 6.092253e-001 5.212976e-001 1.860526e+000 8.459134e-001 9.302151e-001 4.388359e-001 3.568076e-001 2.061629e+000 2.128806e+000 9.213467e+000 2.760423e+000 2.433853e+014 3.487026e-001 4.548286e-002 7.953153e-002 1.346904e-001 6.876312e-001 9.062651e-001 6.544681e-001 5.447252e-002 1.635789e-001 1.051490e-001 1.910880e-001 7.218590e-002 4.060800e+013
<GCONST> 1.739135e+002
<MIXTURE> 2 4.146687e-001
<MEAN> 39
 -8.055028e+000 -1.256540e+001 -1.771792e+001 -1.048440e+001 -2.440416e+001 -3.031928e+000 -1.076275e+001 -1.471309e+001 -6.072555e+000 8.667114e+000 1.253191e+001 1.547623e+001 2.294667e+001 1.012094e+000 2.690057e+000 -5.241204e-002 -2.067581e+000 -5.321790e-002 1.729062e+000 -1.214116e+000 -1.757317e+000 1.921898e+000 -2.170476e+000 -6.876225e+000 -3.569675e+000 -1.927464e-001 7.182863e-001 9.842923e-001 5.029798e-001 -2.142353e-001 2.127032e+000 -1.599266e+000 -8.401226e-001 3.394373e-001 6.654065e-001 -1.260599e+000 -1.607179e+000 -1.751872e+000 -6.546392e-002
<VARIANCE> 39
 1.145751e+000 1.725369e+000 4.458218e+000 9.856417e+000 4.476994e+000 6.656075e+000 1.349549e+001 2.843232e+000 1.345035e+000 2.647411e+000 2.239585e+001 4.219362e+000 1.638780e+016 3.107946e-001 5.624828e-001 2.869059e-001 4.182432e-001 2.718148e+000 2.162789e+000 2.037574e+000 3.326522e-001 7.585166e-001 7.309065e-001 1.136958e+000 4.807547e-001 2.433853e+014 2.886681e-002 6.454078e-002 3.360340e-002 2.034864e-001 6.153742e-002 1.731822e-001 3.749735e-002 3.723418e-002 2.229592e-001 5.246183e-002 7.443941e-001 1.116634e-001 4.060800e+013
<GCONST> 1.577999e+002
<STATE> 4
<NUMMIXES> 2
<MIXTURE> 1 6.369707e-001
<MEAN> 39
 -2.865240e+000 -5.750325e+000 -1.521514e+001 -1.159029e+001 -1.926385e+001 -7.627537e+000 -1.011780e+001 -1.193817e+001 -2.282835e+000 4.948752e+000 6.397441e-001 5.464172e+000 2.242640e+001 1.242783e+000 3.206228e+000 1.612412e+000 -1.057663e+000 2.343869e+000 -2.307668e+000 -1.720476e+000 -1.761299e+000 2.049944e-002 -3.036848e+000 -4.998893e+000 -5.020900e+000 -1.314708e-001 -1.995870e-001 -3.892836e-001 4.214164e-001 3.051723e-001 1.896421e-001 -8.628455e-001 2.346432e-001 2.304599e-001 -1.239623e+000 -5.611409e-001 8.719066e-001 -2.437344e-001 6.274048e-002
<VARIANCE> 39
 2.302033e+000 1.456822e+001 7.896265e+000 2.746023e+000 2.270215e+001 2.918587e+001 1.935964e+001 1.630992e+001 6.878467e+000 2.583498e+000 4.167416e+000 5.714051e+000 1.638780e+016 1.387679e-001 1.382846e-001 6.428027e-001 5.122669e-001 1.927080e-001 9.049718e-001 7.491625e-001 2.974900e-001 1.310173e+000 3.550369e-001 1.423113e+000 1.876370e-001 2.433853e+014 6.929872e-002 3.028401e-001 1.036338e-001 7.613418e-002 8.414116e-001 6.507410e-001 4.500907e-001 9.891265e-002 1.564561e-001 6.525228e-002 2.053180e-001 1.786266e-001 4.060800e+013
<GCONST> 1.676533e+002
<MIXTURE> 2 3.630293e-001
<MEAN> 39
 -3.160656e+000 -1.525867e+000 -1.221742e+001 -1.321200e+001 -1.640119e+001 -1.084539e+001 -1.481187e+001 -2.027813e+001 -6.391512e+000 -7.528238e-001 -1.882148e+000 -1.800848e+000 2.247001e+001 -2.124460e-002 1.673070e+000 1.763261e+000 -7.581764e-001 8.073016e-001 -2.025482e+000 -1.156928e+000 -1.774249e+000 -2.890820e+000 -3.682414e+000 -3.244663e+000 -4.134222e+000 3.433936e-002 -3.871307e-001 -1.498207e+000 -4.080838e-001 9.691536e-003 -1.263903e+000 1.069494e+000 1.031969e+000 8.006906e-001 -6.301963e-001 1.489267e-001 7.040408e-001 9.113116e-001 6.727729e-002
<VARIANCE> 39
 1.192624e+000 1.406996e+000 2.664310e+000 3.280960e+000 4.117033e+000 4.742899e+000 6.497051e+000 9.090440e+000 5.394620e+000 8.154371e+000 3.352870e+000 7.524296e+000 1.638780e+016 9.744366e-002 3.853231e-001 1.445710e-001 1.850009e-001 5.304379e-001 4.070469e-001 3.248312e-001 2.012150e-001 4.157975e-001 1.557299e-001 3.579952e-001 2.235072e-001 2.433853e+014 1.826973e-002 4.354283e-002 6.196184e-002 3.105498e-002 7.201948e-002 2.752636e-001 7.019465e-002 1.389765e-001 1.678351e-001 1.295384e-001 1.012690e-001 8.352603e-002 4.060800e+013
<GCONST> 1.432525e+002
<STATE> 5
<NUMMIXES> 2
<MIXTURE> 1 5.578830e-001
<MEAN> 39
 -3.143045e+000 -9.216640e+000 -1.178079e+001 -1.587261e+001 -2.130823e+001 -1.361518e+000 -1.131142e+001 -1.390952e+001 -9.114793e+000 -8.885539e+000 -1.411887e+001 -6.163043e+000 2.264599e+001 -1.160852e-001 -1.793908e+000 -4.973443e-001 3.868990e-001 1.263104e+000 4.004141e+000 -1.264393e+000 2.143283e+000 1.740597e+000 -1.657266e-001 -1.967947e+000 1.268165e+000 -9.466144e-002 -1.516289e-002 6.911905e-001 -8.569535e-002 2.959910e-001 9.910643e-001 -5.358257e-001 -2.973453e-001 2.691673e-002 2.670827e-001 5.412616e-001 5.272592e-001 3.529801e-001 -5.584744e-002
<VARIANCE> 39
 6.156192e-001 7.240541e+000 1.859557e+000 4.115836e+000 1.126324e+001 3.367080e+001 2.215651e+001 8.126919e+000 1.303423e+001 5.739366e+000 9.841336e+000 6.472684e+000 1.638780e+016 6.878841e-002 1.091020e+000 1.857616e-001 3.938953e-001 2.535622e+000 1.533957e+000 9.753072e-001 4.497907e-001 6.296590e-001 3.739225e-001 3.289401e-001 3.115676e-001 2.433853e+014 9.283742e-003 2.373221e-001 4.431768e-002 1.210951e-001 2.381833e-001 9.214402e-001 4.794051e-001 2.641270e-001 7.141213e-001 1.593685e-001 5.619969e-002 5.121105e-001 4.060800e+013
<GCONST> 1.675592e+002
<MIXTURE> 2 4.421169e-001
<MEAN> 39
 -3.600088e+000 -2.270274e+000 -1.037252e+001 -1.455691e+001 -1.817819e+001 -1.177716e+001 -1.317351e+001 -1.679930e+001 -1.189713e+001 -7.551485e+000 -9.352039e+000 -7.306983e+000 2.259612e+001 -5.882589e-002 -1.589608e+000 -2.610899e-002 -1.160563e+000 -1.739915e+000 1.706697e+000 1.181124e+000 7.929959e-001 -1.794816e+000 -2.642832e+000 -2.892912e+000 -1.854852e+000 6.248710e-002 -8.688989e-002 -1.069035e+000 -6.000310e-001 2.175361e-001 -1.828012e-001 1.610985e+000 2.116527e-002 8.511622e-001 1.028264e+000 8.916951e-001 3.284968e-001 1.399297e+000 -1.555358e-002
<VARIANCE> 39
 8.441823e-001 7.894326e+000 1.978316e+000 2.268522e+000 6.167769e+000 1.375743e+001 7.910889e+000 2.967374e+000 8.314079e+000 6.313740e+000 1.085839e+001 2.380684e+000 1.638780e+016 9.562264e-002 9.798051e-001 4.151700e-001 2.387592e-001 1.240428e+000 1.663783e+000 2.081616e+000 1.039206e+000 2.584713e+000 1.958509e+000 4.195584e-001 2.216547e+000 2.433853e+014 2.107387e-002 4.836145e-001 6.618544e-002 6.419923e-002 5.133606e-001 6.609343e-001 3.635782e-001 1.369394e-001 2.944818e-001 8.143429e-002 4.895489e-002 1.863748e-001 4.060800e+013
<GCONST> 1.674919e+002
<STATE> 6
<NUMMIXES> 2
<MIXTURE> 1 4.744498e-001
<MEAN> 39
 -2.897079e+000 -7.291882e+000 -1.454910e+001 -1.253516e+001 -1.668331e+001 2.812153e-001 -1.057344e+001 -1.288678e+001 -5.744074e+000 -4.610353e+000 -1.624788e+001 -6.344495e+000 2.198684e+001 3.457426e-001 1.456964e+000 8.798780e-002 3.330047e-001 -7.351420e-002 -2.204414e+000 5.382472e-001 1.183619e-001 -3.726487e-001 5.565608e-001 8.315329e-001 -1.466863e-001 -1.952114e-001 -1.984942e-001 5.665412e-001 5.951806e-001 -8.131002e-002 4.884319e-003 -9.170325e-001 -2.057416e-001 1.105518e-001 -4.283864e-001 -2.687958e-001 3.059233e-001 1.910158e-001 -7.216334e-002
<VARIANCE> 39
 4.616806e-001 1.823435e+000 5.011458e+000 3.066787e+000 1.656287e+001 1.892982e+001 8.354968e+000 3.629555e+001 3.201360e+000 1.001979e+001 4.076071e+000 1.743991e+001 1.638780e+016 7.996439e-002 3.669247e-001 6.169325e-001 2.536947e-001 3.356222e+000 3.933814e+000 6.868786e-001 8.153043e-001 6.673903e-001 7.408523e-001 5.816076e-001 8.306878e-001 2.433853e+014 5.185550e-002 7.270462e-002 4.328654e-001 4.910856e-002 9.609456e-001 2.581207e-001 5.403912e-001 1.343342e+000 9.325314e-002 2.609999e-001 3.280795e-002 8.588573e-001 4.060800e+013
<GCONST> 1.719822e+002
<MIXTURE> 2 5.255502e-001
<MEAN> 39
 -3.723296e+000 -7.536968e+000 -1.452192e+001 -1.556429e+001 -1.457945e+001 1.279979e+000 -1.318215e+001 -1.085446e+001 -8.494839e+000 -7.671959e+000 -1.795852e+001 -6.021784e+000 2.202893e+001 9.119444e-002 8.545133e-001 -7.341216e-001 1.917663e-001 -6.310630e-001 -1.212421e+000 1.021214e+000 -1.447756e+000 -1.007235e-001 1.288172e+000 9.912185e-002 -1.320301e+000 -9.695677e-002 1.070925e-001 2.437216e-001 1.930669e-001 1.428319e-001 -7.342820e-001 -8.420681e-001 1.511354e-001 -3.319259e-001 -8.183507e-002 1.716434e-001 4.938284e-001 -1.561982e-001 -7.915813e-003
<VARIANCE> 39
 4.630769e-001 4.321805e+000 2.301514e+000 3.194400e+000 5.446403e+000 4.557351e+000 9.285851e+000 6.940597e+000 4.888565e+000 1.119987e+001 4.904297e+000 5.138590e+000 1.638780e+016 6.103227e-002 1.548006e-001 1.317289e-001 4.615412e-001 2.028164e+000 5.788330e-001 6.439189e-001 1.430475e+000 4.238229e-001 9.655355e-001 5.049457e-001 3.933057e-001 2.433853e+014 9.306007e-003 1.029881e-001 8.390366e-002 4.430578e-002 2.143555e-001 6.421735e-002 4.428740e-001 4.266365e-001 8.306872e-002 2.882863e-001 5.308840e-002 2.600093e-001 4.060800e+013
<GCONST> 1.543637e+002
<STATE> 7
<NUMMIXES> 2
<MIXTURE> 1 5.033641e-001
<MEAN> 39
 -7.003796e+000 4.409260e+000 -3.414899e+000 -7.917871e+000 -1.309616e+001 -1.541969e+001 -1.549025e+001 -8.310598e+000 -6.589180e+000 -4.426545e+000 -1.100571e+001 -2.059327e+000 1.955512e+001 -1.470310e+000 -1.392303e-001 1.218783e+000 2.147317e+000 3.795150e+000 1.828301e+000 2.544362e+000 3.544644e+000 2.467704e+000 7.484555e-001 1.642875e+000 1.190648e+000 -9.748794e-001 -1.808741e-002 -1.492310e+000 -1.300504e+000 -3.009707e-001 -1.067373e-001 1.472305e+000 1.548162e+000 -1.990898e-001 1.004122e+000 5.149152e-001 2.445612e-001 -7.357122e-001 6.941355e-002
<VARIANCE> 39
 4.616806e-001 1.330835e+000 6.588301e+000 1.479838e+001 1.757739e+001 5.303847e+000 2.741776e+000 1.217973e+001 9.543578e+000 5.627373e+000 2.558795e+000 1.208854e+001 1.638780e+016 5.095666e-002 1.324792e+000 2.529478e+000 2.778792e-001 2.637298e-001 1.777419e+000 3.137649e+000 7.679740e-001 1.115219e+000 4.162835e-001 3.697072e-001 1.532685e+000 2.433853e+014 1.578137e-002 3.265804e-002 4.345156e-002 2.043414e-001 5.514069e-001 3.850702e-001 1.436655e-001 7.551754e-001 8.868146e-002 2.879047e-002 4.265606e-002 9.475571e-002 4.060800e+013
<GCONST> 1.612162e+002
<MIXTURE> 2 4.966356e-001
<MEAN> 39
 -2.014572e+000 5.212660e-001 -1.250592e+001 -1.385747e+001 -1.905760e+001 -1.196360e+001 -1.072864e+001 -1.166058e+001 -1.093836e+001 -4.431712e+000 -1.187221e+001 -7.005579e+000 2.111274e+001 -1.147779e+000 2.989487e+000 3.338461e+000 8.673455e-001 1.253789e+000 -3.404292e+000 -1.643969e+000 1.793077e+000 -4.997981e-001 -5.354600e-001 1.354785e+000 1.871351e+000 -5.629765e-001 -5.206982e-001 -3.707367e-001 3.820237e-001 5.455977e-001 1.399288e+000 1.381340e+000 4.615828e-001 9.492328e-001 8.152037e-001 5.399074e-002 1.082186e-002 5.287210e-001 -1.928088e-001
<VARIANCE> 39
 2.843857e+000 1.063355e+001 1.270065e+001 2.628318e+000 2.908598e+000 6.189837e+000 3.720796e+000 8.270679e+000 1.064516e+001 6.809009e+000 3.424248e+000 1.187358e+001 1.638780e+016 1.989727e-001 1.729223e-001 6.329573e-001 1.003960e+000 1.691566e+000 1.105454e+000 3.901220e-001 5.320488e-001 1.088216e+000 2.689321e-001 4.320507e-001 1.015708e+000 2.433853e+014 2.192952e-002 2.911935e-001 4.576329e-001 2.471050e-002 3.211816e-002 3.383646e-001 4.500612e-001 4.138732e-002 1.794484e-001 1.484202e-001 2.113243e-002 2.711031e-001 4.060800e+013
<GCONST> 1.610456e+002
<TRANSP> 8
 0.000000e+000 1.000000e+000 0.000000e+000 0.000000e+000 0.000000e+000 0.000000e+000 0.000000e+000 0.000000e+000
 0.000000e+000 5.876244e-001 4.123756e-001 0.000000e+000 0.000000e+000 0.000000e+000 0.000000e+000 0.000000e+000
 0.000000e+000 0.000000e+000 6.908382e-001 3.091618e-001 0.000000e+000 0.000000e+000 0.000000e+000 0.000000e+000
 0.000000e+000 0.000000e+000 0.000000e+000 6.616996e-001 3.383005e-001 0.000000e+000 0.000000e+000 0.000000e+000
 0.000000e+000 0.000000e+000 0.000000e+000 0.000000e+000 8.002024e-001 1.997976e-001 0.000000e+000 0.000000e+000
 0.000000e+000 0.000000e+000 0.000000e+000 0.000000e+000 0.000000e+000 8.318540e-001 1.681460e-001 0.000000e+000
 0.000000e+000 0.000000e+000 0.000000e+000 0.000000e+000 0.000000e+000 0.000000e+000 7.572026e-001 2.427974e-001
 0.000000e+000 0.000000e+000 0.000000e+000 0.000000e+000 0.000000e+000 0.000000e+000 0.000000e+000 0.000000e+000
<ENDHMM>
~h "de"
<BEGINHMM>
<NUMSTATES> 8
<STATE> 2
<NUMMIXES> 2
<MIXTURE> 1 4.607004e-001
<MEAN> 39
 -8.517890e+000 -2.162496e+000 -9.394202e+000 -1.609378e+001 -1.154694e+001 -9.855239e+000 -1.505140e+001 -5.158896e+000 -8.657322e+000 -6.197719e+000 -4.905894e+000 3.004673e+000 2.163241e+001 -1.086073e+000 -1.000526e+000 -1.135639e+000 -2.668287e-001 2.567638e+000 1.336991e+000 -2.321431e-001 3.320472e+000 -4.410232e-001 9.943769e-001 2.365723e+000 2.262270e+000 8.841078e-002 5.772730e-001 -4.918211e-002 -6.824149e-001 -5.777397e-002 7.066631e-002 -4.843627e-001 2.933530e-001 -5.629172e-001 -2.604732e-001 3.449439e-001 -2.435114e-001 -6.303549e-001 1.453723e-001
<VARIANCE> 39
 2.070389e+001 9.318575e+000 1.550625e+001 4.661413e+001 1.904226e+001 4.954309e+001 1.796685e+001 5.307029e+001 1.818983e+001 1.905556e+001 6.747823e+001 4.756375e+001 1.638780e+016 1.144692e+000 2.246619e+000 2.517161e+000 1.506533e+000 3.997000e+000 3.043533e+000 5.090670e+000 1.167945e+001 1.163422e+000 1.278540e+000 5.998490e+000 2.660480e+000 2.433853e+014 4.213786e-001 3.010103e-001 7.893866e-001 7.443148e-001 7.074737e-001 5.584551e-001 7.374743e-001 1.622818e+000 9.456612e-001 3.602709e-001 1.390240e+000 3.270042e-001 4.060800e+013
<GCONST> 2.197681e+002
<MIXTURE> 2 5.392996e-001
<MEAN> 39
 -9.326790e+000 -4.494367e+000 -1.763302e+001 -1.831953e+001 -3.515940e+000 -8.563932e+000 -1.215262e+001 3.955556e+000 -1.246928e+001 -1.762939e+000 -1.478122e+000 3.351672e+000 2.270606e+001 5.840370e-001 -8.218895e-001 -2.867857e+000 3.097800e-001 1.638804e+000 -8.209180e-001 -2.346890e-001 -1.428517e+000 -2.141225e+000 1.507190e+000 -6.835915e-001 -4.473628e-001 5.066139e-001 2.489605e-001 4.952714e-001 4.687501e-001 4.256876e-001 -1.294440e+000 -5.076642e-001 -2.124858e-001 -2.005831e+000 -5.557718e-002 -4.392530e-001 -7.115604e-001 -1.068556e+000 -1.159042e-001
<VARIANCE> 39
 1.032226e+001 6.971750e+000 1.592120e+001 7.452443e+000 5.898316e+000 4.798378e+000 8.057927e+000 5.139711e+001 2.793120e+001 1.610542e+001 1.056060e+002 4.157034e+001 1.638780e+016 1.898940e+000 6.715906e-001 1.373781e+000 3.939938e+000 5.061882e+000 6.989562e-001 9.984735e-001 1.234466e+001 3.654009e+000 8.252408e-001 3.471847e+000 2.305279e+000 2.433853e+014 4.757481e-001 7.253735e-002 4.776306e-001 3.538038e-001 3.234406e-001 2.933535e-001 2.988365e-001 1.478135e+000 6.779014e-001 3.414752e-001 1.452899e+000 1.913503e-001 4.060800e+013
<GCONST> 2.042216e+002
<STATE> 3
<NUMMIXES> 2
<MIXTURE> 1 4.724823e-001
<MEAN> 39
 -5.919435e+000 1.388303e+000 -1.195501e+001 -1.754235e+001 -1.614154e+001 -1.317660e+001 -1.524780e+001 -7.198802e+000 -1.023641e+001 -5.390132e+000 -5.504324e+000 -1.578502e+000 2.166429e+001 -3.905851e-001 -1.517477e-001 2.623111e+000 8.497217e-001 6.542767e-001 1.616871e+000 1.561522e+000 5.339932e-001 2.659932e+000 -2.091518e-001 4.789653e-001 2.928097e-001 -9.304669e-001 -5.284789e-001 -1.127499e+000 -2.905740e-001 2.941421e-001 1.582186e+000 6.971207e-001 1.202198e+000 4.792378e-001 1.601013e-002 4.965894e-001 3.170338e-001 3.517685e-001 -8.821503e-002
<VARIANCE> 39
 4.672703e+000 5.787699e+000 2.861006e+001 1.144417e+001 2.133172e+001 2.020583e+001 4.511332e+001 2.613309e+001 1.900130e+001 1.340406e+001 2.554546e+001 3.375389e+001 1.638780e+016 6.583338e-001 3.122958e+000 1.074768e+000 1.479607e+000 5.596755e+000 1.777097e+000 3.855285e+000 4.368878e+000 3.465974e+000 1.709591e+000 3.347021e+000 1.695729e+000 2.433853e+014 2.184223e-001 2.074260e-001 2.947800e-001 6.250006e-001 6.496761e-001 2.055776e-001 1.021627e+000 6.134194e-001 5.193522e-001 3.349386e-001 7.929322e-001 1.692902e-001 4.060800e+013
<GCONST> 2.067977e+002
<MIXTURE> 2 5.275176e-001
<MEAN> 39
 -8.925117e+000 -4.863790e+000 -2.028364e+001 -1.618302e+001 -5.975840e+000 -1.104532e+001 -1.325326e+001 -6.494335e+000 -1.746068e+001 -3.032238e+000 -6.245966e+000 -3.146510e+000 2.302097e+001 1.148556e-001 9.826159e-001 6.619573e-001 -2.241283e-001 -2.663131e+000 -5.243627e-001 2.274939e-001 -9.261386e-001 4.667639e-001 -1.130009e+000 -1.744909e-001 -1.044163e+000 -2.964846e-001 -4.051725e-002 3.991093e-001 9.898217e-001 -1.298248e-001 -4.949884e-001 4.123983e-001 2.936778e-001 6.847159e-001 1.107990e+000 -3.070475e-001 2.851905e-001 3.282812e-001 -2.878209e-001
<VARIANCE> 39
 3.705250e+000 3.085280e+000 9.082573e+000 8.714652e+000 3.439782e+001 1.214439e+001 1.535677e+001 1.702831e+001 2.182877e+001 1.077141e+001 3.286222e+001 5.155803e+001 1.638780e+016 5.426124e-001 1.245049e+000 1.919716e+000 1.345502e+000 3.105437e+000 9.149100e-001 2.550531e+000 4.293410e+000 4.629272e+000 1.831432e+000 4.483382e+000 2.238680e+000 2.433853e+014 1.441205e-001 2.290158e-001 2.566675e-001 3.445750e-001 1.459465e+000 2.736844e-001 4.794978e-001 8.986120e-001 7.696747e-001 5.037748e-001 1.568971e-001 2.432785e-001 4.060800e+013
<GCONST> 2.014063e+002
<STATE> 4
<NUMMIXES> 2
<MIXTURE> 1 4.403176e-001
<MEAN> 39
 -9.956104e+000 -2.699011e+000 -7.947864e+000 -1.332161e+001 -7.678044e+000 -9.017365e+000 -8.148782e+000 -7.244034e+000 -5.655485e+000 -4.953398e+000 -5.367261e+000 1.451257e+000 1.912561e+001 -1.232725e+000 -1.445015e+000 9.527900e-001 1.089878e+000 2.903054e+000 1.591303e+000 2.411197e+000 8.694975e-001 8.017558e-001 9.175200e-001 1.340302e+000 1.108189e+000 -4.558683e-001 8.415661e-003 -1.632430e-001 -6.995661e-001 1.085178e-001 6.429733e-002 -2.466938e-001 -3.431120e-002 -1.703731e-001 -6.620007e-001 3.291572e-001 3.380613e-001 7.440269e-002 2.349224e-001
<VARIANCE> 39
 2.978580e+001 1.500058e+001 2.541530e+001 1.087028e+001 1.756279e+001 2.845519e+001 4.157163e+001 2.255129e+001 1.273991e+001 1.034101e+001 4.323283e+001 3.539482e+001 1.638780e+016 1.151779e+000 3.668300e+000 1.340667e+000 2.784346e+000 4.945248e+000 3.219386e+000 4.269138e+000 5.313248e+000 2.327731e+000 3.268520e+000 7.790528e+000 1.824704e+000 2.433853e+014 2.932543e-001 4.650956e-001 4.964074e-001 1.551424e-001 4.019513e-001 1.711321e-001 5.610797e-001 6.219459e-001 7.094914e-001 2.165900e-001 9.495403e-001 5.295793e-001 4.060800e+013
<GCONST> 2.129531e+002
<MIXTURE> 2 5.596820e-001
<MEAN> 39
 -1.505200e+001 -6.234547e+000 -1.203149e+001 -1.000432e+001 -6.534723e+000 -3.666898e+000 -2.664306e+000 -3.579296e+000 -6.199515e+000 -3.668573e+000 -4.076018e+000 -2.609602e+000 1.717377e+001 -1.849995e+000 -6.661617e-001 3.947646e-001 1.397007e+000 3.035260e-001 4.863304e-001 2.204624e+000 7.893312e-001 3.129396e-001 1.668781e-001 3.445585e-001 -7.172698e-001 -2.263905e-001 3.427541e-001 8.027470e-001 -2.224304e-001 -3.243453e-001 -6.859819e-001 -6.293210e-001 -3.674958e-001 1.355981e-001 -3.185212e-001 -3.309413e-001 -4.273589e-001 -4.786759e-001 4.922292e-001
<VARIANCE> 39
 7.650496e+000 5.489926e+000 4.972699e+000 1.142325e+001 1.191309e+001 1.043243e+001 1.517015e+001 2.987049e+001 1.322581e+001 3.101634e+001 1.802692e+001 2.029585e+001 1.638780e+016 5.454101e-001 2.673816e+000 1.329712e+000 8.903718e-001 3.936941e+000 1.154547e+000 2.235029e+000 1.849064e+000 2.473465e+000 1.894225e+000 5.029525e+000 1.707624e+000 2.433853e+014 1.525251e-001 2.553106e-001 2.300612e-001 1.623203e-001 6.974583e-001 2.077358e-001 3.637178e-001 3.959613e-001 3.690716e-001 5.308786e-001 3.485488e-001 3.112742e-001 4.060800e+013
<GCONST> 1.970283e+002
<STATE> 5
<NUMMIXES> 2
<MIXTURE> 1 5.485895e-001
<MEAN> 39
 -1.728608e+001 -1.157280e+000 -9.651212e+000 -8.365451e+000 -6.285364e+000 -4.221859e+000 8.281286e-001 -1.041375e+000 -7.266398e+000 -5.494151e+000 -2.564106e+000 -3.338872e+000 1.875033e+001 1.380867e-001 1.007146e+000 6.267765e-001 6.179110e-001 1.392802e+000 -4.539819e-001 1.947997e-001 8.523967e-001 8.879408e-001 3.265114e-001 -1.932358e-001 1.805980e-001 1.648421e-001 5.259250e-001 5.162120e-002 -2.195898e-001 -2.801946e-001 -1.568761e-001 -6.306016e-001 -7.135293e-001 -4.133669e-001 4.477247e-001 3.785590e-001 3.930751e-001 5.693778e-001 8.093693e-002
<VARIANCE> 39
 5.900849e+000 6.088644e+000 3.130152e+001 1.437683e+001 3.578051e+001 2.015664e+001 1.999877e+001 1.096382e+001 2.435503e+001 1.739772e+001 1.974257e+001 4.585703e+001 1.638780e+016 1.152453e+000 1.069060e+000 2.972218e+000 8.083099e-001 2.986872e+000 3.020873e+000 2.773866e+000 2.935015e+000 2.051541e+000 2.451342e+000 3.676198e+000 7.455870e+000 2.433853e+014 9.543332e-002 1.687284e-001 5.973660e-001 2.041985e-001 1.031885e+000 5.277049e-001 4.146684e-001 4.542293e-001 3.739260e-001 5.466555e-001 5.467342e-001 8.396047e-001 4.060800e+013
<GCONST> 2.074244e+002
<MIXTURE> 2 4.514105e-001
<MEAN> 39
 -8.856423e+000 2.331406e-001 -1.440576e+001 -1.562441e+001 -9.762377e+000 -1.254267e+001 -6.210583e+000 -8.060818e+000 -4.678730e+000 -5.601079e+000 3.897666e+000 5.606187e+000 2.161164e+001 -5.071687e-002 -5.824694e-001 -4.389271e-001 -7.700907e-001 -4.064114e-001 2.418298e-001 -2.155092e-001 -6.787626e-001 -8.668777e-001 -5.098236e-002 1.078498e+000 2.354596e-001 6.282309e-002 -3.171524e-001 -8.724627e-002 2.614103e-001 2.945825e-001 2.602348e-001 2.591051e-001 3.365395e-002 1.609480e-001 -2.959324e-001 -1.247100e-002 -4.389727e-001 -3.631356e-001 -1.638221e-001
<VARIANCE> 39
 1.179451e+001 1.752377e+001 6.619568e+001 3.455692e+001 2.325660e+001 2.142957e+001 1.616049e+001 3.335378e+001 2.392991e+001 3.945625e+001 1.008406e+001 1.393417e+001 1.638780e+016 1.645523e+000 1.781532e+000 8.667612e+000 4.393412e+000 4.657745e+000 4.752214e+000 1.957938e+000 2.900961e+000 1.219334e+000 7.785431e+000 4.318148e+000 3.747457e+000 2.433853e+014 2.276219e-001 2.352565e-001 1.295737e+000 6.081066e-001 5.776413e-001 6.787030e-001 5.057111e-001 7.976769e-001 5.279039e-001 1.436165e+000 2.496863e-001 6.271808e-001 4.060800e+013
<GCONST> 2.182795e+002
<STATE> 6
<NUMMIXES> 2
<MIXTURE> 1 4.618986e-001
<MEAN> 39
 -1.553494e+001 -8.985926e-002 -4.137246e+000 -6.959527e+000 -3.249753e-001 -7.730895e+000 3.487745e-001 1.383696e+000 -4.420320e+000 -2.615219e+000 -7.625722e+000 -5.309741e+000 1.894126e+001 1.700502e+000 3.964065e-001 -1.278353e+000 -8.939819e-001 -1.486854e+000 -9.888102e-001 -2.358922e+000 -6.253259e-001 1.625381e+000 2.948035e+000 3.255523e+000 1.938520e+000 6.663796e-001 5.301682e-001 -5.683907e-001 -1.444064e+000 -1.041413e+000 -1.326982e+000 3.675658e-002 -9.857702e-001 -1.198023e+000 -9.008545e-002 1.594786e-001 2.215275e+000 1.876051e+000 2.677912e-001
<VARIANCE> 39
 5.169772e+000 3.069136e+000 3.818939e+001 3.606937e+000 1.282585e+001 1.158136e+001 2.027172e+001 2.125450e+001 1.922395e+001 2.442526e+001 1.841473e+001 8.198112e+000 1.638780e+016 1.021662e+000 9.549363e-001 5.942410e+000 2.229397e+000 2.784306e+000 1.952231e+000 3.761930e+000 3.197652e+000 3.991455e-001 8.213735e-001 9.917639e+000 7.312786e+000 2.433853e+014 2.274711e-001 3.162313e-001 5.886996e-001 1.140242e-001 2.427635e-001 3.018667e-001 4.178671e-001 7.792889e-001 2.421306e-001 3.979961e-001 5.858084e-001 6.598895e-001 4.060800e+013
<GCONST> 2.009479e+002
<MIXTURE> 2 5.381015e-001
<MEAN> 39
 -9.750071e+000 -6.228679e-003 -1.011246e+001 -1.276134e+001 -6.835384e+000 -1.249950e+001 -1.130444e+001 -5.083871e+000 -3.700482e+000 1.691957e+000 5.855473e+000 4.702469e+000 2.161317e+001 1.614230e+000 -3.844658e-001 -2.445687e+000 -1.478805e+000 -1.833243e+000 -1.979188e+000 -2.348336e+000 -2.919861e+000 -9.507983e-003 1.729281e+000 4.447984e+000 3.526612e+000 8.143902e-001 1.777058e-002 -3.345577e-001 -3.732722e-001 -2.463477e-001 -4.684169e-001 2.841173e-001 2.907848e-001 -3.272315e-001 -3.040220e-001 -7.982019e-001 -7.568684e-001 -1.939019e-001 -3.836653e-003
<VARIANCE> 39
 3.108229e+001 4.192704e+001 1.881459e+001 4.501889e+001 1.846597e+001 1.486362e+001 2.547995e+001 6.910206e+001 2.813843e+001 2.208535e+001 4.392787e+001 3.258852e+001 1.638780e+016 2.485631e+000 3.103019e+000 4.441449e+000 3.403161e+000 4.504694e+000 5.346077e+000 2.303128e+000 1.709538e+000 2.298950e+000 9.951665e-001 4.999602e+000 2.817862e+000 2.433853e+014 1.554322e-001 6.301236e-001 5.533509e-001 5.451135e-001 9.493514e-001 8.490067e-001 7.352768e-001 2.269898e+000 2.920807e-001 2.404775e-001 1.574601e+000 3.551805e-001 4.060800e+013
<GCONST> 2.204955e+002
<STATE> 7
<NUMMIXES> 2
<MIXTURE> 1 4.368448e-001
<MEAN> 39
 -8.143950e+000 -5.444394e+000 -1.045106e+001 -1.103648e+001 -1.448932e+001 -9.662004e+000 -1.529916e+001 -1.357742e+001 -5.025301e+000 -6.890417e-001 -1.273713e-001 8.892609e+000 2.100468e+001 -1.136764e+000 -6.699271e-001 1.869066e+000 1.423459e+000 1.147889e+000 8.517399e-001 1.230365e+000 8.766220e-001 4.785347e-002 2.509550e-001 -1.141002e+000 -9.090446e-001 -7.149407e-001 -2.610581e-001 -3.698847e-001 9.557410e-002 -2.609442e-001 6.606281e-001 3.545749e-001 9.731386e-001 6.391248e-001 1.123399e-001 2.550802e-001 3.923546e-001 -1.194340e-001 2.423824e-002
<VARIANCE> 39
 1.919962e+001 2.465916e+001 2.733315e+001 3.758465e+001 3.734362e+001 2.527242e+001 2.232646e+001 4.162797e+001 2.619354e+001 3.250096e+001 5.846566e+001 3.539225e+001 1.638780e+016 1.818625e+000 2.402515e+000 3.215658e+000 3.916001e+000 3.347455e+000 3.304691e+000 5.726057e+000 3.955515e+000 3.539545e+000 2.022449e+000 4.789735e+000 5.311900e+000 2.433853e+014 4.463270e-001 5.430738e-001 6.721274e-001 7.131253e-001 5.424857e-001 6.713911e-001 7.079278e-001 6.603376e-001 5.991476e-001 5.784288e-001 1.540663e+000 8.685188e-001 4.060800e+013
<GCONST> 2.246787e+002
<MIXTURE> 2 5.631541e-001
<MEAN> 39
 -8.467896e+000 -7.415293e+000 -1.363551e+001 -1.660375e+001 -1.040682e+001 -8.613037e+000 -1.209227e+001 -8.884042e+000 -4.469225e+000 8.361160e-001 7.291641e+000 1.031767e+001 2.235153e+001 7.346210e-001 -2.200406e-001 -5.390390e-001 2.254487e-001 -1.518209e+000 -6.837455e-003 -1.016396e+000 -1.642426e+000 -2.446845e-001 -4.774204e-001 -8.523916e-001 6.411399e-001 1.985477e-001 -1.401281e-001 2.715615e-001 5.366564e-001 4.947498e-001 2.999153e-002 -3.533681e-002 4.893474e-002 1.530131e-001 -9.590645e-002 -1.951318e-001 -7.225947e-001 -4.877726e-001 -1.929301e-001
<VARIANCE> 39
 1.493593e+001 3.192879e+001 2.444426e+001 1.802798e+001 4.523990e+001 3.983443e+001 3.200355e+001 6.230086e+001 3.359063e+001 1.849678e+001 5.858468e+001 8.094344e+001 1.638780e+016 1.220133e+000 3.466393e+000 4.707272e+000 3.613560e+000 2.464233e+000 3.612152e+000 3.522257e+000 6.167878e+000 3.930648e+000 2.144477e+000 1.170478e+001 1.069648e+001 2.433853e+014 4.051234e-001 6.605378e-001 8.589894e-001 4.535401e-001 8.849202e-001 1.118368e+000 8.845125e-001 1.335992e+000 7.747201e-001 4.258830e-001 2.364040e+000 2.185190e+000 4.060800e+013
<GCONST> 2.306504e+002
<TRANSP> 8
 0.000000e+000 1.000000e+000 0.000000e+000 0.000000e+000 0.000000e+000 0.000000e+000 0.000000e+000 0.000000e+000
 0.000000e+000 6.420703e-001 3.579297e-001 0.000000e+000 0.000000e+000 0.000000e+000 0.000000e+000 0.000000e+000
 0.000000e+000 0.000000e+000 7.120351e-001 2.879649e-001 0.000000e+000 0.000000e+000 0.000000e+000 0.000000e+000
 0.000000e+000 0.000000e+000 0.000000e+000 6.611469e-001 3.388530e-001 0.000000e+000 0.000000e+000 0.000000e+000
 0.000000e+000 0.000000e+000 0.000000e+000 0.000000e+000 8.143968e-001 1.856032e-001 0.000000e+000 0.000000e+000
 0.000000e+000 0.000000e+000 0.000000e+000 0.000000e+000 0.000000e+000 5.644376e-001 4.355624e-001 0.000000e+000
 0.000000e+000 0.000000e+000 0.000000e+000 0.000000e+000 0.000000e+000 0.000000e+000 9.146332e-001 8.536678e-002
 0.000000e+000 0.000000e+000 0.000000e+000 0.000000e+000 0.000000e+000 0.000000e+000 0.000000e+000 0.000000e+000
<ENDHMM>
~h "er"
<BEGINHMM>
<NUMSTATES> 8
<STATE> 2
<NUMMIXES> 2
<MIXTURE> 1 5.315118e-001
<MEAN> 39
 -1.897741e+001 -6.052361e+000 -8.030964e+000 -4.699996e+000 -4.729133e+000 -3.145953e+000 -3.163082e+000 -2.758228e+000 -1.444467e+000 -9.081846e-001 -1.900316e+000 -2.410863e+000 1.493066e+001 3.160091e-002 1.916230e-001 2.792820e-001 9.695193e-002 4.419312e-001 4.314739e-001 7.022939e-001 5.647610e-001 5.406371e-001 2.645994e-001 6.721230e-002 1.780454e-001 1.142932e-003 5.937709e-002 1.369846e-001 1.726990e-001 3.020026e-002 -9.345540e-002 -1.156088e-001 1.627948e-001 2.463832e-001 -2.233265e-001 -1.869946e-001 6.328207e-002 1.655229e-001 4.920430e-003
<VARIANCE> 39
 2.174332e+000 3.728001e+000 4.964450e+000 7.468369e+000 5.595217e+000 7.143807e+000 1.648207e+001 2.145313e+001 1.960050e+001 6.852131e+000 1.883252e+001 9.596128e+000 1.638780e+016 1.287796e-001 4.523138e-001 6.064880e-001 8.698981e-001 4.983189e-001 9.370002e-001 2.242711e+000 4.507792e+000 8.736080e-001 1.775389e+000 2.728671e+000 1.321261e+000 2.433853e+014 3.883151e-002 7.828379e-002 1.152325e-001 1.108777e-001 1.099565e-001 1.384686e-001 5.386953e-001 5.062827e-001 3.264778e-001 2.160063e-001 6.047811e-001 1.857677e-001 4.060800e+013
<GCONST> 1.781447e+002
<MIXTURE> 2 4.684883e-001
<MEAN> 39
 -1.839564e+001 -5.053888e+000 -6.684653e+000 -4.532582e+000 -5.576200e+000 -4.050593e+000 -2.874074e+000 -1.731020e+000 -3.736873e+000 -3.116903e+000 -1.593324e+000 -1.381603e+000 1.496523e+001 3.075944e-002 -1.816894e-001 -4.054253e-001 -8.280415e-002 -3.235382e-001 -4.720694e-001 -7.057991e-001 -4.231060e-001 -5.452572e-001 9.733081e-002 5.359105e-002 -2.433666e-001 -6.380543e-003 -8.357432e-002 -1.525713e-001 -2.149326e-001 -4.055410e-002 1.147561e-001 1.472107e-001 -9.003003e-002 -1.602710e-001 2.575338e-001 1.789639e-001 -1.418171e-001 -1.987767e-001 -3.534501e-003
<VARIANCE> 39
 6.515244e-001 3.112749e+000 6.488190e+000 8.263904e+000 1.034630e+001 1.079137e+001 2.228972e+001 4.320406e+001 1.396824e+001 2.193756e+001 9.745678e+000 8.702429e+000 1.638780e+016 2.438391e-001 4.983513e-001 7.704824e-001 4.147595e-001 1.208869e+000 9.009103e-001 1.652485e+000 3.160022e+000 2.083545e+000 8.872259e-001 1.781035e+000 9.902588e-001 2.433853e+014 2.098844e-002 1.035831e-001 1.213184e-001 1.030425e-001 2.158306e-001 2.853157e-001 5.561761e-001 1.306193e+000 2.632338e-001 2.980254e-001 4.356477e-001 2.359756e-001 4.060800e+013
<GCONST> 1.811442e+002
<STATE> 3
<NUMMIXES> 2
<MIXTURE> 1 4.908696e-001
<MEAN> 39
 -1.842505e+001 -6.243052e+000 -9.849967e+000 -4.627641e+000 -8.488043e-001 9.179621e-001 2.556154e-001 -3.301500e+000 -4.582035e+000 -1.947139e+000 -2.290332e+000 -2.970271e+000 1.494166e+001 -5.120419e-002 2.646983e-001 -1.309899e-001 4.645933e-001 1.033971e+000 5.126793e-001 1.651714e+000 8.006321e-001 3.217467e-002 1.652824e-001 -4.657154e-001 7.749040e-001 -4.153275e-003 -2.779595e-003 8.670738e-002 3.801213e-001 -1.053529e-001 -5.586517e-001 -8.800823e-001 -7.921032e-001 5.680284e-002 4.888294e-001 3.479190e-001 7.813946e-002 2.095957e-001 1.337372e-002
<VARIANCE> 39
 4.616806e-001 3.906967e+000 2.716661e+000 3.486362e+000 1.180908e+001 1.299081e+000 1.659972e+001 2.787421e+000 3.835268e+000 2.612382e+000 1.175373e+000 4.981482e+000 1.638780e+016 3.107552e-002 2.327256e-002 1.232622e-001 1.495796e-001 5.469878e-001 1.035025e+000 2.074602e+000 1.576051e-001 2.220453e-001 4.717370e-001 2.074424e-001 2.831089e-001 2.433853e+014 4.025485e-003 3.725634e-002 1.672374e-002 3.056961e-002 2.021781e-001 8.028003e-002 3.888481e-001 1.321813e-002 3.869066e-002 4.843084e-002 3.204700e-002 6.656545e-002 4.060800e+013
<GCONST> 1.307400e+002
<MIXTURE> 2 5.091307e-001
<MEAN> 39
 -1.859558e+001 -5.028162e+000 -8.741945e+000 -2.239200e+000 -3.792991e+000 -2.481895e+000 -1.957537e+000 -3.119362e+000 -4.592077e+000 1.053717e+000 4.440601e-001 -1.807992e+000 1.487900e+001 3.812970e-002 -4.014056e-001 1.457268e-001 -4.283102e-001 -1.711415e+000 -1.859700e+000 -1.633386e+000 8.102944e-001 1.200480e+000 -2.759746e-001 -8.423466e-001 2.989234e-001 1.307158e-001 5.332199e-002 -3.059275e-001 -5.573579e-002 -4.817756e-001 -2.968889e-001 -1.618816e-001 -3.217169e-001 3.454358e-001 9.686390e-002 5.527536e-002 -2.081181e-001 1.846925e-001 2.184334e-001
<VARIANCE> 39
 4.616806e-001 2.241100e+000 1.412136e+000 6.683169e+000 5.979073e+000 6.813532e+000 1.453502e+001 1.214575e+001 2.243232e+000 3.128837e+000 4.547036e+000 1.374132e+001 1.638780e+016 5.412109e-002 3.933987e-001 1.725958e-001 2.864226e-001 2.169720e-001 1.194074e-001 2.907283e-001 2.296840e-001 1.073170e+000 1.885983e-001 3.133065e-001 1.212018e-001 2.433853e+014 1.810649e-002 6.803960e-002 6.477123e-003 2.653863e-002 3.688035e-001 2.124528e-001 4.444636e-001 6.828899e-002 1.293648e-001 9.068911e-002 2.116993e-002 8.575508e-002 4.060800e+013
<GCONST> 1.404655e+002
<STATE> 4
<NUMMIXES> 2
<MIXTURE> 1 5.476124e-001
<MEAN> 39
 -1.840837e+001 -5.640419e+000 -6.988219e+000 -3.066367e+000 -4.025723e+000 -5.792447e+000 -2.390990e+000 1.071817e+000 3.594363e+000 -4.755244e+000 -5.541629e+000 -1.634015e+000 1.554373e+001 -3.355240e-002 -5.001761e-001 -9.028226e-002 -1.130494e+000 3.911562e-001 -5.136421e-001 7.068133e-001 2.143409e+000 -4.439666e-001 1.333240e+000 -1.217874e+000 2.102633e+000 9.766902e-001 -5.540252e-001 1.007022e+000 2.306135e-001 -8.709210e-001 1.498609e+000 1.091010e+000 6.647590e-001 5.922796e-001 -1.051278e+000 6.959767e-001 1.879012e-001 1.484661e-001 2.415729e-001
<VARIANCE> 39
 1.041622e+000 6.375043e-001 9.801458e-001 2.697110e+000 3.279413e+000 7.606349e-001 5.610021e-001 1.353357e+000 2.782601e+000 3.155393e+000 9.866388e+000 4.285236e+000 1.638780e+016 1.325370e-001 6.300153e-001 5.819338e-002 4.010443e-001 4.454165e-001 4.200379e-001 1.337251e-001 7.327848e-001 1.090445e-001 1.867719e-001 3.529375e-001 4.249873e-001 2.433853e+014 6.303850e-003 1.672649e-002 1.150772e-002 1.625700e-002 8.651932e-003 7.528152e-003 1.470219e-002 8.019187e-003 2.951962e-002 4.841867e-002 6.405801e-002 5.943324e-002 4.060800e+013
<GCONST> 1.160132e+002
<MIXTURE> 2 4.523875e-001
<MEAN> 39
 -1.871324e+001 -7.001950e+000 -9.516343e+000 -6.515763e+000 -7.584561e+000 -7.554548e+000 -6.797273e+000 -2.831166e+000 -3.480796e+000 -4.024436e+000 -7.040413e+000 3.005764e-001 1.495098e+001 5.579433e-001 -1.710481e+000 -3.825430e-001 -1.048768e+000 -1.461147e+000 -6.736375e-001 -6.701119e-001 1.644351e+000 9.561105e-001 -5.140193e-001 -1.458364e+000 9.114959e-001 6.092327e-001 -3.281547e-001 5.239441e-001 9.032308e-002 -4.705770e-001 1.362442e+000 9.662516e-001 7.857137e-001 7.140319e-001 -8.650563e-001 6.154278e-001 2.773105e-001 5.048550e-001 3.165618e-001
<VARIANCE> 39
 4.616806e-001 1.155490e+000 3.438563e+000 4.116284e+000 6.400457e+000 2.006509e+000 1.029833e+001 1.234473e+000 3.802751e+000 1.418912e+000 1.151707e+000 9.091832e-001 1.638780e+016 2.573251e-002 4.775804e-002 7.648489e-002 1.727531e-001 2.442260e-001 8.439242e-002 2.151271e-001 1.054810e-001 2.858245e-001 1.125804e-001 6.255721e-002 6.280223e-002 2.433853e+014 5.983102e-003 2.335892e-002 4.975221e-003 1.589623e-002 2.854139e-002 3.597606e-002 2.726516e-002 8.019187e-003 3.312692e-002 8.370203e-003 1.885503e-002 8.501045e-003 4.060800e+013
<GCONST> 1.040912e+002
<STATE> 5
<NUMMIXES> 2
<MIXTURE> 1 5.399004e-001
<MEAN> 39
 -1.610587e+001 -1.164915e+001 -1.089930e+001 -6.123923e+000 -9.898746e+000 -4.350477e+000 -3.345953e+000 1.232249e+000 -2.093364e+000 5.955615e-001 -1.558142e+000 3.856439e+000 1.708099e+001 -1.395455e+000 1.963307e+000 4.967743e-001 -2.226288e+000 3.317067e+000 1.397701e+000 1.230585e+000 3.328907e+000 -2.395097e+000 1.752905e+000 3.046522e-001 2.004992e+000 1.175024e+000 -4.943714e-001 1.235214e+000 5.050080e-001 -8.529713e-001 1.105646e+000 8.879756e-001 3.660422e-001 7.875701e-001 -6.108749e-002 1.512759e-001 -5.860315e-002 -8.851423e-001 2.087762e-002
<VARIANCE> 39
 4.616806e-001 2.638938e+000 5.110934e-001 1.990749e+000 1.130895e+000 2.426790e+000 6.590155e-001 1.537606e+000 8.636124e+000 7.413398e-001 4.546731e+000 9.091832e-001 1.638780e+016 9.584944e-002 1.677683e-001 9.411834e-002 1.141594e-001 8.957269e-001 3.218027e-001 2.221258e-001 8.130059e-002 1.474431e-001 2.182497e-001 3.137505e-001 1.877341e-001 2.433853e+014 5.121407e-003 2.754773e-002 1.072015e-002 6.414778e-003 7.745077e-002 5.277029e-002 1.501642e-002 1.175347e-002 1.326151e-001 2.801897e-002 1.013824e-002 7.684615e-002 4.060800e+013
<GCONST> 1.124511e+002
<MIXTURE> 2 4.600995e-001
<MEAN> 39
 -1.878188e+001 -8.218686e+000 -9.750389e+000 -7.069075e+000 -3.346604e+000 -5.267299e+000 -3.348652e-001 6.573579e+000 -6.562203e+000 5.816137e+000 -7.878847e+000 2.387780e+000 1.851593e+001 -1.716607e+000 2.840699e+000 9.259771e-001 -3.928465e+000 3.237055e+000 2.367014e+000 1.302371e-001 3.014850e+000 -1.940676e+000 2.048225e+000 -6.295332e-001 8.342157e-001 1.114314e+000 -4.035253e-002 5.086590e-001 3.891469e-001 -3.526845e-001 1.229803e-001 8.146901e-001 1.215151e-002 5.108166e-001 1.094336e+000 -4.917457e-001 2.803375e-001 -1.681298e+000 -2.166176e-001
<VARIANCE> 39
 3.028265e+000 5.135963e+000 4.657230e-001 3.058789e+000 7.635783e+000 1.666340e+000 1.802254e+000 3.640687e+000 5.070046e-001 3.883426e+000 1.158857e+000 9.091832e-001 1.638780e+016 2.573251e-002 2.462771e-002 2.922606e-002 4.145979e-001 1.370738e-001 5.541627e-002 4.557283e-002 4.198139e-002 4.175396e-001 4.634015e-002 5.929016e-002 8.843462e-002 2.433853e+014 3.237428e-002 4.832442e-002 6.362151e-003 2.859450e-002 1.195491e-001 1.287290e-002 2.047909e-002 5.783955e-002 3.521062e-002 3.727372e-002 2.076524e-002 3.671443e-002 4.060800e+013
<GCONST> 1.075115e+002
<STATE> 6
<NUMMIXES> 2
<MIXTURE> 1 6.519259e-001
<MEAN> 39
 -2.481207e+001 2.863282e+000 -6.778234e+000 -1.534496e+001 6.753314e+000 -1.668420e+000 -2.930080e+000 1.029376e+001 -1.169505e+001 9.756100e-001 -3.115801e+000 7.182346e+000 1.914760e+001 -1.199029e+000 2.914587e+000 1.647581e+000 -3.989786e+000 2.431430e+000 2.174939e+000 9.596384e-001 4.881850e+000 1.503516e+000 2.313823e-001 -1.569537e+000 -2.744239e+000 6.024702e-001 7.649916e-001 -9.799411e-001 2.357380e-001 1.087328e+000 -1.052881e+000 2.381497e-001 -1.104081e-001 -6.028350e-001 1.313537e+000 -1.116093e+000 4.230165e-001 -1.653778e+000 -3.868740e-001
<VARIANCE> 39
 4.616806e-001 6.375043e-001 4.657230e-001 8.251415e-001 5.223569e+000 1.737583e+000 5.610021e-001 7.400727e-001 1.087130e+000 4.098985e+000 8.533108e-001 9.569414e-001 1.638780e+016 7.356574e-002 2.595221e-002 2.922606e-002 3.155651e-002 1.942938e-001 1.332687e-001 4.557283e-002 3.378699e-001 5.736970e-001 5.178665e-002 5.471007e-002 2.467166e-001 2.433853e+014 1.529906e-002 2.938567e-002 4.975221e-003 3.496195e-002 1.013971e-001 1.383431e-002 1.301827e-002 1.457940e-001 4.911136e-002 1.817433e-002 2.018903e-002 4.896130e-002 4.060800e+013
<GCONST> 1.018724e+002
<MIXTURE> 2 3.480741e-001
<MEAN> 39
 -2.385544e+001 1.208098e+000 -6.751980e+000 -1.357499e+001 4.845452e+000 -2.143426e+000 -1.861551e+000 9.264314e+000 -9.086173e+000 4.931850e+000 -3.785928e+000 6.369854e+000 1.903280e+001 -1.450053e+000 2.492334e+000 1.112350e+000 -4.153633e+000 2.417295e+000 1.982028e+000 8.327946e-001 4.004256e+000 5.431169e-001 3.790484e-001 -1.603410e+000 -1.984531e+000 6.464753e-001 6.197082e-001 -6.707916e-001 2.027861e-001 6.545477e-001 -8.562996e-001 1.902756e-001 -7.989173e-002 -2.839317e-001 1.269412e+000 -1.030923e+000 2.897600e-001 -1.715216e+000 -3.476682e-001
<VARIANCE> 39
 1.358270e+000 3.635763e+000 1.008857e+000 2.015370e+000 1.175115e+001 8.571920e+000 2.441067e+000 9.368767e-001 6.581581e+000 1.625791e+001 8.901057e-001 1.760721e+000 1.638780e+016 2.355910e-001 5.323317e-002 8.754149e-002 6.670249e-002 4.268480e-001 2.093298e-001 6.682552e-002 1.059451e+000 1.750336e+000 5.315087e-001 5.471007e-002 1.369985e+000 2.433853e+014 5.513962e-002 2.288548e-001 1.130342e-002 2.388189e-001 1.327431e-001 4.164377e-002 8.330238e-003 2.364901e-001 2.867220e-002 2.371348e-002 4.895903e-002 1.042486e-001 4.060800e+013
<GCONST> 1.348074e+002
<STATE> 7
<NUMMIXES> 2
<MIXTURE> 1 4.290393e-001
<MEAN> 39
 -2.441592e+001 2.506853e+000 -3.799938e+000 -1.506877e+001 7.864084e+000 5.462062e+000 -2.057735e+000 9.726318e+000 -5.923523e+000 3.321711e+000 -6.974957e+000 2.598556e+000 1.953080e+001 -3.025912e-001 1.526057e+000 1.145310e+000 -2.364422e+000 1.166110e+000 2.283193e+000 1.038670e+000 4.424348e+000 3.430681e+000 -6.615475e-001 9.414581e-002 -3.937077e+000 2.159167e-001 1.077794e+000 -1.514368e+000 -1.184732e-001 1.751544e+000 -1.430297e+000 -4.840205e-001 -2.492501e-001 -1.588398e+000 5.733930e-001 -1.381717e+000 8.300264e-001 -5.514997e-001 -3.653414e-001
<VARIANCE> 39
 9.890767e-001 6.375043e-001 4.657230e-001 6.378924e+000 7.688239e+000 8.682418e-001 5.610021e-001 9.577379e-001 1.499186e+001 2.212135e+000 7.282971e+000 2.942944e+000 1.638780e+016 9.449705e-002 1.759471e-001 2.922606e-002 6.371365e-001 1.012328e-001 3.952662e-001 8.651157e-002 7.008615e-001 9.688906e-002 4.634015e-002 8.980832e-001 5.149198e-002 2.433853e+014 4.025485e-003 5.542446e-003 4.975221e-003 8.435328e-002 8.651932e-003 8.349746e-003 1.006161e-002 2.206447e-001 1.671605e-001 2.000739e-002 5.659807e-002 1.239318e-001 4.060800e+013
<GCONST> 1.145706e+002
<MIXTURE> 2 5.709605e-001
<MEAN> 39
 -2.162683e+001 -2.629755e-001 -5.174194e+000 -2.132176e+001 -5.199422e-003 2.658211e+000 -5.455653e-001 1.383841e+001 3.424123e+000 3.872346e+000 -9.836570e+000 -3.440951e+000 1.957265e+001 7.643865e-001 -3.065932e-001 1.218025e+000 -3.812741e-001 8.163144e-003 2.675184e+000 4.354735e-001 2.493018e+000 3.204065e+000 -1.377302e+000 1.301373e+000 -4.462441e+000 -4.440462e-002 1.209108e+000 -1.503060e+000 -3.106326e-001 2.173854e+000 -1.643810e+000 -6.895416e-001 -6.954868e-001 -2.794698e+000 -3.694224e-001 -1.032500e+000 1.222800e+000 6.493794e-001 -2.111317e-001
<VARIANCE> 39
 4.616806e-001 1.639235e+000 6.075543e-001 1.646736e+000 3.588912e+000 1.004852e+000 2.285522e+000 6.775233e+000 4.549697e+000 9.463280e-001 1.779327e+000 5.586495e+000 1.638780e+016 2.438225e-001 8.159549e-001 2.922606e-002 7.160486e-001 1.442837e-001 1.648323e-001 4.557283e-002 1.079809e-001 4.825228e-002 3.616812e-001 5.471007e-002 5.149198e-002 2.433853e+014 1.898237e-002 1.643672e-002 3.683961e-002 1.930431e-002 1.104933e-001 6.438451e-002 6.321479e-002 1.537724e-001 1.139495e-001 1.398319e-001 1.514844e-002 2.778000e-001 4.060800e+013
<GCONST> 1.220089e+002
<TRANSP> 8
 0.000000e+000 1.000000e+000 0.000000e+000 0.000000e+000 0.000000e+000 0.000000e+000 0.000000e+000 0.000000e+000
 0.000000e+000 9.696200e-001 3.038003e-002 0.000000e+000 0.000000e+000 0.000000e+000 0.000000e+000 0.000000e+000
 0.000000e+000 0.000000e+000 7.576061e-001 2.423939e-001 0.000000e+000 0.000000e+000 0.000000e+000 0.000000e+000
 0.000000e+000 0.000000e+000 0.000000e+000 3.829111e-001 6.170889e-001 0.000000e+000 0.000000e+000 0.000000e+000
 0.000000e+000 0.000000e+000 0.000000e+000 0.000000e+000 4.324316e-001 5.675685e-001 0.000000e+000 0.000000e+000
 0.000000e+000 0.000000e+000 0.000000e+000 0.000000e+000 0.000000e+000 8.695608e-002 9.130439e-001 0.000000e+000
 0.000000e+000 0.000000e+000 0.000000e+000 0.000000e+000 0.000000e+000 0.000000e+000 1.968453e-001 8.031547e-001
 0.000000e+000 0.000000e+000 0.000000e+000 0.000000e+000 0.000000e+000 0.000000e+000 0.000000e+000 0.000000e+000
<ENDHMM>
~h "fu"
<BEGINHMM>
<NUMSTATES> 8
<STATE> 2
<NUMMIXES> 2
<MIXTURE> 1 5.255013e-001
<MEAN> 39
 -8.602610e+000 -5.559305e+000 -1.281858e+001 -4.459866e+000 6.665114e+000 -3.336286e+000 -1.090143e+001 -2.537017e+000 -5.724710e+000 8.116850e+000 -2.212946e+000 -1.228274e+000 1.956609e+001 4.198298e+000 6.029634e-002 -1.736123e+000 -9.904361e-001 -3.909861e+000 -7.569175e+000 -4.717225e+000 1.086468e+000 2.659404e+000 -4.896566e-001 2.845076e+000 2.816840e+000 1.931739e+000 -3.942080e-001 -1.129192e+000 3.290825e-002 7.611784e-001 -2.237570e+000 -2.748948e-001 1.344677e+000 -8.934281e-001 -5.263342e-001 -1.071274e+000 1.507182e+000 1.251194e+000 1.246553e-001
<VARIANCE> 39
 7.768699e+000 7.387565e+000 2.392629e+000 6.172227e+000 1.789713e+001 2.944640e+001 1.438022e+001 1.559063e+000 7.090659e+000 5.408851e+000 9.459216e+000 3.474175e+000 1.638780e+016 1.276865e-001 2.970253e-001 1.777081e-001 6.290660e-001 6.703870e-001 4.933366e-001 1.248532e+000 6.029840e-001 9.659718e-001 1.098071e+000 2.892435e-001 8.669577e-001 2.433853e+014 1.646515e-001 4.510006e-002 4.242321e-002 3.007581e-002 1.046252e-001 9.080269e-001 3.915288e-001 8.740429e-002 7.149713e-002 1.149742e-002 4.787006e-002 3.906431e-002 4.060800e+013
<GCONST> 1.578727e+002
<MIXTURE> 2 4.744987e-001
<MEAN> 39
 1.420872e-001 -7.210349e+000 -2.080514e+001 -1.134085e+001 -5.969677e+000 -1.783538e+001 -1.866188e+001 -6.322287e+000 3.477831e+000 4.837942e+000 1.748478e+000 5.678209e+000 2.329907e+001 2.594117e+000 -1.740417e+000 -1.061459e+000 1.280858e+000 -6.527226e+000 -6.182542e+000 4.542969e-001 3.971869e-001 -7.385036e-001 -2.731105e+000 5.307083e+000 4.547836e+000 1.785330e+000 -1.637137e+000 -7.531990e-001 9.738799e-001 3.981286e-001 -1.152249e+000 2.828826e+000 2.152727e+000 -1.575310e+000 -1.074898e+000 -4.354980e-001 9.394892e-001 6.423950e-001 -3.579147e-001
<VARIANCE> 39
 1.234184e+000 7.634318e+000 1.004627e+001 2.399150e+000 4.743948e+000 6.300798e+000 5.166549e+000 3.241476e+000 3.520211e+000 6.127750e+000 2.900842e+000 2.841487e+000 1.638780e+016 3.145261e-001 4.178091e-001 1.775035e-001 1.555453e-001 6.222353e-001 1.480949e+000 1.749770e+000 8.966487e-001 7.226794e-001 1.121621e-001 9.370781e-001 1.946104e-001 2.433853e+014 4.511502e-002 1.050813e-001 1.107929e-001 7.066704e-002 1.883776e-001 4.201311e-001 1.099038e-001 5.908622e-002 7.741134e-002 5.983612e-002 5.645823e-002 5.300927e-002 4.060800e+013
<GCONST> 1.518692e+002
<STATE> 3
<NUMMIXES> 2
<MIXTURE> 1 4.133230e-001
<MEAN> 39
 -3.974654e+000 -1.593330e+001 -1.638835e+001 1.210549e-001 -1.982398e+001 -1.827807e+001 -2.122908e+000 -6.504228e+000 -9.875159e+000 -3.123412e+000 1.637381e+001 1.447189e+001 2.418402e+001 -2.345252e+000 -8.223755e-001 3.395542e+000 -9.019216e-001 -5.501985e+000 6.277730e+000 2.043060e+000 -5.090977e+000 -9.501157e-001 3.592587e-002 4.126722e+000 2.740414e+000 1.420204e-001 -9.744325e-001 1.594155e+000 2.406078e-001 -1.439137e+000 2.373146e+000 2.166784e+000 -1.272347e+000 -1.238405e-001 1.255586e+000 9.849264e-001 -1.152020e+000 -6.001356e-001 -4.692879e-001
<VARIANCE> 39
 4.616806e-001 6.375043e-001 2.464314e+000 2.682385e+000 8.993442e+000 8.510596e+000 6.996825e+000 1.159061e+001 3.356742e+000 8.324351e+000 4.637599e+000 2.517520e+000 1.638780e+016 1.173332e-001 7.457955e-001 5.465477e-001 5.328537e-001 8.015481e-001 8.044604e-001 7.034664e-001 3.490086e-001 6.303607e-001 1.579683e-001 2.021866e-001 8.225202e-002 2.433853e+014 3.813390e-002 4.775851e-002 3.085261e-002 2.976857e-002 9.506711e-002 4.813284e-001 1.711090e-001 1.759185e-001 3.306542e-002 3.466522e-002 9.383236e-002 2.798968e-002 4.060800e+013
<GCONST> 1.441415e+002
<MIXTURE> 2 5.866770e-001
<MEAN> 39
 -9.641410e-001 -1.314447e+001 -2.354426e+001 -5.138656e+000 -9.397186e+000 -2.153908e+001 -1.410876e+001 1.014625e+000 2.492217e+000 -4.891651e+000 5.049539e+000 1.272751e+001 2.396565e+001 -1.485244e-001 -2.838839e+000 8.952953e-001 5.578277e-001 -8.100978e+000 1.843925e-001 3.090317e+000 -4.046785e+000 -1.435056e+000 -1.584149e+000 5.040226e+000 3.835893e+000 9.350314e-001 -1.725305e+000 5.092357e-001 1.195300e+000 -8.671592e-001 5.396379e-001 3.884298e+000 6.252970e-001 -1.474527e+000 -1.620018e-001 5.382828e-001 -1.032972e-001 -4.405715e-001 -5.517781e-001
<VARIANCE> 39
 1.454137e+000 3.108058e+000 3.841424e+000 7.498122e+000 7.676730e+000 2.273201e+000 1.036518e+001 1.211411e+001 7.031941e+000 9.707846e+000 1.243557e+001 4.063036e+000 1.638780e+016 9.404339e-001 9.393958e-002 4.321968e-001 2.991224e-001 5.695211e-001 6.005116e+000 6.612050e-001 1.151250e+000 2.504569e-001 9.264375e-002 5.024140e-001 2.927966e-001 2.433853e+014 3.815025e-002 2.198863e-001 8.736902e-002 1.747101e-001 3.942109e-001 1.289769e-001 3.979738e-001 1.141862e-001 2.949076e-001 1.121450e-001 1.491659e-001 6.934571e-002 4.060800e+013
<GCONST> 1.619708e+002
<STATE> 4
<NUMMIXES> 2
<MIXTURE> 1 5.673481e-001
<MEAN> 39
 -8.982395e+000 -7.454432e+000 -1.367547e+001 -1.686398e+001 -1.978366e+001 9.397546e-002 -1.696229e+001 -1.422445e+001 4.678431e+000 -1.642358e+000 1.864743e+001 1.910920e+001 2.397434e+001 -8.623247e-001 4.133232e+000 -1.637463e+000 -1.715426e+000 3.167800e+000 -2.140752e+000 -1.791837e+000 1.389546e+000 2.978194e+000 9.773667e-001 5.857988e-001 2.763504e+000 -5.152538e-002 5.500838e-001 4.976371e-001 -8.923275e-001 1.018684e+000 1.254001e+000 -3.037954e+000 6.459171e-001 1.319584e+000 -1.875341e-001 6.762940e-001 -7.964283e-001 -1.114459e-001 -5.298747e-003
<VARIANCE> 39
 5.267787e-001 7.805566e+000 4.372242e+000 2.433276e+000 1.519772e+001 1.176505e+001 3.231584e+000 2.003466e+001 2.629102e+000 4.034192e+000 5.555093e+000 2.229141e+000 1.638780e+016 1.193182e-001 1.275613e-001 6.558497e-001 2.271613e+000 5.967088e-001 6.803434e+000 1.900489e+000 1.535528e+000 9.697055e-001 6.039806e-001 2.003235e-001 1.291609e-001 2.433853e+014 1.185277e-002 3.008642e-001 2.928250e-001 9.791251e-002 6.797169e-001 3.215064e-001 3.051586e-001 2.270606e-001 3.175675e-001 4.805381e-002 1.299875e-001 5.459034e-002 4.060800e+013
<GCONST> 1.634730e+002
<MIXTURE> 2 4.326519e-001
<MEAN> 39
 -6.844074e+000 -1.472572e+001 -1.079556e+001 -7.980107e+000 -2.714665e+001 -2.777220e+000 -4.581930e+000 -2.197470e+001 -5.005912e+000 3.599514e+000 1.622548e+001 1.466668e+001 2.405039e+001 -2.026457e+000 2.170355e+000 1.939175e+000 -3.916828e+000 -1.641045e+000 5.581301e+000 -1.966400e+000 -3.421204e+000 2.022981e+000 8.443759e-001 2.812071e+000 1.872848e+000 -2.481251e-002 4.720019e-002 1.823073e+000 -1.036389e+000 -3.912876e-001 2.992866e+000 -1.516103e+000 -1.184527e+000 1.698626e+000 1.186864e+000 6.164418e-001 -1.202207e+000 -1.928162e-001 -2.010975e-001
<VARIANCE> 39
 1.430535e+000 3.741807e+000 2.495072e+000 1.980825e+001 3.463252e+000 2.180461e+001 2.443131e+001 1.269605e+001 2.402781e+001 2.036058e+000 2.327020e+000 3.804318e+000 1.638780e+016 1.818813e-001 1.024805e+000 1.207450e+000 4.121553e-001 3.047342e+000 1.725557e+000 8.500317e-001 1.329859e+000 1.746514e+000 4.450354e-001 1.171755e+000 2.295184e-001 2.433853e+014 1.057227e-001 5.660000e-002 1.557747e-001 2.616622e-001 1.038240e-001 1.485002e+000 1.901671e-001 1.850651e-001 1.228313e-001 4.154231e-002 5.180772e-002 2.469110e-002 4.060800e+013
<GCONST> 1.675483e+002
<STATE> 5
<NUMMIXES> 2
<MIXTURE> 1 3.777329e-001
<MEAN> 39
 -8.446551e+000 4.215080e+000 -1.189436e+001 -1.683529e+001 -1.760244e+001 -2.112881e+001 -1.178703e+001 -3.759466e+000 3.718611e+000 1.525198e+001 2.066166e+001 2.059292e+001 2.385815e+001 1.117385e+000 4.021914e-001 2.885903e+000 1.453660e+000 -6.221696e-002 8.528652e-001 5.161276e-001 3.425138e+000 -5.659913e-001 1.326803e-001 -1.615705e+000 -3.921369e+000 -1.920336e-001 2.239617e-001 2.392217e-001 1.025996e+000 2.006679e+000 1.840553e+000 2.329825e+000 1.109156e+000 -1.643576e-001 -7.968298e-002 -1.838315e+000 -1.505310e+000 -9.610858e-001 -6.544201e-002
<VARIANCE> 39
 7.417584e-001 1.617357e+000 5.239268e+000 3.987000e+000 9.845056e+000 4.978453e+000 5.170981e+000 6.871902e+000 4.779259e+000 1.150669e+001 4.887805e+000 1.622421e+001 1.638780e+016 3.027974e-001 4.271224e-001 1.122209e+000 2.952760e+000 3.877818e+000 3.394029e+000 6.830423e-001 5.936942e-001 4.154401e-001 3.163223e+000 2.300286e+000 5.685881e-001 2.433853e+014 4.155348e-002 8.892903e-002 4.132899e-002 2.033963e-001 6.971014e-001 2.574439e-001 2.697822e-001 1.265981e-001 7.178297e-002 1.458257e-001 1.175191e-001 1.374984e-001 4.060800e+013
<GCONST> 1.697476e+002
<MIXTURE> 2 6.222671e-001
<MEAN> 39
 -9.352359e+000 2.191109e+000 -1.736914e+001 -1.392481e+001 -1.350171e+001 -1.654831e+001 -1.118508e+001 -1.275732e+001 5.979082e+000 7.814025e+000 1.878169e+001 2.532375e+001 2.392477e+001 7.858495e-002 2.164179e+000 3.551807e-001 -4.951836e-001 6.137689e-001 -3.530955e+000 5.013096e-001 1.724553e+000 1.771117e-001 2.675170e+000 5.098713e-001 4.168583e-001 -5.409377e-003 3.018724e-001 -8.265076e-001 9.140118e-001 1.376912e-001 -8.802431e-001 7.648050e-001 1.031953e-001 5.570011e-001 -6.441676e-001 -1.471244e-001 -1.554361e-001 -1.222236e+000 -1.579961e-002
<VARIANCE> 39
 6.174788e-001 8.210654e+000 4.004108e+000 6.491724e+000 4.013098e+000 1.367461e+001 5.116208e+000 6.816538e+000 5.439051e+000 8.752170e+000 5.439465e+000 2.897808e+000 1.638780e+016 1.066535e-001 1.645628e+000 2.259207e+000 1.059339e+000 2.624282e+000 3.433868e+000 7.133316e-001 1.400399e+000 7.626836e-001 4.254369e-001 5.516796e-001 2.275100e+000 2.433853e+014 8.005027e-003 7.609288e-002 8.478352e-002 2.394370e-001 2.993469e-001 8.927325e-001 2.351004e-001 9.838089e-002 1.093797e-001 3.300155e-001 2.183241e-001 1.505438e-001 4.060800e+013
<GCONST> 1.698398e+002
<STATE> 6
<NUMMIXES> 2
<MIXTURE> 1 5.893822e-001
<MEAN> 39
 -3.057792e+000 7.237540e+000 -1.556955e+000 -6.887190e+000 -8.431644e+000 -1.134573e+001 -6.798997e+000 2.753230e+000 4.142306e+000 6.166625e+000 1.154761e+001 9.937738e+000 2.306199e+001 6.487653e-001 1.809066e+000 5.663040e+000 6.935738e+000 6.771873e+000 7.680665e+000 5.040510e+000 2.202908e+000 -9.150299e-001 -4.799366e+000 -5.051856e+000 -4.658676e+000 -2.393101e-001 -9.816397e-001 -4.377101e-001 -6.079510e-001 -1.533092e-002 5.528079e-001 7.591605e-001 6.920866e-001 -6.270760e-001 1.551686e-001 8.985928e-002 2.275982e-002 2.765496e-001 -1.229405e-001
<VARIANCE> 39
 5.529829e+000 8.511331e+000 3.500241e+001 2.822021e+001 4.838855e+001 4.726975e+001 1.902820e+001 5.517544e+000 1.014988e+001 2.760585e+001 8.898052e+000 3.444248e+000 1.638780e+016 5.442259e-001 1.070539e-001 2.940315e-001 5.751231e-001 1.456403e+000 1.776131e+000 1.157993e+000 5.063636e-001 3.871695e-001 9.159464e-001 4.671977e-001 3.068202e-001 2.433853e+014 7.758756e-002 2.982104e-001 6.419987e-001 1.021020e+000 1.351868e+000 1.158875e+000 4.241855e-001 1.050896e-001 4.482962e-002 8.815628e-001 4.756577e-001 5.473429e-002 4.060800e+013
<GCONST> 1.847550e+002
<MIXTURE> 2 4.106179e-001
<MEAN> 39
 -5.627577e+000 9.185875e+000 3.705358e+000 2.640416e+000 -2.875498e-001 -5.426601e-001 -1.577482e+000 3.476854e+000 3.368562e-001 1.207802e+000 4.734336e+000 3.767940e+000 2.310102e+001 -7.937380e-001 7.650613e-001 3.743161e+000 4.664707e+000 4.907681e+000 7.025598e+000 4.466368e+000 1.532936e+000 -1.036507e-002 -2.898177e+000 -4.041438e+000 -3.991261e+000 -4.207878e-001 -8.312350e-001 -1.167969e+000 -1.738824e+000 -1.594112e+000 -1.289666e+000 -1.089137e+000 -5.065159e-001 -9.580110e-001 2.841043e-001 8.942171e-001 8.903593e-001 7.571241e-001 -2.343572e-001
<VARIANCE> 39
 1.726152e+000 1.037653e+001 7.984698e+001 1.074680e+002 1.034002e+002 1.637684e+002 5.267043e+001 2.028156e+000 1.003720e+001 6.896166e+001 5.200616e+001 1.534395e+001 1.638780e+016 1.836700e+000 4.430566e-001 1.820814e+000 7.998635e-001 6.448693e-001 1.255698e+000 1.843457e+000 8.173440e-001 2.864658e-001 1.246934e+000 3.646249e-001 4.140970e-001 2.433853e+014 6.742851e-002 6.655924e-001 2.072753e+000 3.411950e+000 3.644786e+000 4.457821e+000 1.726995e+000 6.062881e-002 4.128666e-002 1.777239e+000 1.190884e+000 2.000328e-001 4.060800e+013
<GCONST> 2.058319e+002
<STATE> 7
<NUMMIXES> 2
<MIXTURE> 1 3.694374e-001
<MEAN> 39
 -8.948481e+000 8.148488e+000 6.859325e+000 6.111794e+000 4.708999e+000 7.600183e+000 8.119330e+000 8.294071e+000 4.773076e+000 1.428379e+000 7.739521e-001 -1.618222e+000 2.203891e+001 -2.417024e+000 -3.053585e+000 -1.916071e+000 -9.174576e-001 -2.366129e-001 1.115747e+000 9.538450e-001 -8.040692e-001 2.306592e-002 6.734641e-001 -5.429415e-001 -2.067512e+000 -1.126862e+000 -7.846314e-002 -1.122429e+000 -2.142567e+000 -2.455510e+000 -2.614322e+000 -2.761086e+000 -2.044450e+000 -1.211080e+000 -2.697896e-001 7.493535e-001 1.081639e+000 1.144323e+000 -2.300376e-001
<VARIANCE> 39
 1.525326e+000 3.761002e+000 9.699693e+000 1.150093e+001 1.125708e+001 5.917435e+000 3.242145e+000 1.062374e+001 8.047952e+000 7.126110e+000 4.596815e+000 2.580806e+000 1.638780e+016 2.596286e-001 9.410676e-001 2.554526e+000 4.053876e+000 4.094089e+000 5.905885e+000 1.529960e+000 9.944028e-001 2.818112e-001 1.030673e+000 8.239208e-001 1.291235e+000 2.433853e+014 8.641581e-002 2.437812e-001 4.555618e-001 4.464118e-001 3.746290e-001 2.785245e-001 8.774922e-002 1.691137e-001 5.348283e-002 1.536979e-001 2.311785e-001 4.806914e-002 4.060800e+013
<GCONST> 1.763303e+002
<MIXTURE> 2 6.305623e-001
<MEAN> 39
 -1.249453e+001 -2.079489e+000 -2.967854e+000 -2.606684e+000 -3.150774e+000 2.433221e+000 2.400118e+000 -1.177907e-001 1.591943e-002 1.830349e-001 2.477162e+000 -1.722255e+000 1.857037e+001 -1.152629e+000 -2.078151e+000 -2.465916e+000 -2.401593e+000 -3.309164e+000 -2.556456e+000 -2.395377e+000 -2.271443e+000 -9.279446e-001 -4.425244e-001 -1.344936e+000 1.164466e-001 -1.049542e+000 3.445187e-001 9.185833e-001 7.446848e-001 5.442038e-001 3.446257e-001 -4.044158e-001 -4.853765e-001 3.615817e-001 5.769996e-002 -2.332693e-001 -4.384766e-001 4.355617e-001 1.721871e-001
<VARIANCE> 39
 6.479525e-001 8.629635e+000 1.765037e+001 1.862364e+001 2.299108e+001 1.427071e+001 4.095525e+000 3.459052e+000 1.911451e+000 2.082540e+001 4.590531e+000 1.902983e+000 1.638780e+016 3.640532e-002 2.218915e+000 2.179971e+000 1.724864e+000 1.035455e+000 4.190050e-001 4.715734e-001 5.867034e-001 3.803731e-001 9.310552e-001 2.022289e+000 2.703566e-001 2.433853e+014 8.866650e-003 1.904135e-001 4.756725e-001 6.421416e-001 1.465384e+000 8.139058e-001 5.421132e-001 4.942771e-001 1.124740e-001 8.598408e-002 1.149266e-001 1.214357e-001 4.060800e+013
<GCONST> 1.727108e+002
<TRANSP> 8
 0.000000e+000 1.000000e+000 0.000000e+000 0.000000e+000 0.000000e+000 0.000000e+000 0.000000e+000 0.000000e+000
 0.000000e+000 4.997376e-001 5.002624e-001 0.000000e+000 0.000000e+000 0.000000e+000 0.000000e+000 0.000000e+000
 0.000000e+000 0.000000e+000 4.873228e-001 5.126773e-001 0.000000e+000 0.000000e+000 0.000000e+000 0.000000e+000
 0.000000e+000 0.000000e+000 0.000000e+000 6.839358e-001 3.160642e-001 0.000000e+000 0.000000e+000 0.000000e+000
 0.000000e+000 0.000000e+000 0.000000e+000 0.000000e+000 8.318184e-001 1.681816e-001 0.000000e+000 0.000000e+000
 0.000000e+000 0.000000e+000 0.000000e+000 0.000000e+000 0.000000e+000 6.655560e-001 3.344440e-001 0.000000e+000
 0.000000e+000 0.000000e+000 0.000000e+000 0.000000e+000 0.000000e+000 0.000000e+000 7.968019e-001 2.031980e-001
 0.000000e+000 0.000000e+000 0.000000e+000 0.000000e+000 0.000000e+000 0.000000e+000 0.000000e+000 0.000000e+000
<ENDHMM>
~h "le"
<BEGINHMM>
<NUMSTATES> 8
<STATE> 2
<NUMMIXES> 2
<MIXTURE> 1 4.542742e-001
<MEAN> 39
 -6.867808e+000 -1.643905e+001 -6.295807e+000 -1.462923e+001 -2.766275e+000 -9.027829e+000 -8.406880e+000 -1.564809e+001 -1.100777e+001 -6.552750e+000 -7.800128e+000 -1.621701e-001 2.282262e+001 -5.031137e-001 -7.550325e-001 2.036460e-001 3.251210e-001 1.737489e+000 9.432731e-001 -1.054657e+000 -3.349638e-001 3.531368e-002 -1.812052e-001 1.029696e+000 1.501416e+000 -1.777051e-002 -3.821114e-002 1.292792e-001 4.465595e-002 9.252220e-002 1.443034e-001 -5.954435e-001 -2.437073e-001 3.137899e-001 -6.724627e-002 1.019643e-001 -2.172380e-001 -1.062221e-001 -8.656948e-003
<VARIANCE> 39
 3.083672e+000 3.999083e+000 3.292103e+000 4.030168e+000 4.010483e+001 1.137134e+001 1.641726e+001 5.109180e+000 4.868126e+000 3.597869e+000 9.892328e+000 3.549198e+001 1.638780e+016 2.010339e-001 1.368874e-001 1.877881e-001 2.721899e-001 3.502325e+000 3.059250e+000 1.363048e+000 1.531427e+000 5.229567e-001 4.039733e-001 9.979640e-001 3.696429e+000 2.433853e+014 5.250326e-002 1.022522e-002 2.592863e-002 5.145315e-002 1.158183e+000 2.500797e-001 3.158809e-001 2.754753e-001 1.014503e-001 6.323521e-002 3.064958e-001 9.658971e-001 4.060800e+013
<GCONST> 1.700420e+002
<MIXTURE> 2 5.457261e-001
<MEAN> 39
 -8.320452e+000 -1.702096e+001 -4.777980e+000 -1.374684e+001 -3.197741e-001 -1.436755e+001 -1.190155e+001 -1.380172e+001 -1.265346e+001 -5.569389e+000 -7.177045e+000 -5.661153e-001 2.269993e+001 -1.099336e-001 -6.794453e-001 1.306552e-001 -2.013870e-001 -6.170428e-001 6.032410e-001 7.920969e-002 -5.364024e-001 -5.741742e-001 -2.648806e-002 1.295826e+000 -7.086658e-001 -1.717826e-002 1.599385e-001 5.678504e-003 -2.588354e-001 2.761699e-002 -1.677112e-001 5.085876e-001 -1.386997e-001 5.541902e-002 2.064629e-001 -2.778974e-001 -4.125140e-002 -2.067972e-001 -5.393793e-004
<VARIANCE> 39
 2.643156e+000 1.530903e+001 1.714976e+000 2.909013e+000 1.958933e+001 3.437371e+001 1.606262e+001 1.894408e+001 2.861114e+000 5.185207e+000 5.621091e+001 1.642237e+001 1.638780e+016 1.495743e-001 3.752791e-001 5.915377e-001 3.181481e-001 5.153328e-001 3.515866e+000 9.881878e-001 1.738195e+000 5.126691e-001 4.837484e-001 3.800055e+000 6.619440e-001 2.433853e+014 2.225883e-002 4.231980e-002 3.828804e-002 5.291383e-002 2.192216e-001 3.918200e-001 1.330305e-001 1.780396e-001 1.683906e-001 9.901528e-002 4.538291e-001 1.889758e-001 4.060800e+013
<GCONST> 1.707321e+002
<STATE> 3
<NUMMIXES> 2
<MIXTURE> 1 3.798716e-001
<MEAN> 39
 -6.870714e+000 -1.293263e+001 -1.063734e+001 -1.923676e+001 -8.388547e-001 -8.942203e+000 -2.107344e+001 -1.206281e+001 -1.239999e+001 -1.246569e+001 -7.385689e+000 1.915516e+000 2.183530e+001 4.021973e-001 2.479054e+000 -6.715113e-001 -8.611845e-001 -1.998873e+000 7.978665e-001 3.165197e-002 -1.401523e-001 -2.125996e-001 2.441141e-001 4.776369e-001 5.943325e-001 -1.597063e-001 -1.027438e-001 5.148088e-003 2.774586e-001 9.459299e-001 -2.369723e-001 -2.168949e-002 6.281112e-001 -1.568974e-001 3.540524e-001 6.366351e-001 8.225902e-001 -5.039658e-001 -9.623544e-002
<VARIANCE> 39
 1.257283e+000 1.604144e+001 5.727347e+000 1.001860e+001 5.852647e+000 8.186222e+000 4.933761e+000 3.417968e+000 4.775129e+000 1.671234e+001 9.605250e+000 1.876240e+001 1.638780e+016 8.479308e-002 5.507301e-001 1.902856e-001 8.022689e-001 3.684864e+000 7.636737e-001 2.730183e-001 1.032763e+000 1.152523e+000 9.053789e-001 1.485554e+000 2.992377e+000 2.433853e+014 2.100585e-002 1.914677e-001 6.147835e-002 6.263620e-001 4.341994e-001 1.259025e-001 1.350752e-001 8.656888e-002 2.820141e-001 1.774400e-001 3.897591e-001 6.603560e-001 4.060800e+013
<GCONST> 1.726744e+002
<MIXTURE> 2 6.201280e-001
<MEAN> 39
 -7.918428e+000 -1.858889e+001 -7.567059e+000 -1.459513e+001 5.323148e-001 -1.108445e+001 -1.850982e+001 -1.199673e+001 -1.293206e+001 -8.135965e+000 -3.832279e+000 -3.856532e+000 2.228292e+001 4.315266e-001 1.175190e+000 -9.762048e-001 -1.218078e+000 -2.599972e-001 3.192909e-002 -1.203928e+000 2.248195e-001 4.732908e-001 -1.126014e+000 -9.176212e-001 4.825786e-001 -1.471217e-001 -8.795281e-003 4.793380e-001 -3.452095e-002 -3.113995e-001 -1.918371e-001 3.892469e-002 7.464041e-002 -3.366233e-001 -6.673618e-003 4.115669e-003 -1.293669e-001 6.239610e-001 -2.701952e-002
<VARIANCE> 39
